tree
version=v4
num_class=9
num_tree_per_iteration=9
label_index=0
max_feature_idx=10
objective=multiclass num_class:9
feature_names=Column_0 Column_1 Column_2 Column_3 Column_4 Column_5 Column_6 Column_7 Column_8 Column_9 Column_10
feature_infos=[-0.96984736514622882:20.871384167092444] [-4.4242554862380423:1.7715563446033218] [-1.6326098261093491:3.6197788632517591] [-0.9062974542341915:5.8469615915208912] [-0.35312356883953394:37.759973037068619] [-0.090434061257557152:11.057780509845617] none [-1.1425689824782159:0.87522067843204898] [-0.31874420184056751:5.4232179671326364] [-0.99286780659083596:1.0071834269998676] none
tree_sizes=2215 1806 3315 1484 3130 3213 3315 3354 2212 2139 2365 3372 1196 3005 2987 3365 3422 2042 1834 1932 3377 1088 3211 3091 3389 3398 3086 1840 2253 3381 1404 2887 3424 3392 3415 1739 1949 1938 3390 3414 3403 2788 3379 3421 2351 2272 1519 3359 1724 3408 2472 3384 3429 2031 2149 1520 3362 1733 1842 2794 3378 3424 1207 1836 2256 3398 1841 3217 2347 3387 3405 2140 2374 2572 3389 3411 3218 2481 3399 3402 2584 2352 2364 3404 1621 3433 2909 3411 3404 2565 2153 2360 3365 3432 3400 3420 3403 3410 2799 2367 2338 3362 2377 3431 2982 3380 3428 2783 2476 1939 3416 3420 3406 3427 3414 3419 2380 1849 2900 3382 2578 3415 2698 3362 3404 2580 1835 2150 3397 3430 3413 2801 3378 3417 2352 3423 2597 3389 2375 3408 2595 3411 3409 2909 3208 2486 3434 3424 3414 2684 3414 3418 3411 2371 1730 3416 2904 3417 3442 3415 3420 3449 2057 2178 3413 2697 3408 2364 3405 3408 2577 2367 2799 3436 2806 3430 2903 3418 3421 2687 1739 2267 3412 2904 3423 2780 3402 3397 2774 1527 2367 3438 2700 3408 3416 3401 3427 2982 1854 2598 3440 3453 3413 3003 3396 3421 2581 1738 2373 3413 2588 3437 3285 3427 3424 2445 1744 1210 3402 3436 3433 3302 3433 3434 2783 2271 2157 3414 2705 3433 3384 3423 3399 2239 2178 2581 3410 2698 3431 3421 3411 3429 2266 2591 1833 3404 2878 3442 2383 3447 3439 2468 2467 2812 3412 3464 3432 2897 3424 3421 3118 2384 2049 3409 3117 3425 2989 3439 3424 1426 2814 1638 3437 2996 2700 2667 3415 3423 2563 3020 2469 3427 3456 3429 3449 3426 3423 3428 3007 2478 3427 3325 3441 2904 3413 3433 2821 2801 2474 3425 3416 3447 2687 3444 3394 2461 3002 2059 3430 3205 3448 2633 3388 3401 2822 1547 2283 3437 1642 3404 3420 3409 3422 2813 3239 2072 3422 2694 3446 3066 3446 3441 2474 2274 2487 3428 3097 3440 3107 3439 3427 3026 2173 1217 3395 3428 3441 3399 3443 3430 2595 2249 2072 3451 2805 3419 3105 3441 3453 2696 2061 2692 3424 2969 3453 3196 3468 3408 3018 2070 3150 3436 3433 3449 3441 3444 3414 3006 2596 2609 3433 2969 3463 3436 3424 3456 2722 2397 2299 3437 3492 3445 2869 3439 3421 3010 2408 1437 3419 3437 3452 3425 3417 3428 2929 1814 1960 3443 3429 3417 3316 3431 3448 2830 2068 2180 3452 3220 3453 3435 3438 3421 3134 2364 1322 3425 2664 3442 3222 3475 3438 2713 2257 2601 3438 3388 3444 3403 3467 3445 2473 2281 1934 3472 3280 3428 3414 3419 3426 2696 2495 2910 3434 3415 3408 3437 3432 3421 2596 2506 1625 3423 3417 3459 3438 3430 3402 2329 1008 3370 3429 3426 2978 3439 3446 3437 2487 1764 2625 3438 3429 3363 3119 3447 3435 2483 2608 3145 3424 3413 3437 3411 3434 3414 3008 2501 3241 3439 3406 3480 2866 3428 3459 2188 2727 3151 3420 3433 3464 3431 3453 3436 2492 3153 3139 3437 3423 3468 3451 3453 3437 2492 2459 3266 3442 3460 3461 2679 3455 3444 2604 2381 3241 3471 3450 3469 2802 3443 3415 3140 1847 2408 3435 3433 3472 2796 3423 3421 3363 2821 2314 3452 3120 3452 2708 3462 3432 2945 2163 2406 3420 3468 3448 3202 3467 3462 2290 2366 2511 3446 3016 3465 3414 3448 3430 3452 2901 2508 3461 3019 3428 3457 3442 3446 3128 2600 3056 3425 3428 3257 2955 3452 3415 2719 2160 2621 3407 3454 3465 3325 3436 3479 3369

Tree=0
num_leaves=20
num_cat=0
split_feature=2 1 7 0 1 7 3 9 0 1 9 7 1 1 2 1 1 1 0
split_gain=28.0574 78.0188 199.3 65.4607 21.2665 8.80876 10.7304 17.8316 5.78853 4.84062 9.00016 6.78704 6.62518 8.64269 4.34513 5.90493 4.2243 3.20096 1.64292
threshold=-1.1073709571732382 -0.65039480859812782 -1.0000000180025095e-35 -0.16802345677552263 -0.57596887575289124 1.0000000180025095e-35 -0.57910830648499256 1.0000000180025095e-35 -0.68751500304386737 -1.545522219005844 -1.0000000180025095e-35 1.0000000180025095e-35 -1.3211299816153952 -0.84475694555518677 -1.0000000180025095e-35 -0.8589618331347969 -1.3452388453421646 -0.73748119784715993 -0.71010159201205625
decision_type=2 2 2 2 2 2 2 2 2 2 2 2 2 2 2 2 2 2 2
left_child=1 9 3 -3 5 14 7 -7 -9 -1 11 12 -11 18 15 -2 -13 -10 -14
right_child=4 2 -4 -5 -6 6 -8 8 17 10 -12 16 13 -15 -16 -17 -18 -19 -20
leaf_value=-5.3548802277284242 -5.3401222373753079 -3.4730683987761424 -5.3501143560773556 -5.0571672523933007 -5.3566794285275385 -5.3374539157961216 -5.3401222373753079 -5.1201757690523415 -4.423395520121403 -5.3317393455349924 -5.3529479272695664 -5.066818445650469 -5.1137874271818511 -5.327407118674782 -5.3510053476700943 -5.0163810433872511 -5.3485962312986715 -5.0468517946554394 -4.7412203893091247
leaf_weight=2.2741611991077662 0.23183196689933538 0.21527254069224 0.64581762207672255 0.11591598344966769 19.893390683457252 0.19319330574944615 0.23183196689933527 0.16007445333525538 0.11039617471396923 0.13799521839246154 1.1426004082895818 0.12143579218536604 0.15455464459955692 0.11039617471396901 0.7506939880549971 0.24287158437073242 0.5188620211556555 0.11039617471396923 0.19319330574944615
leaf_count=412 42 39 117 21 3604 35 42 29 20 25 207 22 28 20 136 44 94 20 35
internal_value=-5.31509 -5.21612 -4.82164 -3.91476 -5.34077 -5.18888 -5.06514 -4.95674 -4.77731 -5.30382 -5.25411 -5.16279 -5.0478 -4.96385 -5.27872 -5.16684 -5.28487 -4.61933 -4.85476
internal_weight=27.5549 5.6302 0.977006 0.331189 21.9247 2.03129 0.805892 0.57406 0.380867 4.6532 2.37904 1.23644 0.596139 0.458144 1.2254 0.474704 0.640298 0.220792 0.347748
internal_count=4992 1020 177 60 3972 368 146 104 69 843 431 224 108 83 222 86 116 40 63
is_linear=0
shrinkage=1


Tree=1
num_leaves=16
num_cat=0
split_feature=3 2 0 0 1 2 0 2 0 1 1 0 2 0 2
split_gain=24.7914 34.1976 149.999 26.9998 55.7442 47.6804 29.0138 24.135 35.1224 1.96325 4.82342 1.94654 3.12445 0.575709 6.30811
threshold=-0.86283588611794582 -1.1073709571732382 -0.73268818098024524 -0.59716864717111184 -0.65039480859812782 -1.0000000180025095e-35 -0.64234182510748961 0.99358451857120511 -0.16802345677552263 -0.32368583842604559 -0.34401480308145477 -0.55199546923473397 1.0000000180025095e-35 -0.48423570233016727 0.99358451857120511
decision_type=2 2 2 2 2 2 2 2 2 2 2 2 2 2 2
left_child=1 -1 -3 4 -4 6 -6 9 -9 10 11 12 -5 14 -2
right_child=13 2 3 7 5 -7 -8 8 -10 -11 -12 -13 -14 -15 -16
leaf_value=-5.6983932741915639 -5.6964269596029045 -4.0995488154527742 -5.6903587348680587 -5.3886769448986627 -5.2267838128048627 -5.6740036681833859 -4.0132639495656424 -5.6769377905018663 -4.6012985381558362 -5.6972140526235622 -5.3349515274881911 -5.6939083744597054 -5.6785491614102845 -5.6993570937692075 -5.3451582582508355
leaf_weight=3.3187897084280849 1.353407150600108 0.13730217469856132 0.45113571686670184 0.10984173975884903 0.16083969036117196 0.13337925542146001 0.098072981927543879 0.15691677108407021 0.086304224096238502 1.7810053518041993 0.08630422409623939 0.75320050120353688 0.17260844819247723 10.693877949379379 0.090227143373340257
leaf_count=846 345 35 115 28 41 34 25 40 22 454 22 192 44 2726 23
internal_value=-5.65142 -5.57976 -5.48439 -5.55133 -5.30835 -4.90908 -4.56766 -5.62166 -5.18916 -5.66433 -5.6147 -5.65399 -5.55021 -5.69531 -5.66316
internal_weight=19.5832 7.4457 4.12691 3.98961 0.843428 0.392292 0.258913 3.14618 0.243221 2.90296 1.12195 1.03565 0.28245 12.1375 1.44363
internal_count=4992 1898 1052 1017 215 100 66 802 62 740 286 264 72 3094 368
is_linear=0
shrinkage=1


Tree=2
num_leaves=31
num_cat=0
split_feature=0 1 7 0 1 8 8 3 0 8 1 3 1 1 3 1 3 1 1 3 3 1 0 3 0 0 0 0 1 3
split_gain=227.063 183.66 84.8509 60.125 165.91 144.583 76.5294 74.6653 30.3817 24.4891 18.8337 17.7335 22.943 16.9952 7.44784 10.8028 7.22662 6.20087 10.015 10.5312 29.6588 16.8019 10.8395 5.8213 5.32481 4.98783 4.83938 4.62251 3.94126 3.58615
threshold=-0.32612957955284499 -0.98515555046119008 1.0000000180025095e-35 -0.43906252439378951 -0.37895542026326551 1.7319565727927195 1.0000000180025095e-35 -0.34472325344356491 -0.59716864717111184 1.0000000180025095e-35 0.11567836545142708 0.54026198338175024 -0.09108058301231281 -0.61993351479725589 -0.55857082179982187 -0.63366345364851284 -0.14472068684605036 -0.90530307501044016 -0.59664866412722428 -0.5840965091892435 -0.65177336330804392 -0.39126089396566538 -0.43906252439378951 -0.86283588611794582 -0.61975523613930072 -0.37130275748922276 -0.66492841407567849 -0.52940888026654509 -1.3211299816153952 -0.66572527576491314
decision_type=2 2 2 2 2 2 2 2 2 2 2 2 2 2 2 2 2 2 2 2 2 2 2 2 2 2 2 2 2 2
left_child=1 16 17 4 8 6 7 -6 9 13 -8 12 29 -4 15 -10 28 -3 26 20 22 -21 24 -2 -20 -14 -19 -17 -1 -5
right_child=23 2 3 11 5 -7 10 -9 14 -11 -12 -13 25 -15 -16 27 -18 18 19 21 -22 -23 -24 -25 -26 -27 -28 -29 -30 -31
leaf_value=-3.1227672422913217 -3.0886751857766894 -2.9370176106890589 -2.9056561246056338 -3.014239887723285 -2.6039840285938642 -3.1199962400258729 -2.5341078086772346 -3.0763583654025415 -3.0971978681301833 -3.0236689797682272 -2.1615613969128646 -3.1077803044245158 -2.7735639050346208 -2.707245759497158 -3.1208313889518893 -2.8986398574181571 -2.9788826405052151 -3.0042510757971796 -3.0653459320454344 -2.9210849806987556 -2.7748753708785987 -3.0944157791697391 -3.0698227936246014 -3.1208828430572977 -2.9657181888117852 -2.9395348647265234 -3.0992574331062772 -3.0353037920104651 -3.0869249164088757 -3.1185190232532625
leaf_weight=26.086046352982521 16.13671937584877 1.8314681500196446 3.8609328567981693 3.1679449081420898 3.5144388824701305 1.5839724540710447 1.1384802013635638 1.0889810621738454 2.0789638459682465 2.9699483513832092 0.98998278379440297 3.5639380216598511 1.2374784797430041 1.6334715932607657 2.227461263537406 1.7324698716402056 0.98998278379440208 1.6334715932607649 1.6829707324504841 1.682970732450485 1.385975897312165 7.1278760433197039 5.5934027284383783 123.10435916483402 8.2168571054935438 1.0394819229841212 6.4843872338533384 1.0889810621738432 11.186805456876753 1.039481922984123
leaf_count=527 326 37 78 64 71 32 23 22 42 60 20 72 25 33 45 35 20 33 34 34 28 144 113 2487 166 21 131 22 226 21
internal_value=-3.07501 -3.02055 -2.97219 -2.91564 -2.87252 -2.69265 -2.59215 -2.71469 -2.96953 -2.90569 -2.34266 -3.01899 -2.96994 -2.84342 -3.04635 -3.01188 -3.10847 -3.02629 -3.0314 -3.01612 -2.99301 -3.0609 -3.01359 -3.11717 -2.98226 -2.84369 -3.07951 -2.94888 -3.11211 -3.04078
internal_weight=247.1 107.859 69.5958 33.9564 23.9081 8.31586 6.73188 4.60342 15.5922 8.46435 2.12846 10.0483 6.48439 5.4944 7.12788 4.90041 38.2628 35.6394 33.8079 25.6901 16.8792 8.81085 15.4932 139.241 9.89983 2.27696 8.11786 2.82145 37.2729 4.20743
internal_count=4992 2179 1406 686 483 168 136 93 315 171 43 203 131 111 144 99 773 720 683 519 341 178 313 2813 200 46 164 57 753 85
is_linear=0
shrinkage=1


Tree=3
num_leaves=13
num_cat=0
split_feature=2 1 1 7 1 0 0 0 1 1 1 1
split_gain=4122.68 7.03794 4.10153 11.7971 1.62972 0.846786 0.438997 2.71104 0.223066 0.0637329 0.530534 0.0387939
threshold=-1.1073709571732382 0.053779552214962827 -1.2385345440977356 1.0000000180025095e-35 -0.93471226353997772 -0.66492841407567849 -0.75527476994843412 -0.66492841407567849 -1.1868513319103935 -0.031082869143041602 -0.046450447229941967 -1.0316632231950038
decision_type=2 2 2 2 2 2 2 2 2 2 2 2
left_child=1 2 -1 6 5 8 -4 -8 -2 10 -6 -7
right_child=4 -3 3 -5 9 11 7 -9 -10 -11 -12 -13
leaf_value=-1.389142848155966 -1.6265755083485829 -1.4643554290175427 -1.4106080486980099 -1.3923742531368843 -1.6637281186270083 -1.6644516575680981 -1.4714792624672508 -1.427863176398082 -1.6446191162632737 -1.6652966123986142 -1.6453257291353334 -1.6501591165914633
leaf_weight=97.356762483716011 3.9590550363063812 4.6788832247257224 4.8588402718305614 53.627200037240982 193.27386859059334 6.1185396015644073 6.6584107428789165 16.376091286540031 5.0387973189353961 497.58123524487019 5.2187543660402289 3.5991409420967084
leaf_count=541 22 26 27 298 1074 34 37 91 28 2765 29 20
internal_value=-1.61004 -1.3987 -1.39704 -1.40663 -1.66432 -1.64904 -1.43447 -1.44004 -1.63709 -1.66473 -1.66327 -1.65965
internal_weight=898.346 183.556 178.877 81.5205 714.789 18.7155 27.8933 23.0345 8.99785 696.074 198.493 9.71768
internal_count=4992 1020 994 453 3972 104 155 128 50 3868 1103 54
is_linear=0
shrinkage=1


Tree=4
num_leaves=29
num_cat=0
split_feature=3 0 2 3 3 1 0 1 3 4 0 2 2 0 0 1 1 1 1 1 0 0 1 1 0 1 1 2
split_gain=48.4235 31.5714 24.0917 20.9502 17.0651 71.4187 54.1342 14.4331 9.02885 12.0498 9.56189 6.33721 31.018 9.62785 31.861 7.33239 19.0613 4.18385 3.36002 6.30891 1.75566 1.66509 1.52416 1.11402 1.639 0.199184 3.52175 0.0817298
threshold=2.3554557379137955 6.0319952149923326 0.99358451857120511 2.7245724091894239 1.4837022762373331 0.92225941382339205 0.12560219981093312 0.411189818284738 -0.46455737677926245 1.0000000180025095e-35 0.35146808949282221 -1.1073709571732382 1.0000000180025095e-35 -0.28095640161646712 -0.46164911336197839 -0.65039480859812782 -0.84475694555518677 0.12426664249856527 -0.43161964816252257 -0.30481376476664829 -0.55199546923473397 -0.66492841407567849 -0.61993351479725589 -0.31293116129784199 -0.61975523613930072 -1.1133633127090754 -1.0455693560974775 1.0000000180025095e-35
decision_type=2 2 2 2 2 2 2 2 2 2 2 2 2 2 2 2 2 2 2 2 2 2 2 2 2 2 2 2
left_child=1 4 3 -2 8 7 -7 -6 9 11 17 25 13 14 15 16 21 -11 -17 -20 22 -13 -14 24 -24 -1 -27 -10
right_child=2 -3 -4 -5 5 6 -8 -9 27 10 -12 12 20 -15 -16 18 -18 -19 19 -21 -22 -23 23 -25 -26 26 -28 -29
leaf_value=-4.801269632938296 -3.9614216503489565 -4.2059227523266394 -4.785706301756437 -4.6243828065270209 -4.4049864997226429 -3.7351954869729687 -4.6696926052444736 -4.8003909888357672 -4.7899065051476022 -4.6409289615354696 -4.7884195113275547 -4.7929561603874982 -4.7963441987814432 -4.795036174621786 -4.2250043310438947 -4.7969408082078431 -4.346476535211341 -4.3169422410422058 -4.4886633494852335 -4.789778581959113 -4.8014250000740013 -4.6503479561484635 -4.7832076198492048 -4.78623092672058 -4.6320135118860062 -4.6040502471186455 -4.8000580923192544 -4.8018076429865868
leaf_weight=5.7670402023941278 0.30655363202094932 0.20117582101374765 0.23949502501636744 0.22991522401571274 0.20117582101374853 0.27781422901898611 0.32571323402225971 2.7494028871878982 4.4450276643037858 0.25865462701767583 0.29697383102029562 0.46941024903208017 0.77596388105303049 0.62268706504255433 0.46941024903208006 0.87176189105957813 0.49814965203404493 0.25865462701767683 0.26823442801833153 0.33529303502291397 7.1369517454877487 0.27781422901898623 0.20117582101374865 0.24907482601702102 0.53646885603666306 0.20117582101374898 2.2895724391564745 17.061625582166016
leaf_count=602 32 21 25 24 21 29 34 287 464 27 31 49 81 65 49 91 52 27 28 35 745 29 21 26 56 21 239 1781
internal_value=-4.75812 -4.76483 -4.37865 -4.20573 -4.76787 -4.66343 -4.19042 -4.76718 -4.7766 -4.75401 -4.57098 -4.76142 -4.73942 -4.62093 -4.58612 -4.65781 -4.57069 -4.45 -4.73669 -4.64946 -4.79038 -4.73969 -4.74706 -4.70588 -4.67545 -4.7955 -4.78054 -4.79955
internal_weight=47.8224 47.0464 0.775964 0.536469 46.8452 3.55411 0.603527 2.95058 43.2911 21.7845 0.814283 20.9702 12.7124 3.81276 3.19007 2.72066 1.24537 0.517309 1.47529 0.603527 8.89964 0.747224 1.76268 0.98672 0.737645 8.25779 2.49075 21.5067
internal_count=4992 4911 81 56 4890 371 63 308 4519 2274 85 2189 1327 398 333 284 130 54 154 63 929 78 184 103 77 862 260 2245
is_linear=0
shrinkage=1


Tree=5
num_leaves=30
num_cat=0
split_feature=4 9 2 3 9 2 3 1 1 3 1 9 1 1 3 3 2 2 3 3 1 1 3 3 1 1 1 1 1
split_gain=2649.97 936.475 116.39 32.6649 136.303 45.9996 19.5353 12.7184 19.9363 8.14697 7.06714 4.43799 7.98677 12.7931 6.02771 3.08625 2.32383 2.47641 3.30239 1.55519 0.822801 0.637523 0.245562 1.56393 0.219019 0.16285 0.35426 0.0505684 0.175082
threshold=0.32746744198025463 1.0000000180025095e-35 1.0000000180025095e-35 0.45661379230818011 1.0000000180025095e-35 1.0000000180025095e-35 -0.5840965091892435 0.93808619393507431 0.52730712598081497 0.81851013823768526 1.0342920793008175 1.0000000180025095e-35 -0.29055740232064503 0.60386945788677016 -0.14472068684605036 0.31587665537064474 -1.1073709571732382 0.99358451857120511 -0.70444925178310791 0.91194228674339117 0.082336376158867408 -0.20382489811312168 1.0266226390821829 -0.015377268172230457 -0.59664866412722428 -0.16724723916633558 -0.064084735910148932 -0.39126089396566538 -0.47247903349654102
decision_type=2 2 2 2 2 2 2 2 2 2 2 2 2 2 2 2 2 2 2 2 2 2 2 2 2 2 2 2 2
left_child=3 2 -2 11 5 9 -4 8 -7 -5 22 12 24 14 16 -15 -14 18 20 -10 21 -18 23 -8 -1 -23 -27 28 -26
right_child=1 -3 6 4 -6 7 10 -9 19 -11 -12 -13 13 15 -16 -17 17 -19 -20 -21 -22 25 -24 -25 27 26 -28 -29 -30
leaf_value=-1.5985846187549395 -1.5528646762611589 -1.5985150347673285 -1.4550817514316363 -1.5080003624375709 -1.5985611712677483 -1.49420809462038 -1.3362195701235606 -1.4991187790918519 -1.3898711794503968 -1.5975975498580235 -1.4054310020206069 -1.5986150994513868 -1.5975975498580235 -1.5985294820448637 -1.511246122124859 -1.5624132400888893 -1.5765938370520709 -1.5973656180332696 -1.5257040126527408 -1.3365919770502928 -1.5854950761305218 -1.5450723407463123 -1.3347261926405634 -1.3872597567341283 -1.5944682145418587 -1.5660033032994161 -1.5472448203923708 -1.5981114146002122 -1.5826147749358137
leaf_weight=116.53901159763336 6.621534749865531 46.161556541919708 3.7837341427803031 4.9188543856143969 76.998989805579185 3.7837341427803066 6.8107214570045471 3.9729208499193183 3.7837341427803022 5.1080410927534103 4.3512942641973487 350.18459491431713 5.1080410927534095 52.78309129178524 5.675601214170455 6.9999081641435614 4.7296676784753844 4.1621075570583335 6.8107214570045498 5.6756012141704559 4.1621075570583335 3.7837341427803084 163.26812826097012 3.9729208499193174 13.243069499731062 6.2431613355875042 4.9188543856143871 10.216082185506819 9.6485220640897769
leaf_count=616 35 244 20 26 407 20 36 21 20 27 23 1851 27 279 30 37 25 22 36 30 22 20 863 21 70 33 26 54 51
internal_value=-1.54224 -1.39673 -1.34738 -1.59045 -1.56454 -1.46855 -1.3399 -1.41907 -1.39549 -1.55345 -1.3375 -1.5949 -1.58979 -1.57914 -1.55908 -1.59436 -1.56597 -1.56119 -1.55611 -1.35673 -1.56492 -1.56034 -1.33585 -1.35399 -1.59726 -1.55493 -1.55802 -1.59244 -1.58968
internal_weight=944.42 234.97 188.808 709.45 104.242 27.2429 182.187 17.216 13.2431 10.0269 178.403 605.208 255.024 105.377 45.594 59.783 39.9184 34.8104 30.6482 9.45934 23.8375 19.6754 174.052 10.7836 149.647 14.9457 11.162 33.1077 22.8916
internal_count=4992 1242 998 3750 551 144 963 91 70 53 943 3199 1348 557 241 316 211 184 162 50 126 104 920 57 791 79 59 175 121
is_linear=0
shrinkage=1


Tree=6
num_leaves=31
num_cat=0
split_feature=7 9 0 2 0 0 0 0 0 0 2 0 0 0 0 0 9 2 2 0 0 2 0 0 0 0 0 0 0 0
split_gain=153.727 230.991 161.673 240.419 121.067 48.0933 34.8848 157.051 172.734 13.1631 7.12344 5.56004 20.6209 10.8374 6.10043 5.49663 13.245 31.9591 5.82366 12.4862 3.99643 2.79649 2.76615 2.19749 2.32492 1.84266 1.66717 1.39531 1.06197 0.733259
threshold=1.0000000180025095e-35 1.0000000180025095e-35 -0.41647593542560057 1.0000000180025095e-35 -0.55199546923473397 -0.59716864717111184 1.0064791695703006 0.55474739020652242 0.64509374607927805 -0.50682229129835621 0.99358451857120511 -0.12285027883914486 0.17077537774731091 0.012669254969988566 -0.37130275748922276 -0.055090511934578139 1.0000000180025095e-35 -1.1073709571732382 1.0000000180025095e-35 -0.39388934645741169 -0.39388934645741169 0.99358451857120511 -0.61975523613930072 0.39664126742920003 0.32888150052463333 -0.59716864717111184 -0.37130275748922276 0.23853514465187767 -0.21319663471190045 0.1030156108427442
decision_type=2 2 2 2 2 2 2 2 2 2 2 2 2 2 2 2 2 2 2 2 2 2 2 2 2 2 2 2 2 2
left_child=1 -1 3 -3 5 22 7 10 -9 -6 11 14 13 -13 20 16 17 -2 19 25 -4 -18 -5 24 27 -19 -20 -14 -16 -12
right_child=15 2 6 4 9 -7 -8 8 -10 -11 29 12 23 -15 28 -17 21 18 26 -21 -22 -23 -24 -25 -26 -27 -28 -29 -30 -31
leaf_value=-3.2568622267605898 -3.2626675816732198 -3.2374082771510762 -3.211165604930561 -2.921245568517274 -3.0762434106319438 -2.5387022282094622 -3.2624202324526435 -2.4325555715546781 -3.1955960481239258 -2.9297747335496878 -3.2611642363865068 -3.1192745150988439 -3.1617762663194728 -2.929560343506469 -3.2020032247101513 -3.2630361388476183 -3.260402372493151 -3.1077800814759122 -3.1534370603361048 -2.9418415994852736 -3.0766909959828062 -3.1866404288875683 -2.7644340110692371 -3.2588574677201718 -3.1136367400757234 -3.1913967515268644 -3.221115730029255 -3.2221761510095304 -3.2405594377539684 -3.211165604930561
leaf_weight=40.731746885925531 10.821399278938772 5.9734124019742021 0.90899753943085682 1.5582814961671831 3.1598485894501218 2.9867062009871015 6.9256955385208121 1.5149958990514272 1.4284247048199175 3.5494189634919149 2.4239934384822841 2.034423064440491 1.4284247048199179 1.2985679134726522 6.4928395673632657 64.711967688053846 38.654038224369287 1.5582814961671831 2.6837070211768155 1.0388543307781208 1.5582814961671874 1.2552823163568962 0.95228313654661167 1.0821399278938768 0.95228313654661167 1.3418535105884077 1.2552823163568971 2.5105646327137947 2.3807078413665259 0.90899753943085659
leaf_count=941 250 138 21 36 73 69 160 35 33 82 56 47 33 30 150 1495 893 36 62 24 36 29 22 25 22 31 29 58 55 21
internal_value=-3.21638 -3.16776 -3.09798 -2.97788 -2.8511 -2.67727 -3.16282 -3.13707 -2.79548 -2.99684 -3.17989 -3.1689 -3.14022 -3.04147 -3.19289 -3.25294 -3.24172 -3.20712 -3.13069 -3.08767 -3.12414 -3.25798 -2.85312 -3.19673 -3.1822 -3.14453 -3.17542 -3.20048 -3.2127 -3.24691
internal_weight=216.082 92.761 52.0293 18.18 12.2065 5.49727 33.8493 26.9236 2.94342 6.70927 23.9802 20.6472 9.3064 3.33299 11.3408 123.321 58.6087 18.6994 7.87798 3.93899 2.46728 39.9093 2.51056 5.97341 4.89127 2.90014 3.93899 3.93899 8.87355 3.33299
internal_count=4992 2143 1202 420 282 127 782 622 68 155 554 477 215 77 262 2849 1354 432 182 91 57 922 58 138 113 67 91 91 205 77
is_linear=0
shrinkage=1


Tree=7
num_leaves=31
num_cat=0
split_feature=2 3 4 0 2 3 0 4 8 3 4 0 1 1 0 1 0 1 8 3 1 3 1 8 2 1 0 0 3 3
split_gain=1037.84 1107.08 318.76 166.473 52.7879 50.8805 42.1474 95.4543 38.9002 24.323 21.3075 26.0125 19.4989 15.2766 15.2752 15.771 14.7581 12.7162 13.4227 10.2003 7.05741 5.63071 15.2289 5.18951 7.3444 5.18915 5.04886 5.01284 4.54638 9.7929
threshold=-1.1073709571732382 1.3210783923720097 0.32746744198025463 -0.41647593542560057 0.99358451857120511 1.3719123734427334 0.64509374607927805 1.2349221230733061 2.9623770375726921 0.7130505868637772 0.32746744198025463 0.057842432906366377 0.73683107432990014 0.22012213801637173 -0.55199546923473397 -0.43992819609928174 0.12560219981093312 -1.2137182786402396 1.0000000180025095e-35 -0.76582067556865108 -0.35574340823597633 0.31587665537064474 0.97178607986053456 1.0000000180025095e-35 1.0000000180025095e-35 -0.96443984074063571 -0.25836981264827824 0.080429021874555293 0.38612579007958697 -0.5840965091892435
decision_type=2 2 2 2 2 2 2 2 2 2 2 2 2 2 2 2 2 2 2 2 2 2 2 2 2 2 2 2 2 2
left_child=-1 3 4 8 5 -3 7 9 13 10 19 -12 -11 14 17 -16 -4 -2 20 23 25 -8 -23 24 26 -19 -5 -26 29 -17
right_child=1 2 16 6 -6 -7 21 -9 -10 12 11 -13 -14 -15 15 28 -18 18 -20 -21 -22 22 -24 -25 27 -27 -28 -29 -30 -31
leaf_value=-0.82485642410922777 -0.6797163797803446 -0.81485922889487106 -0.82404496720510767 -0.75020340714662981 -0.77924349507112201 -0.65584462147458789 -0.64775431688095475 -0.81304192105578099 -0.65617219203398724 -0.68312148221336244 -0.64774377839734876 -0.76788037630802308 -0.801780686164144 -0.79674020786327893 -0.67884994059463788 -0.72932423501692634 -0.74698155397905752 -0.77977076552636693 -0.70071058887431537 -0.66209569002652802 -0.77656290023706154 -0.7201363036351105 -0.6515507113861122 -0.65104758458302303 -0.6767627475995216 -0.73696301799794117 -0.68804396270455814 -0.71977273148508925 -0.75689450822796578 -0.68688891431260479
leaf_weight=286.27718567848206 9.2619089484214765 5.6132781505584708 247.5455664396286 6.735933780670166 15.436514914035795 44.62556129693985 153.5231574177742 13.191203653812407 21.89178478717804 7.0165976881980878 7.0165976881980923 12.349211931228636 6.735933780670166 7.2972615957260123 29.7503741979599 49.677511632442474 6.4552698731422415 7.8585894107818595 17.681826174259186 172.88896703720093 17.681826174259186 10.945892393589018 32.557013273239136 13.191203653812407 90.09311431646347 67.078673899173737 6.1746059656143171 7.5779255032539359 8.1392533183097822 18.80448180437088
leaf_count=1020 33 20 882 24 55 159 547 47 78 25 25 44 24 26 106 177 23 28 63 616 63 39 116 47 321 239 22 27 29 67
internal_value=-0.739943 -0.718137 -0.79671 -0.686543 -0.69857 -0.673718 -0.670816 -0.681444 -0.719847 -0.676162 -0.673329 -0.724356 -0.741073 -0.725851 -0.723538 -0.709755 -0.822098 -0.735828 -0.740542 -0.67001 -0.74819 -0.652349 -0.668708 -0.681112 -0.68476 -0.741442 -0.720583 -0.680062 -0.72182 -0.717605
internal_weight=1401.07 1114.8 319.676 795.121 65.6754 50.2388 539.997 342.971 255.123 329.78 316.028 19.3658 13.7525 233.232 225.934 106.372 254.001 119.563 110.301 296.662 92.6191 197.026 43.5029 123.773 110.582 74.9373 12.9105 97.671 76.6212 68.482
internal_count=4992 3972 1139 2833 234 179 1924 1222 909 1175 1126 69 49 831 805 379 905 426 393 1057 330 702 155 441 394 267 46 348 273 244
is_linear=0
shrinkage=1


Tree=8
num_leaves=20
num_cat=0
split_feature=0 1 0 7 2 1 1 1 0 2 1 7 0 2 7 7 1 1 1
split_gain=50.1645 97.8346 104.572 155.724 26.7883 89.917 20.7398 6.0336 19.0962 4.91274 2.44432 10.3666 2.35192 2.31989 2.43105 2.11095 0.417945 2.72058 0.308433
threshold=-0.61975523613930072 -1.1133633127090754 -0.71010159201205625 1.0000000180025095e-35 -1.1073709571732382 0.053779552214962827 -0.43992819609928174 -0.76764747889503671 -0.48423570233016727 1.0000000180025095e-35 -0.90530307501044016 1.0000000180025095e-35 -0.75527476994843412 -1.1073709571732382 -1.0000000180025095e-35 1.0000000180025095e-35 -1.6320587946431824 -1.545522219005844 -0.67263342595369602
decision_type=2 2 2 2 2 2 2 2 2 2 2 2 2 2 2 2 2 2 2
left_child=1 13 3 12 5 7 9 8 -2 10 15 -12 -3 16 -15 -4 -1 -18 -13
right_child=4 2 6 -5 -6 -7 -8 -9 -10 -11 11 18 -14 14 -16 -17 17 -19 -20
leaf_value=-5.2054588121209955 -5.1993682454819554 -4.9378608559520849 -4.9964505980150538 -3.4120691782767354 -5.2051122312609417 -4.0540669374682956 -4.5158979673657633 -5.2034205028138798 -4.7079612462912461 -5.1965180705736111 -5.1916265131981634 -4.7472837900990745 -5.1841779059125885 -5.1834234255012692 -4.9281666986100179 -5.1922737328464459 -5.0301623412834822 -5.2033320048486313 -4.990558634996292
leaf_weight=2.3634366206824788 0.53801809251308441 0.1345045231282711 0.18574434146285046 0.25619909167289734 23.659986115992066 0.16652940958738316 0.1665294095873856 1.1336809806525769 0.24979411438107502 0.38429863750934612 0.24979411438107479 0.27541402354836453 0.15371945500373874 0.14731447771191597 0.12809954583644856 0.26260406896471977 0.23057918250560749 1.1080610714852808 0.17933936417102825
leaf_count=369 84 21 29 40 3694 26 26 177 39 60 39 43 24 23 20 41 36 173 28
internal_value=-5.15903 -5.03218 -4.7724 -4.19848 -5.18979 -5.02046 -4.97949 -5.13147 -5.0287 -5.05008 -4.99981 -4.94271 -5.06037 -5.18142 -5.05458 -5.10762 -5.19283 -5.168 -4.81171
internal_weight=31.9736 6.22564 2.24815 0.544423 25.748 2.08802 1.70372 1.92149 0.787812 1.53719 1.1529 0.704548 0.288224 3.97749 0.275414 0.448348 3.70208 1.33864 0.454753
internal_count=4992 972 351 85 4020 326 266 300 123 240 180 110 45 621 43 70 578 209 71
is_linear=0
shrinkage=1


Tree=9
num_leaves=19
num_cat=0
split_feature=1 4 2 1 2 0 1 0 1 1 8 2 1 1 8 0 1 9
split_gain=20.869 239.112 17.2141 16.9301 7.8532 7.513 7.63527 6.36235 5.88881 8.11279 3.61572 3.3941 4.98819 2.58754 2.35841 1.0365 6.43396 3.51387
threshold=-0.48518579247464971 1.0000000180025095e-35 -1.1073709571732382 -0.19091407616367403 -1.1073709571732382 -0.61975523613930072 -0.98515555046119008 -0.68751500304386737 -0.11030196696838725 0.15974064785971751 0.91167626293940474 -1.0000000180025095e-35 -0.73748119784715993 -0.63366345364851284 1.0000000180025095e-35 -0.777861358916623 -1.545522219005844 1.0000000180025095e-35
decision_type=2 2 2 2 2 2 2 2 2 2 2 2 2 2 2 2 2 2
left_child=1 4 3 -2 15 6 -6 10 -5 -10 -8 12 -9 -13 -7 16 -1 -18
right_child=2 -3 -4 8 5 14 7 11 9 -11 -12 13 -14 -15 -16 -17 17 -19
leaf_value=-0.042004712618403973 -0.038437552262166191 1.4439137766946744 -0.044396315412417432 0.50885242277569265 -0.033401810742791443 -0.040536059384706835 -0.031871802737934683 0.57268497989295664 -0.028807356449550639 0.36848676354482057 0.24341168133977054 -0.019056617887348606 0.15346795882209072 0.25470329193880598 0.11381922460939252 -0.043324998619028443 0.2550282279992368 -0.020159745688857946
leaf_weight=1.7346564847975972 0.64108652714639902 0.25196026125922877 18.345731136854738 0.22015728615224361 0.36857175594195712 1.0953191774897284 0.3194632246159016 0.19248807244002808 0.2384218424558664 0.19119457388296723 0.1226319121196866 0.1348602450452745 0.20097160339355469 0.11612643953412816 0.26356849959120143 3.1221442925743759 0.28276245901361008 0.14320501266047359
leaf_count=326 62 13 3499 15 60 199 54 23 22 21 21 25 32 21 34 491 47 27
internal_value=-0.00352942 0.0623641 -0.0317591 0.140936 0.0104673 0.0774102 0.154433 0.219016 0.311584 0.162772 0.0563817 0.314892 0.405641 0.120571 -0.00584617 -0.0251142 0.000454566 0.164862
internal_weight=27.9853 8.34873 19.6366 1.29086 8.09677 2.814 1.45511 1.08654 0.649774 0.429616 0.442095 0.644446 0.39346 0.250987 1.35889 5.28277 2.16062 0.425967
internal_count=4992 1373 3619 120 1360 469 236 176 58 43 75 101 55 46 233 891 400 74
is_linear=0
shrinkage=0.05


Tree=10
num_leaves=21
num_cat=0
split_feature=3 1 0 9 0 1 0 0 1 1 7 1 7 1 1 0 1 0 0 3
split_gain=20.3345 12.0298 33.1016 22.8437 8.10308 19.7944 8.59966 22.826 4.32925 2.04227 9.22423 8.60915 1.43104 2.07882 4.17228 2.51969 2.84494 0.583782 3.15139 3.05284
threshold=-0.86283588611794582 -1.3211299816153952 -0.75527476994843412 -1.0000000180025095e-35 -0.59716864717111184 -0.65039480859812782 -0.12285027883914486 -0.032503922966389237 -1.2137182786402396 -0.53591688056553499 1.0000000180025095e-35 -0.44681311587762634 1.0000000180025095e-35 -0.32368583842604559 -0.36737634502555966 -0.55199546923473397 -0.63366345364851284 -0.48423570233016727 -0.50682229129835621 0.29478351063249902
decision_type=2 2 2 2 2 2 2 2 2 2 2 2 2 2 2 2 2 2 2 2
left_child=1 -1 3 -3 5 8 12 -8 -4 10 -7 -11 -6 14 15 16 -14 18 -2 -20
right_child=17 2 4 -5 6 9 7 -9 -10 11 -12 -13 13 -15 -16 -17 -18 -19 19 -21
leaf_value=-0.042336583779169164 -0.04086619839133198 -0.018566338640711496 0.22058915781385668 0.74067990546938067 -0.042098529147109348 0.13464355581748674 0.56856543607932319 -0.034286979490985824 -0.040236973154854694 -0.02790252893285643 0.65119947795640531 0.34561011552422555 -0.014102029607096354 -0.037932703212205952 0.34109535826239679 -0.035750168324627678 0.30214864982091039 -0.044129417053459047 0.30915209299077678 -0.015473602988831776
leaf_weight=2.0262258427683264 1.2168340831995008 0.13129339856095612 0.13745149201713514 0.26786429900676001 1.8359152753837407 0.2270398463588208 0.19415655615739524 0.40606444259174379 1.0011481328401715 0.2271518858615309 0.1651104858610779 0.33334377058781672 0.10503968340344727 0.65966480295173824 0.078930865973234177 0.48480608221143484 0.093411131529137492 10.159056592965495 0.090577646857128324 0.11242060107178986
leaf_count=521 315 31 29 29 470 32 38 91 211 22 21 35 25 175 18 129 21 2726 23 30
internal_value=0.00284389 0.0621074 0.0959041 0.511112 0.0636018 0.141829 0.0192865 0.185601 0 0.303832 0.406833 0.200254 -0.0129424 0.0231572 0.0781881 0.0232193 0.155544 -0.0398872 -0.00736414 0.151964
internal_weight=19.9535 8.37462 6.34839 0.399158 5.94923 2.09125 3.85799 0.600221 1.1386 0.952646 0.39215 0.560496 3.25777 1.42185 0.762188 0.683257 0.198451 11.5789 1.41983 0.202998
internal_count=4992 1898 1377 60 1317 350 967 129 240 110 53 57 838 368 193 175 46 3094 368 53
is_linear=0
shrinkage=0.05


Tree=11
num_leaves=31
num_cat=0
split_feature=0 2 3 9 1 1 8 3 1 0 1 2 3 8 8 2 1 1 0 1 1 3 3 0 0 1 1 3 3 1
split_gain=199.587 242.638 45.1355 52.8118 35.4452 34.4828 91.5721 27.9201 11.5668 21.8672 19.7512 20.5549 11.349 8.96276 8.62815 8.49512 17.8036 14.0669 8.48875 7.10498 15.4983 6.25213 5.86373 5.08814 4.723 9.3468 6.00274 4.65329 4.19039 3.93537
threshold=-0.32612957955284499 -1.1073709571732382 2.1578473800551627 1.0000000180025095e-35 -0.98515555046119008 0.10720669291105156 1.0000000180025095e-35 -0.41512732254175411 -0.11030196696838725 -0.52940888026654509 -0.30481376476664829 1.0000000180025095e-35 -0.30463625791903309 2.9623770375726921 1.0000000180025095e-35 1.0000000180025095e-35 -0.90530307501044016 -0.57596887575289124 -0.52940888026654509 -0.22186473834490664 -0.37895542026326551 0.41294806956963076 -0.86283588611794582 -0.41647593542560057 -0.52940888026654509 -0.25384869707317509 -0.32368583842604559 -0.28289786921217813 -0.66572527576491314 -0.50012149037369902
decision_type=2 2 2 2 2 2 2 2 2 2 2 2 2 2 2 2 2 2 2 2 2 2 2 2 2 2 2 2 2 2
left_child=1 -1 3 4 -3 12 27 8 9 10 11 -6 13 15 -14 16 -5 -17 -18 20 -11 -8 -2 24 25 29 -26 -7 -25 -19
right_child=22 2 -4 5 7 6 21 -9 -10 19 -12 -13 14 -15 -16 17 18 23 -20 -21 -22 -23 -24 28 26 -27 -28 -29 -30 -31
leaf_value=-0.037956958370794186 -0.011627855844920432 -0.043860141388215861 0.41738735875276217 0.28787855937459594 0.15091949189783327 0.089564013319482549 0.24340478635475127 0.0048279829835119357 0.33944640608793197 0.079638465478194129 0.42805478104615918 0.33151909895464138 -0.036384542849836603 -0.024533694896051773 0.089223243771082969 -0.022279096473265363 0.12183261613746688 0.02936818188323434 -0.013690079579861264 0.036213946303355997 0.25393170949254601 0.38989302781787871 -0.044308134918529918 0.017434382179495868 0.053901560607447031 -0.043831348904519521 0.16550026077454288 -0.029575649672467397 0.12481895779028235 0.14302370332552009
leaf_weight=46.782680068165064 15.837514568120239 1.7457983866333986 1.1344418935477723 1.2943849563598631 5.002906903624539 1.0477662123739717 1.8372476026415823 1.8877229131758202 1.6306355707347382 3.1140611767768855 1.3156290017068393 2.4593496844172478 5.275197152048352 2.4339653849601737 1.787221811711788 4.2535890229046371 3.7985666766762729 1.2598786018788812 1.5928347259759932 1.7504409290850151 2.2746705301105981 2.3401117771863937 117.20601364597678 4.6252235285937786 1.9302219599485444 1.437103193253283 3.9447296112775763 3.1821929290890676 1.1142900437116576 2.3171480856835847
leaf_count=948 326 36 21 25 89 19 28 37 27 60 18 43 104 49 35 85 67 23 28 31 39 25 2487 90 34 25 65 66 21 41
internal_value=0.00119721 0.0495693 0.109995 0.104417 0.169685 0.0738062 0.165121 0.189058 0.208665 0.194089 0.247403 0.212583 0.0528314 0.0662398 -0.00384285 0.0743746 0.123729 0.0581958 0.0815765 0.126926 0.155328 0.329698 -0.0404425 0.0789363 0.0991593 0.0615792 0.130021 5.28374e-05 0.0396122 0.104639
internal_weight=247.614 114.57 67.7873 66.6529 21.1812 45.4717 8.40732 19.4354 17.5477 15.9171 8.77789 7.46226 37.0644 30.0019 7.06242 27.568 6.68579 20.8822 5.3914 7.13917 5.38873 4.17736 133.044 16.6286 10.8891 5.01413 5.87495 4.22996 5.73951 3.57703
internal_count=4992 2179 1231 1210 380 830 138 344 307 280 150 132 692 553 139 504 120 384 95 130 99 53 2813 299 188 89 99 85 111 64
is_linear=0
shrinkage=0.05


Tree=12
num_leaves=10
num_cat=0
split_feature=2 1 1 1 0 0 1 3 1
split_gain=3251.19 3.86256 1.60138 1.28545 0.990602 0.830295 0.232434 0.12106 0.0382218
threshold=-1.1073709571732382 -0.19091407616367403 -0.93471226353997772 -1.3211299816153952 -0.16802345677552263 -0.66492841407567849 -1.1868513319103935 -0.86283588611794582 -1.0316632231950038
decision_type=2 2 2 2 2 2 2 2 2
left_child=1 3 5 -1 -3 6 -2 -4 -7
right_child=2 4 7 -5 -6 8 -8 -9 -10
leaf_value=0.17624940419271146 -0.015729255735862629 0.12079387431703661 -0.052311399550199977 0.1657514933847668 0.15803915815745403 -0.053953529641072168 -0.034151636939617584 -0.054715188165009268 -0.039589472836022752
leaf_weight=108.41477693617344 3.8827359825372696 6.3653080761432648 166.03604820370674 93.635606735944748 5.498743608593939 5.8741014450788498 4.9455192834138888 497.98336943984032 3.5104706585407239
leaf_count=513 22 31 966 449 27 34 28 2902 20
internal_value=-0.000375476 0.169676 -0.0537076 0.171439 0.138857 -0.0383592 -0.0264651 -0.0541219 -0.0490837
internal_weight=896.147 213.914 682.232 202.05 11.8641 18.2128 8.82826 664.019 9.38457
internal_count=4992 1020 3972 962 58 104 50 3868 54
is_linear=0
shrinkage=0.05


Tree=13
num_leaves=27
num_cat=0
split_feature=3 2 9 4 0 3 4 0 2 2 8 0 0 2 0 8 0 9 0 0 0 0 0 0 0 2
split_gain=36.156 95.8427 19.3399 208.584 8.60837 8.62221 9.38988 5.95138 5.9473 24.7483 6.87548 8.35781 10.9703 2.64526 2.49384 5.39845 1.70139 4.12512 5.7933 0.865167 0.69273 1.55947 0.991593 0.136337 2.40863 0.0904526
threshold=1.3719123734427334 1.0000000180025095e-35 1.0000000180025095e-35 0.32746744198025463 6.0319952149923326 -0.46455737677926245 1.0000000180025095e-35 0.35146808949282221 -1.1073709571732382 1.0000000180025095e-35 1.7319565727927195 -0.28095640161646712 -0.46164911336197839 -1.0000000180025095e-35 -0.57458205820292285 1.0000000180025095e-35 -0.55199546923473397 -1.0000000180025095e-35 -0.61975523613930072 -0.52940888026654509 -0.71010159201205625 -0.68751500304386737 -0.61975523613930072 -0.68751500304386737 -0.66492841407567849 1.0000000180025095e-35
decision_type=2 2 2 2 2 2 2 2 2 2 2 2 2 2 2 2 2 2 2 2 2 2 2 2 2 2
left_child=4 -2 -3 -4 5 6 8 13 23 10 11 12 14 -8 15 20 17 18 -11 -16 -10 -22 -23 -1 -25 -7
right_child=1 2 3 -5 -6 25 7 -9 9 16 -12 -13 -14 -15 19 -17 -18 -19 -20 -21 21 22 -24 24 -26 -27
leaf_value=-0.043902193420305574 0.80174181661961397 -0.043106551765470548 -0.042768231410690277 1.1963172866574663 0.22207201874908211 -0.03208590612996548 0.089521225428212614 -0.030603708953831344 0.083646125364636781 -0.031175227616540103 -0.037696321704318664 -0.036857817872709933 0.33360794896123758 0.31671970659750531 -0.031457631686690961 -0.032206922727943031 -0.044113647797210602 -0.041103605187926884 0.26365912713008449 0.072168368629241697 0.33774584585939227 0.099430426901288976 0.23582666371890812 0.094369430082988204 -0.042988908320898724 -0.044515915787161589
leaf_weight=5.1387120950967073 0.422103526070713 2.4830145006999373 2.1350938351824884 0.35249830689281214 0.32337072584777971 4.250744326971474 0.3199389660730958 0.28364740964025259 0.33705852087587174 0.29750155005604029 0.60826680995523918 0.54612502362579407 0.74151919037103642 0.36400848347693582 0.30309807974845171 0.32472395710647095 6.765739552676675 1.2195540303364403 0.2733008014038204 0.37495686020702113 0.21066465508192822 0.64109365921467587 0.30534868128597648 0.30736359860748086 2.540341678075495 16.050623371265829
leaf_count=556 34 227 194 19 20 462 26 31 33 32 56 60 46 28 28 32 745 125 27 35 19 59 30 33 273 1762
internal_value=-0.000970985 0.120322 0.0545499 0.151941 -0.0165335 -0.0186815 0.00297704 0.151368 -0.0041065 0.0166745 0.112584 0.137566 0.167853 0.227185 0.112065 0.142257 -0.0326446 0.00935934 0.11583 0.0234334 0.181607 0.203424 0.15557 -0.0380054 -0.025928 -0.0421214
internal_weight=47.9204 5.39271 4.97061 2.48759 42.5277 42.2043 21.903 0.967595 20.9354 12.949 4.39286 3.78459 3.23846 0.683947 2.49694 1.81889 8.5561 1.79036 0.570802 0.678055 1.49417 1.15711 0.946442 7.98642 2.84771 20.3014
internal_count=4992 474 440 213 4518 4498 2274 85 2189 1327 398 342 282 54 236 173 929 184 59 63 141 108 89 862 306 2224
is_linear=0
shrinkage=0.05


Tree=14
num_leaves=27
num_cat=0
split_feature=3 9 2 9 1 0 1 2 3 1 3 0 0 1 1 3 3 3 0 1 1 1 0 1 0 1
split_gain=2061.4 637.835 96.7313 54.7507 89.6857 81.7696 66.3953 92.327 16.3826 33.2273 10.7506 5.65693 7.8537 3.96638 3.36785 2.39803 2.13721 6.45318 2.13694 1.45085 1.17202 0.463258 0.425247 0.297877 0.537649 0.0993632
threshold=1.3210783923720097 1.0000000180025095e-35 1.0000000180025095e-35 1.0000000180025095e-35 -0.20382489811312168 0.69026692401565581 0.51742390105277536 1.0000000180025095e-35 0.31587665537064474 0.97178607986053456 0.12890131874211572 -0.21319663471190045 -0.032503922966389237 0.56322228511253614 -0.11625234524918669 -0.71332389261273577 0.1990037268770137 0.78405142137498751 -0.43906252439378951 0.84894990616123156 -0.47247903349654102 1.0792688999028248 -0.30354299058465606 -0.39126089396566538 -0.34871616852103388 -0.43992819609928174
decision_type=2 2 2 2 2 2 2 2 2 2 2 2 2 2 2 2 2 2 2 2 2 2 2 2 2 2
left_child=3 2 -2 4 20 6 10 19 -7 -10 11 14 15 -4 18 -13 -9 -18 -6 -8 -1 -11 -16 25 -25 -22
right_child=1 -3 13 -5 5 8 7 16 9 21 -12 12 -14 -15 22 -17 17 -19 -20 -21 23 -23 -24 24 -26 -27
leaf_value=-0.055344648310335767 -0.055049525123795157 -0.055505593302740699 0.11295817379590134 -0.055588225447044837 -0.031089226909765674 -0.055412675561739705 -0.045766264415520848 0.16542268879115671 0.11707890672491023 -0.030633387231843074 0.053912698537919169 0.014244270404002335 -0.032308114407277891 0.16801026901957419 -0.055477810098447183 0.069467611898419199 0.081681884102946564 0.17206999278269078 0.020126580307679432 -0.0083750840485483629 -0.042421115609307225 -0.055428717463818146 -0.03359854204498005 -0.052169977902598821 -0.028690240725338014 -0.028163777080270392
leaf_weight=125.70281328260899 4.9935540109872809 40.6460812240839 4.0413907170295706 410.79232282936573 4.120679497718811 45.448354825377464 5.4638653844594938 13.075299710035326 4.5333360135555258 4.0789264291524869 6.7201062738895407 4.2275234907865515 6.3831324875354758 193.47078430652618 7.9716789126396153 3.9274249970912924 4.2412295788526517 4.2678151577711105 3.8891668915748578 5.3169839084148407 4.0404491722583771 5.8013377636671066 4.6281310617923781 14.672854125499727 3.8316875845193854 5.5279074460268038
leaf_count=690 27 225 20 2277 22 253 30 62 23 22 35 23 34 885 43 21 21 20 21 29 22 31 25 80 21 30
internal_value=-0.000222821 0.12515 0.161427 -0.0438649 -0.0271203 0.0027494 0.0378176 0.0915437 -0.0406912 0.00558622 -0.00371441 -0.0148644 0.00886957 0.166925 -0.0317084 0.0414058 0.151135 0.12805 -0.00594071 -0.02768 -0.0531759 -0.0456499 -0.0478034 -0.0432948 -0.0475332 -0.0346334
internal_weight=941.815 243.152 202.506 698.663 287.871 134.095 74.233 32.3652 59.862 14.4136 41.8678 35.1477 14.5381 197.512 20.6097 8.15495 21.5843 8.50904 8.00985 10.7808 153.776 9.88026 12.5998 28.0729 18.5045 9.56836
internal_count=4992 1157 932 3835 1558 715 386 162 329 76 224 189 78 905 111 44 103 41 43 59 843 53 68 153 101 52
is_linear=0
shrinkage=0.05


Tree=15
num_leaves=31
num_cat=0
split_feature=7 9 1 8 3 1 3 1 3 1 1 1 3 1 1 3 9 1 1 1 1 3 1 3 3 3 3 1 1 1
split_gain=135.037 181.938 64.3214 47.3876 29.3064 25.4088 19.8726 16.8225 13.0971 23.0044 13.8634 9.75233 9.59971 9.08034 11.084 6.75452 15.266 28.396 7.5994 4.27054 5.136 8.47483 4.23231 4.04835 3.82731 3.59573 6.93132 3.10906 2.8013 2.12821
threshold=1.0000000180025095e-35 1.0000000180025095e-35 0.071247394898925467 1.0000000180025095e-35 1.5037920628723027 -1.3211299816153952 -0.86283588611794582 0.66563005236027051 -0.57910830648499256 -0.45725686118900677 -0.47247903349654102 -0.0093394841445053039 -0.23785763678090754 0.76893715473077817 1.0387980417783524 -0.65177336330804392 1.0000000180025095e-35 -0.55646682405424219 -0.16724723916633558 0.45191169830592332 0.25125519716431705 -0.36002304303857152 0.12426664249856527 2.2924865021425851 0.99527358788198039 -0.76582067556865108 -0.63821353453906537 -0.31293116129784199 0.85598709483561664 -0.8589618331347969
decision_type=2 2 2 2 2 2 2 2 2 2 2 2 2 2 2 2 2 2 2 2 2 2 2 2 2 2 2 2 2 2
left_child=1 -1 3 5 6 -3 -4 -6 10 -10 29 12 -11 -9 28 16 17 -2 27 20 -8 -22 -20 -17 -21 -12 -27 -19 -15 -7
right_child=15 2 4 -5 7 8 19 13 9 11 25 -13 -14 14 -16 23 -18 18 22 24 21 -23 -24 -25 -26 26 -28 -29 -30 -31
leaf_value=-0.039740592407486959 -0.035439336115678469 -0.042869175609467611 0.16919580151829092 -0.030599388988444394 -0.016821523178837571 0.14914835429725634 -0.018903986724015224 0.25976209854031279 0.065694952207005594 0.22637850019928149 0.13122237784697052 0.12870149839608133 0.37971087150741811 0.1184086802105586 0.25397358014483973 -0.045503269308649744 -0.043955651539670695 0.1055970441702082 -0.014880008322247366 -0.045721064346651907 -0.041445489888473047 0.14477371281047965 0.11729040626190296 0.056834952499728933 0.060139797435015199 -0.041527237447384735 0.14165594122070035 0.20813690803435778 0.028704575739735217 0.22382591878647609
leaf_weight=39.234949827194214 9.6310308910906333 1.3649848774075533 1.5710004866123224 3.4132367782294741 1.7910366617143134 1.9911332689225671 3.7528880052268532 1.5767631903290746 1.721279442310333 2.5083170831203456 10.908708546310667 1.0909935683012006 2.5258830003440376 1.7611261494457724 1.10940795391798 77.439603831619024 24.224398121237755 2.580284640192986 1.687278360128402 8.7271473631262744 0.94358730316162143 1.5174643099308012 0.8656458407640456 0.91649775952100654 0.88329672813415605 0.94191871210932721 1.0111697986721928 1.3242152854800222 1.9378311187028883 5.8526563607156339
leaf_count=941 227 32 32 76 38 40 82 27 30 44 221 24 43 33 17 1874 585 57 37 208 22 33 20 20 18 21 20 29 41 100
internal_value=0.000207646 0.0435995 0.099142 0.144893 0.0392454 0.165016 0.0023188 0.117014 0.1751 0.231489 0.153104 0.276766 0.306782 0.154782 0.117523 -0.0356587 -0.0188853 0.0187274 0.0995511 -0.0145715 0.0173785 0.0729766 0.0303681 -0.0442389 -0.0354717 0.119825 0.0532325 0.143198 0.0730904 0.206251
internal_weight=216.806 98.1368 58.9018 33.3303 25.5715 29.917 17.3954 8.17617 28.5521 7.84647 20.7056 6.12519 5.0342 6.38513 4.80837 118.669 40.3129 16.0885 6.45742 15.8244 6.21394 2.46105 2.55292 78.3561 9.61044 12.8618 1.95309 3.9045 3.69896 7.84379
internal_count=4992 2143 1202 651 551 575 395 156 543 141 402 111 87 118 91 2849 955 370 143 363 137 55 57 1894 226 262 41 86 74 140
is_linear=0
shrinkage=0.05


Tree=16
num_leaves=31
num_cat=0
split_feature=2 4 0 0 0 8 7 0 0 2 0 1 0 0 1 4 0 8 1 1 0 8 1 0 0 0 1 0 0 1
split_gain=896.832 802.825 483.879 153.99 72.2924 35.3039 50.1408 17.9613 33.9899 13.0664 12.9919 13.4578 11.2868 11.0227 11.7288 7.77733 6.32017 5.95609 5.4747 4.38033 4.07258 3.79173 4.23195 4.27898 3.29738 17.1023 3.12253 2.6329 2.57644 2.73401
threshold=-1.1073709571732382 0.32746744198025463 0.82578645782478932 -0.41647593542560057 0.057842432906366377 2.9623770375726921 1.0000000180025095e-35 0.62250715711108917 0.55474739020652242 1.0000000180025095e-35 -0.55199546923473397 -1.0903030342939188 0.26112173362006658 -0.64234182510748961 0.065349207204983023 1.2349221230733061 -0.64234182510748961 1.0000000180025095e-35 -0.23365517519155868 -0.50012149037369902 -0.48423570233016727 1.0000000180025095e-35 0.071247394898925467 -0.21319663471190045 0.12560219981093312 0.035255843938177475 -0.40319835541201027 1.0000000180025095e-35 -0.66492841407567849 -0.68943243558453282
decision_type=2 2 2 2 2 2 2 2 2 2 2 2 2 2 2 2 2 2 2 2 2 2 2 2 2 2 2 2 2 2
left_child=-1 3 4 5 -3 6 9 8 21 -2 11 -11 -6 28 17 -14 -13 20 -12 -19 -15 22 -5 -24 25 27 -18 -25 29 -8
right_child=1 2 -4 7 12 -7 13 -9 -10 10 18 16 15 14 -16 -17 26 19 -20 -21 -22 -23 23 24 -26 -27 -28 -29 -30 -31
leaf_value=-0.079358135212642456 0.055491015791358039 0.060071463115297867 0.082925934479338895 0.052685745370417841 -0.078414956347927778 0.078186041522688002 -0.047025365048521374 0.07986036070817909 -0.02451026956131562 0.071862496483788285 0.049602605345677418 0.032352498797703598 0.0014996187307615256 -0.015581145800847317 -0.048283335689442319 -0.065659155750304052 -0.0061383679557348025 0.060292789600325053 0.018588734528899784 0.0022272590859025929 0.018144780008158279 0.078890023952216226 0.075630562521560862 0.056446700235051717 0.066848336816566531 -0.00037513226542673769 -0.038003501277168415 0.08336700994470124 -0.074715433467142531 -0.0054065093232462677
leaf_weight=282.74441453814507 38.218442291021347 10.106612414121626 62.39538848400116 125.69084256887436 254.93051114678383 21.931080311536789 14.586270034313205 144.1798620223999 11.75549668073654 5.9006128311157218 34.862361192703247 7.5823968052864066 7.5620397031307229 28.627721339464184 13.127641707658766 9.7550497055053711 21.036317735910412 7.0307065844535828 24.723380237817764 6.1787231266498548 12.918460547924044 30.64477863907814 63.261250406503677 33.741438955068588 71.641498982906342 12.87825486063957 12.310006707906725 13.77682241797447 5.6089206635951987 5.616437941789628
leaf_count=1020 136 36 222 447 919 78 52 513 42 21 124 27 27 102 47 35 75 25 88 22 46 109 225 120 255 46 44 49 20 20
internal_value=0.000148353 0.0203586 -0.0430198 0.0488192 -0.0708702 0.0175314 0.0119243 0.0648539 0.0588828 0.0303849 0.0213229 0.00155493 -0.0757504 -0.0165472 -0.00591748 -0.0362684 -0.00859549 0.00422889 0.0368026 0.0334319 -0.00502503 0.0616809 0.0600182 0.0647097 0.0594318 0.050545 -0.0180157 0.0643836 -0.0443406 -0.0356205
internal_weight=1395.32 1112.58 344.75 767.83 282.354 260.259 238.328 507.57 363.39 144.634 106.415 46.8293 272.248 93.6949 67.8833 17.3171 40.9287 54.7556 59.5857 13.2094 41.5462 351.635 320.99 195.299 132.038 60.3965 33.3463 47.5183 25.8116 20.2027
internal_count=4992 3972 1239 2733 1017 927 849 1806 1293 515 379 167 981 334 242 62 146 195 212 47 148 1251 1142 695 470 215 119 169 92 72
is_linear=0
shrinkage=0.05


Tree=17
num_leaves=18
num_cat=0
split_feature=0 1 2 1 7 2 1 1 1 0 0 0 0 2 0 1 1
split_gain=36.3218 43.1975 21.7975 24.7271 21.6727 14.9784 14.3284 11.9051 4.79809 10.8006 4.42437 8.13133 7.34371 2.06195 2.17978 0.412144 2.33893
threshold=-0.61975523613930072 -1.1133633127090754 -1.1073709571732382 0.053779552214962827 -1.0000000180025095e-35 -1.0000000180025095e-35 -0.54917399150461133 -0.98515555046119008 -0.76764747889503671 -0.48423570233016727 -0.73268818098024524 -0.68751500304386737 -0.64234182510748961 -1.1073709571732382 -0.71010159201205625 -1.6320587946431824 -1.545522219005844
decision_type=2 2 2 2 2 2 2 2 2 2 2 2 2 2 2 2 2
left_child=1 13 3 8 7 6 10 -3 9 -2 -6 -12 -13 15 -15 -1 -17
right_child=2 4 -4 -5 5 -7 -8 -9 -10 -11 11 12 -14 14 -16 16 -18
leaf_value=-0.042657624626608687 -0.036410504530493486 0.33742726552574387 -0.042263004475053184 0.4093271452908403 0.25858662346553091 0.60076119848416387 0.49574770007231223 -0.040121578466463491 -0.040531950529377025 0.29265523562093326 -0.037453562130128036 0.35226865608033431 -0.023365004014569687 0.20954787979877884 -0.022036861544688705 0.11349060144133408 -0.040468601744129348
leaf_weight=2.2783263553865263 0.52167410543188453 0.21097294706851244 22.520893006585538 0.49946057237684716 0.77032668888568956 0.33650550479069252 0.41169962286949147 0.97441150480881356 1.0885987384244826 0.39367395546287354 0.55396825773641523 0.32712684944272097 0.17148876935243473 0.1455927980132401 0.15875409450381983 0.2643350833095609 1.0710977790877221
leaf_count=369 84 28 3694 26 22 26 32 137 177 39 43 40 23 20 23 36 173
internal_value=0.00256394 0.0974278 -0.0265661 0.111728 0.21745 0.297875 0.239019 0.0359875 0.0281794 0.110352 0.168016 0.0907451 0.228165 -0.0183035 0.0956288 -0.0297552 -0.00519345
internal_weight=32.6989 7.67461 25.0243 2.50341 3.7565 2.57112 2.23461 1.18538 2.00395 0.915348 1.82291 1.05258 0.498616 3.91811 0.304347 3.61376 1.33543
internal_count=4992 972 4020 326 351 186 160 165 300 123 128 106 63 621 43 578 209
is_linear=0
shrinkage=0.05


Tree=18
num_leaves=16
num_cat=0
split_feature=2 4 2 1 7 1 2 1 3 3 9 8 1 1 1
split_gain=18.0825 100.777 41.9562 3.61381 8.34192 3.48395 11.6992 4.84979 4.46517 3.39324 2.82751 5.61429 2.28897 0.141837 4.96199
threshold=1.0000000180025095e-35 1.0000000180025095e-35 -1.1073709571732382 -0.57596887575289124 1.0000000180025095e-35 -0.63366345364851284 -1.1073709571732382 -0.98515555046119008 -0.52035033099128014 -0.18276908818594986 1.0000000180025095e-35 1.0000000180025095e-35 -0.81079590573420623 -1.5111600621855155 -1.545522219005844
decision_type=2 2 2 2 2 2 2 2 2 2 2 2 2 2 2
left_child=1 5 -3 4 -2 6 9 -8 10 13 12 -12 -9 14 -1
right_child=3 2 -4 -5 -6 -7 7 8 -10 -11 11 -13 -14 -15 -16
leaf_value=-0.042417627257005409 -0.038454816967111893 0.58408909018706534 -0.03289672199728412 -0.044333989173371904 0.26363062976607171 -0.043894412650967739 -0.029861556713448496 0.21088857873983968 -0.022700421416407754 0.15688963056319483 0.4754171346345113 0.1115000593202429 -0.023300598607799212 -0.04265483858834801 0.22886116726166411
leaf_weight=2.0718895513564339 0.71325950231403545 1.0555214406922457 0.35018147248774667 15.127327843103554 0.27342042746022344 4.5304291145876077 0.26853809878230095 0.14455941645428538 0.16487389663234331 0.19673356413841325 0.23769769771024585 0.26798914931714535 0.1708303214982152 2.2591862673871219 0.1317953323014075
leaf_count=406 136 16 65 3027 41 705 43 21 23 35 20 26 24 384 20
internal_value=-0.00365586 0.043028 0.432821 -0.0381687 0.0515227 -0.0110072 0.0139233 0.146592 0.196186 -0.0224409 0.241789 0.314444 0.0913679 -0.0325508 -0.0203665
internal_weight=27.9642 11.8502 1.4057 16.114 0.98668 10.4445 5.91409 1.25449 0.98595 4.6596 0.821077 0.505687 0.31539 4.46287 2.20368
internal_count=4992 1788 81 3204 177 1707 1002 157 114 845 91 46 45 810 426
is_linear=0
shrinkage=0.05


Tree=19
num_leaves=17
num_cat=0
split_feature=3 2 0 8 2 0 0 1 1 1 1 2 1 1 0 2
split_gain=17.9845 19.884 23.1418 8.20055 9.27146 14.8475 8.09906 7.30326 6.63341 4.94605 7.21327 8.32087 6.87692 5.0532 0.588802 4.84808
threshold=-0.86283588611794582 -1.1073709571732382 -0.75527476994843412 0.91167626293940474 0.99358451857120511 -0.12285027883914486 -0.59716864717111184 -0.32368583842604559 -0.35574340823597633 -0.53591688056553499 -0.65039480859812782 1.0000000180025095e-35 -0.60930351635582103 -1.2791691607839029 -0.48423570233016727 0.99358451857120511
decision_type=2 2 2 2 2 2 2 2 2 2 2 2 2 2 2 2
left_child=1 -1 -3 4 7 -6 -5 8 9 10 13 12 -12 -4 15 -2
right_child=14 2 3 6 5 -7 -8 -9 -10 -11 11 -13 -14 -15 -16 -17
leaf_value=-0.043146160142755241 -0.041024440289832396 0.42954961446386819 0.26853145484201768 0.41962516622560697 -0.026677545941188121 0.51712391011114167 -0.018975427111360337 -0.042108069166573628 0.32547702746311036 -0.039247520195207539 0.51568066570433746 -0.026434882043226755 0.111891741867475 -0.039019498258420729 -0.044096480441633418 0.23784156622998692
leaf_weight=3.202908334787935 1.2754331119358528 0.47540913708508004 0.10870281374081958 0.27218726743012667 0.2130112056620419 0.21636890526860941 0.13448471436277021 1.7965765951667001 0.21936837444081891 0.80532451788894865 0.21691523166373372 0.21018636715598404 0.26711330446414638 0.77511855657212436 9.6308540967293066 0.12604189896956075
leaf_count=846 345 15 19 28 46 15 34 449 36 154 15 51 33 157 2726 23
internal_value=0.00281981 0.055589 0.111293 0.0781296 0.0576478 0.26749 0.28291 0.0338292 0.0869943 0.0577798 0.108516 0.223386 0.328869 0.00848233 -0.0396484 -0.00689304
internal_weight=19.946 8.91368 5.71077 5.23536 4.82869 0.42938 0.406672 4.39931 2.60273 2.38336 1.57804 0.694215 0.484029 0.883821 11.0323 1.40148
internal_count=4992 1898 1052 1037 975 61 62 914 465 429 275 99 48 176 3094 368
is_linear=0
shrinkage=0.05


Tree=20
num_leaves=31
num_cat=0
split_feature=1 2 7 9 3 1 1 3 1 1 1 3 3 3 3 1 3 1 3 3 3 3 3 1 1 1 1 2 1 1
split_gain=124.98 132.633 86.5384 98.0201 52.4521 26.4818 25.9848 11.9035 8.48655 10.4782 7.10583 5.61437 35.7531 5.32766 12.062 5.22727 6.86608 4.97272 3.99585 7.40699 9.65825 2.98009 6.94286 2.9172 8.75145 5.60804 4.07485 6.26453 2.65875 5.72416
threshold=0.33286216415510045 -1.1073709571732382 1.0000000180025095e-35 1.0000000180025095e-35 -0.36002304303857152 -0.90530307501044016 0.32126853453304177 1.3210783923720097 -0.21213217779009777 -0.12574415905034778 -0.13231656340770426 0.62930156287443584 0.60303930884909984 -0.30463625791903309 -0.65177336330804392 -0.33503489151587867 -0.57910830648499256 0.58842063065188976 -0.78515267595813187 0.10270905857567132 0.39618825336297397 0.14883674148869055 0.43323291640893485 -0.93471226353997772 -0.8589618331347969 -0.59664866412722428 -0.44681311587762634 1.0000000180025095e-35 0.071247394898925467 -0.11030196696838725
decision_type=2 2 2 2 2 2 2 2 2 2 2 2 2 2 2 2 2 2 2 2 2 2 2 2 2 2 2 2 2 2
left_child=1 -1 7 4 8 -5 11 10 -4 -10 13 12 18 14 23 16 -16 -2 28 -20 -21 -12 -23 -3 -25 -26 27 -27 29 -7
right_child=17 2 3 5 -6 6 -8 -9 9 -11 21 -13 -14 -15 15 -17 -18 -19 19 20 -22 22 -24 24 25 26 -28 -29 -30 -31
leaf_value=-0.038078053785436244 -0.010674811405475314 -0.026480557334563649 0.3021305390316435 0.22259352567136603 -0.043693333777291697 0.041140424414769665 0.22268594254933607 0.18273728379154008 0.098613937455530362 0.27059029252439187 -0.01784842453153198 -0.025813039352472797 0.31400823314436033 -0.030413768279140531 -0.0089867670330606182 0.19084723609028184 0.14147479464178342 -0.046319981687889304 -0.013515237599095965 0.14683794815092985 -0.0019182087835079812 0.13248521133554333 -0.042302971815249751 0.15928435755427528 -0.025795994560983422 -0.011579209320847245 0.018217745335390376 0.10863399999212825 -0.0086093013242180428 0.11572766827403225
leaf_weight=47.924003090709448 11.263944037258623 2.6635827310383347 7.2301427386701098 2.5408643223345271 1.5056391805410374 9.5621181353926659 2.1346222460269919 1.0364090688526619 1.6500852182507517 2.3040381260216227 15.735641214996578 2.5901918187737456 1.1804766058921803 3.3456138074398032 1.3822379820048807 1.4203986525535608 1.5405211187899115 87.640105154365301 7.6101564280688816 2.0012664347887039 2.2589992210268974 1.0659003965556615 1.0907942391932008 1.1598595157265688 4.9493591859936812 1.4984872750938034 12.22727926820515 3.4847845174372196 1.3916763104498375 3.63274134323001
leaf_count=1007 246 53 97 39 29 161 19 18 23 35 318 54 9 69 22 25 27 1954 149 31 45 22 23 19 95 26 222 63 28 64
internal_value=0.00120716 0.0302753 0.0629973 0.111824 0.23067 0.0682743 0.0557564 0.0187077 0.267858 0.201575 0.0151886 0.0435372 0.0501619 0.0287235 0.0353692 0.112167 0.0705229 -0.0422931 0.037725 0.0157919 0.068273 -0.0101529 0.043994 0.0222454 0.0279626 0.0206335 0.0341665 0.0722328 0.0552883 0.0622235
internal_weight=247.022 148.118 100.194 47.593 12.6899 34.9031 32.3622 52.6009 11.1843 3.95412 51.5645 30.2276 27.6374 33.6721 30.3265 4.34316 2.92276 98.904 26.457 11.8704 4.26027 17.8923 2.15669 25.9834 23.3198 22.1599 17.2106 4.98327 14.5865 13.1949
internal_count=4992 2792 1785 783 184 599 560 1002 155 58 984 541 487 621 552 74 49 2200 478 225 76 363 45 478 425 406 311 89 253 225
is_linear=0
shrinkage=0.05


Tree=21
num_leaves=9
num_cat=0
split_feature=2 1 1 1 0 1 3 1
split_gain=2666.98 2.63659 1.60178 1.07341 0.80365 0.208411 0.12914 0.0377168
threshold=-1.1073709571732382 0.053779552214962827 -0.93471226353997772 -1.1611348388730198 -0.66492841407567849 -1.1868513319103935 -0.86283588611794582 -1.0316632231950038
decision_type=2 2 2 2 2 2 2 2
left_child=1 3 4 -1 5 -2 -4 -6
right_child=2 -3 6 -5 7 -7 -8 -9
leaf_value=0.14714834511030064 -0.0153243571955579 0.10506329259930734 -0.051470154113026592 0.13824434848328532 -0.053130963926466018 -0.033052903977709096 -0.053951989321175876 -0.038668551162444914
leaf_weight=138.68047234416008 3.8542740643024445 5.6923816204071036 158.48242284357548 93.589195847511292 5.588681161403656 4.8027817308902758 473.956209897995 3.4102737754583341
leaf_count=589 22 26 966 405 34 28 2902 20
internal_value=-0.000483641 0.142713 -0.0529104 0.143602 -0.0373388 -0.0255803 -0.0533381 -0.0481705
internal_weight=888.057 237.962 650.095 232.27 17.656 8.65706 632.439 8.99895
internal_count=4992 1020 3972 994 104 50 3868 54
is_linear=0
shrinkage=0.05


Tree=22
num_leaves=29
num_cat=0
split_feature=3 2 1 2 2 3 3 1 1 1 1 1 1 1 1 1 9 1 1 1 1 1 1 7 3 3 1 1
split_gain=26.9012 34.9435 32.4595 8.22384 18.7128 13.4251 17.1454 11.0573 4.31066 4.13158 4.24579 5.32242 7.5899 4.97 2.30831 1.78662 4.8426 8.07754 0.911427 1.37702 0.668122 0.65008 1.28814 0.596834 0.420509 15.2106 0.0810577 2.96972
threshold=1.3719123734427334 1.0000000180025095e-35 0.96353007770907995 1.0000000180025095e-35 -1.1073709571732382 0.60923277393515374 -0.86283588611794582 -0.10018534081485504 0.92225941382339205 -0.21213217779009777 -0.98515555046119008 -0.68943243558453282 -0.43161964816252257 -0.84475694555518677 -0.59664866412722428 -0.33503489151587867 -1.0000000180025095e-35 -0.43161964816252257 -0.61993351479725589 -0.51233700885616373 -0.30481376476664829 -0.55646682405424219 -0.60930351635582103 -1.0000000180025095e-35 -0.48622866240002111 -0.531914653707107 -1.1133633127090754 -1.0455693560974775
decision_type=2 2 2 2 2 2 2 2 2 2 2 2 2 2 2 2 2 2 2 2 2 2 2 2 2 2 2 2
left_child=3 -2 8 4 26 6 7 9 -3 10 -6 13 21 -12 -8 16 17 18 -5 -20 -14 22 -13 -4 25 -17 -1 -28
right_child=1 2 23 15 5 -7 14 -9 -10 -11 11 12 20 -15 -16 24 -18 -19 19 -21 -22 -23 -24 -25 -26 -27 27 -29
leaf_value=-0.0439529229855797 0.37376409138655425 -0.043607777457134171 0.18398306374114173 -0.03590815633145563 -0.034164948865703051 0.36283832892548334 0.085430079241464063 0.39709285498379499 0.0879717102113758 -0.03631459327674267 0.063914155518141835 -0.031530662262431189 0.23690719106378755 0.30172472304945214 -0.043363104288103756 -0.043965854528623796 -0.042769598722178455 0.3200984843831447 0.13224251531879458 -0.025994231460523445 0.094355873105711266 -0.037710250793191707 0.1029691422636646 0.31998555455141858 -0.044496070283266118 0.35425149546527079 0.11906397762848996 -0.043349937877212502
leaf_weight=5.5360988825559616 0.90316667780280013 3.5846683396957815 0.60063401330262423 0.48094420880079269 0.39267941564321551 0.3172675548121332 0.33170631621032987 0.28869590256363142 0.69409603811800469 0.48997891321778331 0.40711806248873472 0.30145710986107588 0.48113431874662638 0.67005836870521374 3.2013062816113234 5.5405990164726973 2.2755265189334777 0.22328926902264379 0.23082748521119356 0.20129411946982145 0.30700428970157978 0.60531316697597504 0.28626985754817769 0.63065761327743508 15.384916143491861 0.19986952841282324 0.2534338450059298 3.2002856768667698
leaf_count=623 34 361 32 50 37 32 32 23 27 35 37 22 35 41 353 623 253 22 22 20 26 54 25 20 1755 19 24 355
internal_value=-0.00113629 0.0937188 0.0444179 -0.015912 0.0106115 0.0657398 0.0510328 0.118485 -0.020916 0.0927306 0.112024 0.131845 0.077958 0.220884 -0.0295499 -0.0344493 -0.000127805 0.0813579 0.00679072 0.0582947 0.193303 -0.000939857 0.032998 0.265362 -0.039861 -0.0267299 -0.0387504 -0.0291894
internal_weight=48.0203 6.41322 5.51006 41.6071 17.0698 8.07999 7.76272 4.22971 4.27876 3.94101 3.45103 3.05836 1.98118 1.07718 3.53301 24.5373 3.41188 1.13636 0.913066 0.432122 0.788139 1.19304 0.587727 1.23129 21.1254 5.74047 8.98982 3.45372
internal_count=4992 474 440 4518 1754 752 720 335 388 312 277 240 162 78 385 2764 367 114 92 42 61 101 47 52 2397 642 1002 379
is_linear=0
shrinkage=0.05


Tree=23
num_leaves=28
num_cat=0
split_feature=3 9 2 9 1 0 1 2 3 1 3 0 2 0 1 1 0 0 1 1 1 0 1 1 3 3 0
split_gain=1729.74 486.468 70.7697 53.9407 86.3698 72.7727 54.5877 72.7401 16.1231 29.6523 9.3497 5.30055 7.66457 6.69544 3.26085 2.18446 2.01978 1.96611 1.37509 1.2179 0.47318 0.436363 0.28834 0.557799 0.109827 1.44222 0.104269
threshold=1.3210783923720097 1.0000000180025095e-35 1.0000000180025095e-35 1.0000000180025095e-35 -0.20382489811312168 0.69026692401565581 0.51742390105277536 1.0000000180025095e-35 0.31587665537064474 0.97178607986053456 0.12890131874211572 -0.21319663471190045 1.0000000180025095e-35 1.0000000180025095e-35 -0.11625234524918669 0.56322228511253614 -0.43906252439378951 0.21594855568368873 0.84894990616123156 -0.47247903349654102 1.0792688999028248 -0.30354299058465606 -0.39126089396566538 -0.29055740232064503 0.7130505868637772 -0.20112650161776557 -0.48423570233016727
decision_type=2 2 2 2 2 2 2 2 2 2 2 2 2 2 2 2 2 2 2 2 2 2 2 2 2 2 2
left_child=3 2 -2 4 19 6 10 18 -7 -10 11 14 -13 -14 16 -4 -6 -9 -8 -1 -11 -16 26 -24 25 -19 -21
right_child=1 -3 15 -5 5 8 7 17 9 20 -12 12 13 -15 21 -17 -18 24 -20 22 -22 -23 23 -25 -26 -27 -28
leaf_value=-0.054560119826526587 -0.053877958449991652 -0.054652119723756512 0.10112763185937734 -0.054759135947751759 -0.029913098356213814 -0.054448680080332094 -0.044628671768112395 0.10381995465987298 0.10838391693412225 -0.028906787602100043 0.049752691634906365 -0.043851764868912589 0.066848208201299761 -0.01662947160485127 -0.054590801907263155 0.14215201805715791 0.020222650856751789 0.14863168232507518 -0.0077664507469789867 -0.026885868331638186 -0.054356800133251983 -0.032152976848573926 -0.054476119084589492 -0.034492106766738188 0.15664527899454697 0.10583649679061465 -0.04139245098653499
leaf_weight=120.48366168141365 4.6985144615173331 38.729951053857803 4.2950268983840934 391.72601087391376 4.0136457234621048 42.98955462872982 5.2451515793800336 6.2918638586998012 4.7406395673751822 3.9236491173505765 6.9336885660886756 4.5629871785640708 6.0325162857770902 3.8758675456047058 7.6115952283143979 213.7280385941267 3.8852892369031897 7.5042040497064608 5.2645012140274048 5.3783030062913895 5.4974033534526825 4.4696142822504079 10.27877911925316 7.4289647787809363 5.2163151502609244 4.437992662191391 3.9126613140106219
leaf_count=690 27 225 20 2277 22 253 30 28 23 22 35 25 32 21 43 885 21 32 29 30 31 25 59 42 23 20 22
internal_value=-0.000300839 0.108797 0.137237 -0.0427744 -0.0259904 0.00329223 0.0355725 0.0825066 -0.0392146 0.00688333 -0.00293364 -0.0136665 0.00923002 0.0340236 -0.0303565 0.141379 -0.00496598 0.13143 -0.0265246 -0.0523067 -0.04423 -0.0466624 -0.0420762 -0.0463537 0.141077 0.133444 -0.0334515
internal_weight=933.156 261.452 222.722 671.705 279.979 132.496 75.3452 33.96 57.1512 14.1617 41.3852 34.4515 14.4714 9.90838 19.9801 218.023 7.89893 23.4504 10.5097 147.482 9.42105 12.0812 26.9987 17.7077 17.1585 11.9422 9.29096
internal_count=4992 1157 932 3835 1558 715 386 162 329 76 224 189 78 53 111 905 43 103 59 843 53 68 153 101 75 52 52
is_linear=0
shrinkage=0.05


Tree=24
num_leaves=31
num_cat=0
split_feature=7 9 0 2 0 0 2 0 1 0 1 1 1 1 2 9 1 0 1 1 1 0 1 2 0 2 0 1 1 0
split_gain=121.778 149.92 67.3977 89.4979 23.3485 63.7614 65.5829 21.7171 17.7099 38.2855 13.6941 6.94009 6.65523 6.51219 16.6727 24.4576 8.99774 5.73253 4.79239 4.73091 4.82722 4.48861 4.10501 3.95417 3.61194 3.32153 2.11815 2.77389 3.6621 2.02448
threshold=1.0000000180025095e-35 1.0000000180025095e-35 -0.41647593542560057 1.0000000180025095e-35 1.0064791695703006 0.55474739020652242 0.99358451857120511 -0.55199546923473397 0.45191169830592332 0.012669254969988566 -0.40319835541201027 -0.55646682405424219 0.012356125080519495 -0.12574415905034778 -1.1073709571732382 1.0000000180025095e-35 -0.50012149037369902 -0.52940888026654509 -0.34401480308145477 -1.0000000180025095e-35 -0.19091407616367403 -0.34871616852103388 -0.37895542026326551 -1.0000000180025095e-35 -0.37130275748922276 0.99358451857120511 -0.077677100902767041 -0.064084735910148932 0.071247394898925467 -0.25836981264827824
decision_type=2 2 2 2 2 2 2 2 2 2 2 2 2 2 2 2 2 2 2 2 2 2 2 2 2 2 2 2 2 2
left_child=1 -1 3 -3 5 8 -7 10 9 18 11 -5 -11 14 -2 16 -16 -9 21 20 22 -4 -19 -18 -20 -17 27 -26 29 -29
right_child=13 2 4 7 -6 6 -8 17 -10 12 -12 -13 -14 -15 15 25 23 19 24 -21 -22 -23 -24 -25 26 -27 -28 28 -30 -31
leaf_value=-0.039361447683105261 -0.045957590624926214 -0.021065639485795581 0.019568926338822349 0.23771617344433446 -0.045312226490553068 -0.044787953086389241 0.33852754302899624 0.075883688075926131 -0.038710346180556209 0.31346735278999777 0.31936319240243849 0.12585676734630552 0.15064075555151887 -0.044027193866315838 0.017463776223731572 -0.035401357301826308 0.19294649640302625 0.1001339862616769 0.067930014892917986 0.25623092531070335 0.055957712701034196 0.15154175443799209 0.21130830049478277 0.084849716215610757 -0.04525384832253878 0.064283824832148659 0.052754186893291755 0.097455696478778719 -0.019905971372820915 0.001251406926553207
leaf_weight=37.521223425865173 23.583015140146017 6.0703797712922123 1.4557784311473372 4.3224548362195492 6.1715945266187182 1.5836871825158585 3.5615629851818085 2.7958916574716595 7.0269761569797984 1.0596873499453061 4.15455083176494 2.5252836979925632 2.2289718128740788 73.784141961485147 2.2932064384222031 9.7210197895765287 2.0347327850759034 1.6447896882891675 2.129522155970343 1.2679859660565762 1.3988556265830991 1.2111029773950672 2.4628929570317273 1.8500521853566176 3.6390528455376687 0.85195842012763101 1.4592784382402761 1.3370794169604781 3.9102135859429836 0.99347399547696014
leaf_count=941 586 138 28 56 160 26 42 48 153 20 43 28 44 1874 49 246 38 26 42 21 21 25 39 37 75 19 31 27 88 21
internal_value=0.000288187 0.0400084 0.086277 0.147147 0.0431328 0.0605317 0.220768 0.196834 0.0289107 0.0535385 0.245316 0.198039 0.207765 -0.0351707 -0.0188728 0.0191332 0.0978457 0.139853 0.0214056 0.165137 0.141595 0.0821075 0.169133 0.143835 0.00894208 -0.0268687 -0.00216614 -0.0107546 0.00916465 0.0583833
internal_weight=216.05 101.932 64.4111 26.6431 37.768 31.5964 5.14525 20.5727 26.4511 19.4242 11.0023 6.84774 3.28866 114.118 40.334 16.751 6.17799 9.57042 16.1355 6.77452 5.50654 2.66688 4.10768 3.88478 13.4686 10.573 11.3391 9.87982 6.24077 2.33055
internal_count=4992 2143 1202 420 782 622 68 282 554 401 127 84 64 2849 975 389 124 155 337 107 86 53 65 75 284 265 242 211 136 48
is_linear=0
shrinkage=0.05


Tree=25
num_leaves=31
num_cat=0
split_feature=2 3 9 0 9 0 7 2 0 8 7 9 9 0 3 0 3 0 0 3 0 3 3 0 3 0 7 3 0 3
split_gain=782.035 822.21 281.175 127.171 56.7103 81.3659 59.3084 49.17 43.6342 30.4696 46.0847 59.1058 27.3134 16.0654 14.1136 14.1522 11.1224 10.6262 9.9196 9.01558 7.83673 7.56152 6.6736 4.54241 7.97497 3.85982 5.09702 3.72636 3.60585 2.22416
threshold=-1.1073709571732382 1.3210783923720097 1.0000000180025095e-35 -0.41647593542560057 1.0000000180025095e-35 0.69026692401565581 1.0000000180025095e-35 0.99358451857120511 0.44181444536557785 2.9623770375726921 1.0000000180025095e-35 1.0000000180025095e-35 1.0000000180025095e-35 0.46440103433376673 0.22147451842325791 -0.59716864717111184 0.45661379230818011 0.080429021874555293 -0.55199546923473397 1.5549692723713542 -0.64234182510748961 1.8557483605123788 -0.76582067556865108 -0.37130275748922276 0.62930156287443584 0.012669254969988566 1.0000000180025095e-35 1.6106461568500658 -0.52940888026654509 -0.18276908818594986
decision_type=2 2 2 2 2 2 2 2 2 2 2 2 2 2 2 2 2 2 2 2 2 2 2 2 2 2 2 2 2 2
left_child=-1 3 19 9 5 6 17 27 -8 10 12 -12 -2 -10 15 -13 -7 -5 20 -3 -14 -9 25 24 -24 -6 -27 -4 -20 -19
right_child=1 2 7 4 22 16 8 21 13 -11 11 14 18 -15 -16 -17 -18 29 28 -21 -22 -23 23 -25 -26 26 -28 -29 -30 -31
leaf_value=-0.074870773944046828 0.056412698144543708 -0.07496639933580837 0.036932507761660661 0.066549994642537288 0.065249365264498704 0.078469489559400044 -0.060448346660381069 0.019435514390089711 0.08227284583611294 0.073498565845514618 -0.0698350544653564 -0.0067916947385413097 0.032690701243093541 -0.013731807813233014 -0.037716720242978598 0.049107211942346338 0.025920463065956398 0.032515945841055757 0.049529930349666906 -0.01429144067878273 -0.018314786595895576 -0.051271399545681995 0.011764548368879925 0.078221188116336812 0.077735557036751959 0.014423128108419864 0.069450588466043323 0.078557010598427152 0.018460335496352714 -0.0060211175307850404
leaf_weight=276.81670340895653 56.465533971786499 242.96444228291512 6.6869190633296958 29.187797605991364 79.336532950401306 79.512233793735504 36.243411183357239 5.6074286401271847 8.9540588259696978 21.821791887283325 32.734246492385864 19.067951738834378 9.8380351960659009 8.3475470542907697 10.526410460472105 27.534915566444401 11.771789878606794 7.796055406332016 13.488536834716795 6.4125976562499991 31.347828239202499 11.17165759205818 7.5747352540493038 232.67077231407166 12.018257379531859 9.823950409889223 7.5554131865501395 38.620137453079224 32.044220626354218 6.962420701980589
leaf_count=1020 201 894 24 104 283 285 130 20 32 78 117 68 35 30 38 98 42 28 48 23 112 40 27 833 43 35 27 138 114 25
internal_value=0.000265794 0.0191088 -0.049714 0.0461574 0.0599464 0.0378255 0.0060259 0.0454442 -0.0292639 0.0170479 0.0117367 -0.0163059 0.0293535 0.0359031 0.014356 0.0261994 0.0717382 0.0490649 0.0116832 -0.0734194 -0.00604565 -0.0275057 0.0718981 0.0762405 0.052453 0.0605124 0.0386195 0.0725162 0.0277634 0.014208
internal_weight=1380.9 1104.09 311.463 792.624 537.755 188.775 97.4913 62.0861 53.545 254.869 233.048 89.8635 143.184 17.3016 57.1293 46.6029 91.284 43.9463 86.7186 249.377 41.1859 16.7791 348.98 252.264 19.593 96.7159 17.3794 45.3071 45.5328 14.7585
internal_count=4992 3972 1139 2833 1924 676 349 222 192 909 831 321 510 62 204 166 327 157 309 917 147 60 1248 903 70 345 62 162 162 53
is_linear=0
shrinkage=0.05


Tree=26
num_leaves=28
num_cat=0
split_feature=1 1 2 1 1 7 2 1 1 1 1 2 1 8 1 1 1 2 1 1 1 1 8 1 1 1 1
split_gain=20.6236 24.0641 11.7294 5.9399 7.19743 5.85717 12.2157 4.89939 3.15958 3.09307 2.86208 5.00513 4.95504 2.14222 9.9522 7.85755 13.1764 1.59784 2.60729 1.04144 3.49337 1.00648 0.969697 0.31728 4.57536 0.0221925 3.52028
threshold=-0.67263342595369602 -1.1285739006611903 1.0000000180025095e-35 0.62069472765840161 0.48570785411086032 -1.0000000180025095e-35 -1.0000000180025095e-35 -1.0087972119340318 -0.54917399150461133 -0.52765931658747744 -0.81079590573420623 -1.1073709571732382 -1.0087972119340318 1.0000000180025095e-35 -0.25384869707317509 0.053779552214962827 0.19648521314681394 -1.1073709571732382 -1.3452388453421646 -0.78664390165998488 -0.75248214548763503 -1.0455693560974775 1.0000000180025095e-35 -1.6320587946431824 -1.586198189665917 0.13947939259073192 0.11567836545142708
decision_type=2 2 2 2 2 2 2 2 2 2 2 2 2 2 2 2 2 2 2 2 2 2 2 2 2 2 2
left_child=1 17 3 4 8 7 10 -3 -2 -10 12 -12 21 15 -15 -11 -17 23 -19 -9 -21 -7 -14 -1 -25 26 -4
right_child=2 5 25 -5 -6 6 -8 19 9 13 11 -13 22 14 -16 16 -18 18 -20 20 -22 -23 -24 24 -26 -27 -28
leaf_value=-0.042601824699977066 -0.038710480129822644 0.20596542730492184 -0.043789823430695693 -0.041815193906716591 0.32140723458543019 0.078426897057316036 0.40067918242713652 -0.038028837197435821 0.20736736333797257 -0.041600904295209268 0.060138805798963683 0.30513967684442722 -0.036649511366978894 0.28563567532334916 -0.035644423211475172 0.37869042793380675 -0.034466628086994938 0.20598197231783655 -0.02813847064266425 0.2378414469478648 -0.031654949915397655 0.22073779633685087 0.060216651416893488 0.22063559533178725 -0.041432675243595729 -0.044300432271395351 0.14061741827014493
leaf_weight=2.2231212412007153 0.72599128494039122 0.34770828811451782 5.245868448168042 1.5784522853791711 0.22206677170470346 0.35228158021345735 0.508535825181751 0.65362963406369079 0.34418951580300916 1.4535412676632447 0.4231599560007453 0.51955570327118028 0.50635245209559798 0.40271847229450941 0.46955122845247377 0.30323149822652329 0.38721903413534164 0.14837382128462195 0.23502028547227372 0.1259883283637464 0.31330006010830391 0.5115104550495746 0.42090823175385594 0.13740570796653617 1.3920690077356996 12.548349008895455 0.21840802812948812
leaf_count=373 106 40 889 264 19 35 19 90 26 222 45 32 51 44 74 25 28 21 31 17 52 23 32 17 216 2163 38
internal_value=0.002467 0.0676656 -0.0215779 0.0392446 0.0696541 0.144735 0.182093 0.05569 0.0516492 0.0721848 0.134067 0.206252 0.0901456 0.0528137 0.117421 0.0233124 0.156926 -0.0196843 0.0700088 0 0.0569339 0.172902 0.00559367 -0.0303055 -0.0100669 -0.0416481 -0.0347575
internal_weight=32.7185 8.81892 23.8996 5.88696 4.30851 4.68293 3.2423 1.44063 4.08644 3.36045 2.73377 0.942716 1.79105 3.01626 0.87227 2.14399 0.690451 4.13599 0.383394 1.09292 0.439288 0.863792 0.927261 3.7526 1.52947 18.0126 5.46428
internal_count=4992 1094 3898 808 544 436 237 199 525 419 218 77 141 393 118 275 53 658 52 159 69 58 83 606 233 3090 927
is_linear=0
shrinkage=0.05


Tree=27
num_leaves=16
num_cat=0
split_feature=2 4 3 2 3 9 8 8 8 3 3 3 3 3 9
split_gain=16.3466 62.6543 9.83698 1.93915 4.54347 2.4205 3.4574 2.1574 1.06638 3.86542 1.00698 2.2765 0.16621 0.1327 0.0135976
threshold=1.0000000180025095e-35 1.0000000180025095e-35 -0.75090056297143748 -1.1073709571732382 -0.86283588611794582 1.0000000180025095e-35 1.0000000180025095e-35 2.9623770375726921 0.91167626293940474 -0.35123445058675334 -0.18276908818594986 0.066606268527074325 -0.41512732254175411 -0.86283588611794582 1.0000000180025095e-35
decision_type=2 2 2 2 2 2 2 2 2 2 2 2 2 2 2
left_child=1 3 -3 10 5 -5 -7 -8 13 -10 14 -12 -4 -2 -1
right_child=8 2 12 4 -6 6 7 -9 9 -11 11 -13 -14 -15 -16
leaf_value=-0.028684279686836178 -0.028968030148383381 0.43343325483957856 0.22074244902269125 0.0020455683532423483 -0.042079297415804143 0.19299025064452702 -0.035451580362566452 0.1374388837177147 0.21699345631028671 -0.037566436239928197 0.14781477939782062 -0.035121601929095948 0.1243337781995853 -0.044213027143689368 -0.042682195654740122
leaf_weight=3.3299708766862741 3.4404328386299303 0.77571226516738523 0.68067170400172461 1.0140145616605878 1.7976508955471242 0.57864437671378255 0.45665390323847532 0.2229046281427145 0.13995183305814862 0.62019070098176676 0.20816042879596341 0.42295105662196875 0.52731579029932518 11.151685731951144 2.2455449122935534
leaf_count=517 703 14 20 177 374 54 67 31 19 136 28 42 47 2346 417
internal_value=-0.00343257 0.0394288 0.293043 -0.0104668 0.0158493 0.0626749 0.107681 0.0233649 -0.0378405 0.0167151 -0.0281113 0.0279677 0.18726 -0.0409006 -0.0350956
internal_weight=27.6125 12.2602 1.9837 10.2765 4.06987 2.27222 1.2582 0.679559 15.3523 0.760143 6.20663 0.631111 1.20799 14.5921 5.57552
internal_count=4992 1788 81 1707 703 329 152 98 3204 155 1004 70 67 3049 934
is_linear=0
shrinkage=0.05


Tree=28
num_leaves=20
num_cat=0
split_feature=1 1 0 1 8 1 1 0 0 1 1 8 1 1 1 1 0 1 1
split_gain=15.101 7.31676 9.45299 6.18033 5.05631 7.60777 13.7657 5.81127 6.40345 4.77765 4.49132 2.30022 2.19529 6.0386 2.7994 9.30461 2.64388 2.22596 1.04552
threshold=0.042580823179764686 -1.3211299816153952 -0.75527476994843412 -0.87564421006397897 0.91167626293940474 -0.57596887575289124 -0.36737634502555966 -0.12285027883914486 -0.032503922966389237 -1.2791691607839029 0.012356125080519495 1.0000000180025095e-35 -0.32368583842604559 -0.35574340823597633 -0.65039480859812782 -0.61993351479725589 -0.68751500304386737 -0.60930351635582103 -0.18119494334920336
decision_type=2 2 2 2 2 2 2 2 2 2 2 2 2 2 2 2 2 2 2
left_child=1 -1 3 11 7 -6 -7 9 18 -4 12 -3 13 14 -11 -16 -17 -18 -9
right_child=-2 2 4 -5 5 6 -8 8 -10 10 -12 -13 -14 -15 15 16 17 -19 -20
leaf_value=-0.042296346928369088 -0.044070814329385831 0.16179044481291135 0.30178382754831318 0.38654954991177903 -0.029026205653816778 0.53586010176886256 -0.023436189034420418 0.37327034974502482 -0.028196179901282321 -0.042129234476369605 0.27405327958864234 -0.026281297858612246 -0.042205316082072473 0.20869447263147697 0.30958900809814011 0.15716429325737435 0.096259979875642609 -0.041840132560895332 0.13444118903122626
leaf_weight=1.971954031381755 9.1307645440101606 0.43059500004164875 0.09338371688499858 0.29584216163493593 0.2508129186462611 0.20748737384565175 0.17079797759652127 0.18846106971614063 0.23798286309466199 1.8218835294246649 0.10605409438721825 0.19566741120070219 1.8819971820339576 0.3433790465351193 0.23134897160343859 0.19621072849258836 0.29975656117312666 1.5836064098402851 0.22679138090461493
leaf_count=536 2692 48 10 11 48 14 36 23 66 450 27 16 503 52 39 24 22 354 21
internal_value=0.00293153 0.0431643 0.0628123 0.210867 0.043856 0.175337 0.304242 0.0309124 0.167942 0.0157164 0.00891539 0.101735 0.00199897 0.0213978 0.00292969 0.039652 0.00188431 -0.016646 0.276673
internal_weight=19.8648 10.734 8.76206 0.922105 7.83995 0.629098 0.378285 7.21086 0.653235 6.55762 6.46424 0.626262 6.35818 4.47619 4.13281 2.31092 2.07957 1.88336 0.415252
internal_count=4992 2300 1764 75 1689 98 50 1591 110 1481 1471 64 1444 941 889 439 400 376 44
is_linear=0
shrinkage=0.05


Tree=29
num_leaves=31
num_cat=0
split_feature=0 0 5 7 3 3 8 3 8 3 3 3 3 3 3 0 0 0 0 0 0 0 3 3 0 0 3 0 3 3
split_gain=163.405 65.4751 37.9645 32.5439 22.0385 25.9312 31.7291 31.354 20.9052 5.68408 4.55538 4.69092 16.8104 3.4031 2.98221 2.57391 3.75677 3.4779 1.74306 1.7295 2.56171 2.15745 1.55513 2.69105 1.20931 1.16788 2.5858 1.15432 1.09265 1.07023
threshold=-0.32612957955284499 -0.73268818098024524 1.0000000180025095e-35 1.0000000180025095e-35 0.62930156287443584 0.066606268527074325 1.0000000180025095e-35 -0.47628685725838299 1.0000000180025095e-35 -0.86283588611794582 -0.33155046397990423 -0.65177336330804392 -0.5840965091892435 -0.43045456876875182 -0.61117621853410353 -0.43906252439378951 -0.61975523613930072 -0.34871616852103388 -0.75527476994843412 -0.43906252439378951 -0.66492841407567849 -0.64234182510748961 -0.036981542908975956 0.43323291640893485 -0.57458205820292285 -0.23578322368008939 -0.46455737677926245 -0.71010159201205625 -0.49700680330856556 0.14883674148869055
decision_type=2 2 2 2 2 2 2 2 2 2 2 2 2 2 2 2 2 2 2 2 2 2 2 2 2 2 2 2 2 2
left_child=1 13 3 10 5 7 -7 8 14 -2 11 15 -13 18 19 16 27 -17 -1 20 -5 -22 -12 29 -23 26 -11 -3 -14 -24
right_child=9 2 -4 4 -6 6 -8 -9 -10 25 22 12 28 -15 -16 17 -18 -19 -20 -21 21 24 23 -25 -26 -27 -28 -29 -30 -31
leaf_value=-0.0411462537719849 -0.011425502974060876 -0.042518935571462288 0.32573564998146959 0.076941494612305997 -0.04507902924851543 0.0012958336762321613 0.23147243519620042 -0.023888986360416573 0.015812835862036502 0.04934414894217834 -0.044664008733238739 0.18376914537164962 -0.0078070517558109622 0.034828187839089246 0.18597730498091969 -0.020263126363412872 0.044655333730979775 0.070713070004112796 -0.0013046558381155486 0.079402635769054042 0.171167971242591 0.091714335813451592 0 -0.043599570523325602 0.12668186357434946 -0.045228968964097449 -0.036100353730115962 0.010456441527350948 0.04340475711244017 0.071045309420639233
leaf_weight=19.875979784876112 15.744563847780226 1.1497238799929617 1.2832399830222119 4.3654255308210876 3.1366010569035998 2.0282226018607608 5.9209937676787376 6.7328921407461158 7.1052560172975054 0.99364181607961644 2.534553412348032 2.1072437688708305 2.6183219365775585 1.7803775407373894 1.4392115399241507 5.7984172813594341 15.759359553456305 1.2272496484220052 3.3390961587429073 5.4698978550732127 2.4478449597954794 5.2954121157527014 1.0250065475702284 1.5727194584906099 9.9240893125533969 99.986048456281424 5.3145175836980334 6.9354178868234175 1.6064938977360714 1.2211547940969465
leaf_count=441 326 24 13 72 65 40 46 133 129 23 53 28 45 33 17 112 276 25 63 90 31 74 22 33 129 2342 122 134 28 23
internal_value=0.00130796 0.0418071 0.0601154 0.0564257 0.0824172 0.0903862 0.173431 0.0747123 0.0932059 -0.0397223 0.0241667 0.0308657 0.0701189 -0.0303669 0.11206 0.022633 0.0304674 -0.00363061 -0.0355383 0.10777 0.114504 0.123401 -0.0146032 0.00502103 0.115019 -0.0438829 -0.021966 0.0024009 0.0113614 0.0403611
internal_weight=245.739 123.7 98.7047 97.4215 53.8658 50.7292 7.94922 42.78 36.0471 122.039 43.5557 37.2022 6.33206 24.9955 28.9419 30.8702 23.8445 7.02567 23.2151 27.5027 22.0328 17.6673 6.35343 3.81888 15.2195 106.294 6.30816 8.08514 4.22482 2.24616
internal_count=4992 2179 1642 1629 826 761 86 675 542 2813 803 672 101 537 413 571 434 137 504 396 306 234 131 78 203 2487 145 158 73 45
is_linear=0
shrinkage=0.05


Tree=30
num_leaves=12
num_cat=0
split_feature=2 7 1 0 1 0 1 0 1 3 1
split_gain=2241.96 2.85385 12.0349 3.90312 1.61414 1.17154 1.1667 0.794671 0.194282 0.131848 0.0408614
threshold=-1.1073709571732382 1.0000000180025095e-35 -0.69929862694161726 -0.46164911336197839 -0.93471226353997772 -0.16802345677552263 -1.3211299816153952 -0.66492841407567849 -1.1868513319103935 -0.86283588611794582 -1.0316632231950038
decision_type=2 2 2 2 2 2 2 2 2 2 2
left_child=1 2 6 -4 7 -5 -1 8 -2 -6 -9
right_child=4 -3 3 5 9 -7 -8 10 -10 -11 -12
leaf_value=0.12864961263645189 -0.014553615332601905 0.128375993599227 0.039273831510145241 0.075064393417047792 -0.050692554120074243 0.11270946324903948 0.11355303502820845 -0.052421849450265047 -0.031895832330962264 -0.053233497110283329 -0.037697011649506847
leaf_weight=60.002075105905533 3.8006304651498795 152.95998914539814 5.2614279985427883 5.7065205872058877 151.22842706739902 5.0370155721902821 27.504550606012344 5.3284072130918503 4.6535749435424822 449.86284972727299 3.3054264038801175
leaf_count=236 22 606 22 24 966 21 111 34 28 2902 20
internal_value=-0.000594114 0.12367 0.116632 0.0759307 -0.0521588 0.0933859 0.124001 -0.0362936 -0.0245249 -0.0526027 -0.0473219
internal_weight=874.651 256.472 103.512 16.005 618.179 10.7435 87.5066 17.088 8.45421 601.091 8.63383
internal_count=4992 1020 414 67 3972 45 347 104 50 3868 54
is_linear=0
shrinkage=0.05


Tree=31
num_leaves=26
num_cat=0
split_feature=0 4 2 9 0 1 2 2 0 0 1 1 1 0 1 0 0 9 1 1 1 1 1 1 1
split_gain=13.0229 8.56737 23.2359 30.6202 42.2606 6.81169 6.365 14.3941 14.0011 16.1677 7.10232 9.72986 4.37195 3.71566 2.05622 1.59015 1.5691 3.38223 4.57814 1.15003 3.91322 1.14375 0.864804 0.0575781 2.69157
threshold=6.0319952149923326 1.0000000180025095e-35 1.0000000180025095e-35 1.0000000180025095e-35 0.82578645782478932 0.81135368522937712 1.0000000180025095e-35 -1.1073709571732382 -0.28095640161646712 -0.41647593542560057 -0.65039480859812782 -0.69929862694161726 0.29514549328514222 -0.66492841407567849 0.23652757325410259 -0.61975523613930072 -0.55199546923473397 1.0000000180025095e-35 -0.61993351479725589 -0.43161964816252257 -0.30481376476664829 0.96353007770907995 -0.84475694555518677 -1.1133633127090754 -1.0455693560974775
decision_type=2 2 2 2 2 2 2 2 2 2 2 2 2 2 2 2 2 2 2 2 2 2 2 2 2
left_child=1 6 5 12 21 14 7 23 9 10 11 13 -4 22 -3 -15 17 18 -8 -12 -21 -5 -9 -1 -25
right_child=-2 2 3 4 -6 -7 16 8 -10 -11 19 -13 -14 15 -16 -17 -18 -19 -20 20 -22 -23 -24 24 -26
leaf_value=-0.043921784722042258 0.25204472987591708 0.18558920582813929 0.17924400399609886 0.22460729058372367 -0.041921814107128919 0.059222206122528501 -0.033076542753563531 -0.036945506531975099 -0.042998988380642811 0.26831611953941337 -0.040812782013232601 0.35468582082877381 -0.044307009724088353 0.23224085570556513 0.41703263692739406 0.063581918056097808 -0.044470988985383597 -0.041715145369941919 0.20528224804431658 0.12749644932912765 -0.039446615865311924 0.37514271712338432 0.051072576721584731 0.10384405784375805 -0.043569643810530585
leaf_weight=5.3342684097588062 0.453418904915451 0.38189217448234269 0.17185792420059343 0.68752316478639952 1.5529922437854109 0.42534091975539923 0.35320160817354918 0.54951736237853765 2.5585468700155616 1.0643727760761974 1.110781305003911 0.32447367999702637 8.637322614900766 0.30968433432281017 0.38169799745082855 0.40763062518090021 14.716407648753377 1.4816996529698372 0.34853033814579171 0.52791955228894927 0.82165000215172856 0.89322939142584801 0.46619311906397343 0.28438605275005135 3.3926294529810548
leaf_count=623 21 27 14 32 182 30 37 55 292 45 106 18 962 21 20 27 1754 164 27 34 81 15 24 24 357
internal_value=-0.000850297 -0.00359769 0.0305718 0.00893492 0.142065 0.236767 -0.0168737 0.00445712 0.0526115 0.09687 0.0534363 0.120837 -0.0386766 0.0669336 0.322873 0.150043 -0.0386197 0 0.0877636 -0.00321695 0.0262931 0.320097 0.00160817 -0.0388198 -0.0302575
internal_weight=47.6372 47.1837 13.1319 11.9429 3.13374 1.18893 34.0519 17.1521 8.14077 5.58222 4.51785 2.0575 8.80918 1.73303 0.76359 0.717315 16.8998 2.18343 0.701732 2.46035 1.34957 1.58075 1.01571 9.01128 3.67702
internal_count=4992 4971 1282 1205 229 77 3689 1707 703 411 366 145 976 127 47 48 1982 228 64 221 115 47 79 1004 381
is_linear=0
shrinkage=0.05


Tree=32
num_leaves=31
num_cat=0
split_feature=4 0 0 3 3 0 2 2 2 0 3 1 1 7 0 0 1 3 3 1 1 8 1 1 3 0 0 3 0 3
split_gain=1583.88 369.647 62.7754 31.1275 20.2197 37.6223 33.3023 47.6629 9.8074 6.51703 4.8025 4.66244 2.47442 3.60373 6.51614 10.5817 3.95842 2.34069 1.89374 1.86606 1.64386 1.42855 1.12739 0.835292 0.711591 0.582851 0.227927 0.319203 0.122594 0.094781
threshold=0.32746744198025463 0.73544010195203369 0.035255843938177475 0.39618825336297397 1.5883289718601341 -0.032503922966389237 0.99358451857120511 1.0000000180025095e-35 1.0000000180025095e-35 0.26112173362006658 0.0095713059667038077 0.93808619393507431 -0.29055740232064503 1.0000000180025095e-35 -0.032503922966389237 -0.21319663471190045 -1.0000000180025095e-35 -0.11478054528140283 0.31587665537064474 -0.11625234524918669 -1.0000000180025095e-35 1.0000000180025095e-35 -0.18119494334920336 0.74227048765924464 -0.45491983072925551 0.1030156108427442 0.057842432906366377 -0.56532408084557695 -0.39388934645741169 0.64566933811289429
decision_type=2 2 2 2 2 2 2 2 2 2 2 2 2 2 2 2 2 2 2 2 2 2 2 2 2 2 2 2 2 2
left_child=3 2 -2 12 5 8 7 -7 20 25 24 23 -1 -14 15 19 -17 -18 26 21 -5 22 -15 -9 -11 -4 27 -16 -21 -27
right_child=1 -3 9 4 -6 6 -8 11 -10 10 -12 -13 13 14 18 16 17 -19 -20 28 -22 -23 -24 -25 -26 29 -28 -29 -30 -31
leaf_value=-0.053511274517406331 -0.045272602945095379 -0.053655892382229176 0.12333168815449343 -0.013412310750352622 -0.052461141382575197 -0.053849880289680685 -0.054917380049137023 0.097764912051097358 -0.053861235017374047 0.086648030799708425 0.040936536634355009 0.047757084569827281 -0.052830521861014001 -0.032359198695785775 -0.052710680664127853 -0.02229716109556662 0.063881072085565135 0.0077191870013751012 -0.01455320879632635 -0.053801256506500854 0.033082273605622985 -0.052594479698684485 -0.0032880168509593064 0.1266050390233979 0.12163612774247852 0.11599212246374274 -0.053735613974793532 -0.030737574844990009 -0.043466075137573702 0.094290378619718826
leaf_weight=278.12178890407085 5.7908286303281775 36.247279301285744 225.14512197673321 3.601614698767662 32.966515079140663 6.7752040624618557 8.2568551003932935 8.3574422150850314 28.75965091586113 4.3278702348470679 4.3752557188272467 3.7923582643270484 117.38024358451366 6.9433538019657144 4.6838566660881042 4.7371671050786972 3.6927059292793274 3.9376385658979398 3.7293379902839652 10.664969801902769 3.8231101483106604 4.0517918318510047 6.8035341203212747 7.3230818510055533 4.9876039624214163 6.5906025469303113 59.276064112782478 4.3406696915626508 14.597183004021646 4.9568880200386047
leaf_count=1671 34 225 873 20 201 40 47 38 176 20 21 21 712 41 29 28 20 23 21 64 20 25 39 32 20 28 367 26 89 21
internal_value=-0.000389908 0.0956839 0.116831 -0.0452325 -0.0201479 -0.00501664 0.0322731 0.0598479 -0.0406401 0.120598 0.0857482 0.0995715 -0.0501973 -0.0464125 -0.0404639 -0.0274354 0.013137 0.0354632 -0.0504288 -0.0391479 0.0102552 -0.0263081 -0.0182167 0.111752 0.106197 0.122585 -0.0523391 -0.042645 -0.0480257 0.107339
internal_weight=919.038 292.421 256.174 626.616 103.656 70.6893 34.5049 26.2481 36.1844 250.383 13.6907 19.4729 522.96 244.839 127.458 55.4283 12.3675 7.63034 72.0299 43.0608 7.42472 17.7987 13.7469 15.6805 9.31547 236.693 68.3006 9.02453 25.2622 11.5475
internal_count=4992 1242 1017 3750 595 394 178 131 216 983 61 91 3155 1484 772 329 71 43 443 258 40 105 80 70 40 922 422 55 153 49
is_linear=0
shrinkage=0.05


Tree=33
num_leaves=31
num_cat=0
split_feature=9 2 0 8 0 0 0 1 0 1 0 1 0 2 1 0 1 2 1 1 1 1 1 0 0 0 0 1 1 0
split_gain=77.0165 71.4002 108.335 33.0574 18.1764 82.5433 16.7392 11.9721 15.8231 9.87639 11.1248 9.32079 8.83905 13.7549 8.06276 6.55136 4.5723 4.07759 6.94981 6.90213 3.96931 3.39108 3.64114 3.10459 2.65264 4.2163 2.30153 2.21496 5.70122 2.75435
threshold=1.0000000180025095e-35 1.0000000180025095e-35 -0.41647593542560057 1.0000000180025095e-35 0.62250715711108917 0.55474739020652242 -0.55199546923473397 0.15974064785971751 0.012669254969988566 -0.40319835541201027 -0.64234182510748961 1.0000000180025095e-35 -0.055090511934578139 -1.1073709571732382 -0.54917399150461133 -0.59716864717111184 -0.34401480308145477 1.0000000180025095e-35 -0.50012149037369902 -0.30481376476664829 -0.8589618331347969 -0.29911159627344525 -0.60930351635582103 -0.39388934645741169 -0.37130275748922276 -0.39388934645741169 -0.34871616852103388 -0.20382489811312168 -0.57596887575289124 -0.50682229129835621
decision_type=2 2 2 2 2 2 2 2 2 2 2 2 2 2 2 2 2 2 2 2 2 2 2 2 2 2 2 2 2 2
left_child=12 -2 3 6 5 7 9 8 16 10 -3 -10 13 -1 15 -12 26 18 20 -20 -15 22 -8 -21 25 -18 -4 28 -19 -30
right_child=1 2 4 -5 -6 -7 21 -9 11 -11 14 -13 -14 17 -16 -17 24 27 19 23 -22 -23 -24 -25 -26 -27 -28 -29 29 -31
leaf_value=-0.043525656725091677 -0.039260984026435242 0.034251220859293975 0.017554030911869575 -0.028539298341849803 -0.038617219496070061 0.22460912929978905 0.14511448892995671 -0.025199844315451744 0.22335758916826604 0.23928293428551398 0.2711874390218828 0.052831647833962991 -0.045951382258775486 0.055198972208062025 0.10134134679321619 0.14114871826229652 -0.04151359048948168 -0.044294684800254398 0.1448609291686514 -0.016796390807786523 -0.044658667008757834 0.12672652418079086 0.046392208661775083 0.071483292730889866 -0.012134106145810092 0.085279121959208656 0.10631439177524074 -0.034313033315805257 0.11335076078678044 0.018541336574988306
leaf_weight=21.351285234093666 29.815171457827091 1.7798603512346733 1.5060774832963946 2.9632629491388789 13.98957174643874 4.6584164910018435 1.2475029826164243 19.17885072901845 1.4256195016205304 5.2849838323891207 2.6067079231142984 1.9576432742178438 54.547468077391386 1.4271742217242716 2.6029571853578091 2.0387221388518815 0.93545162305235874 2.5428391359746456 2.036035742610693 1.7844567969441416 2.9522745162248611 6.5472589172422859 4.2175625376403358 2.0648622475564498 11.781246904283757 1.8431968316435858 1.5829634480178398 4.5705636963248235 1.1999201215803625 2.2568876519799232
leaf_count=553 765 27 31 64 373 38 19 467 22 44 30 41 1452 35 28 18 21 64 41 37 71 103 69 44 272 38 32 115 26 52
internal_value=0.00040645 0.0275313 0.0501609 0.128659 0.010981 0.0265263 0.146469 0.00326608 0.0293404 0.183342 0.149182 0.127621 -0.0326425 -0.0153407 0.176634 0.216761 0.0100516 0.0134579 0.0358718 0.0711921 -0.0112969 0.101748 0.070492 0.0302271 -0.00157572 0.0417304 0.0648042 -0.00813942 0.0115053 0.0533112
internal_weight=214.697 117.963 88.1479 29.2888 58.859 44.8695 26.3256 40.211 21.0322 14.3132 9.02825 3.38326 96.7338 42.1863 7.24839 4.64543 17.6489 20.835 10.2648 5.88535 4.37945 12.0123 5.46507 3.84932 14.5599 2.77865 3.08904 10.5702 5.99965 3.45681
internal_count=4992 2502 1737 402 1335 962 338 924 457 147 103 63 2490 1038 76 48 394 485 228 122 106 191 88 81 331 59 63 257 142 78
is_linear=0
shrinkage=0.05


Tree=34
num_leaves=31
num_cat=0
split_feature=9 1 3 1 1 7 1 1 1 4 8 3 4 7 1 8 3 7 3 3 1 8 3 3 1 1 3 7 1 3
split_gain=498.382 413.537 247.19 209.683 93.397 90.4789 49.0318 38.2622 37.6668 43.0563 18.1373 16.9728 14.7993 13.5076 23.6011 10.5315 6.66585 6.47119 6.4623 6.19522 9.45229 18.4826 21.3323 6.29178 5.9375 4.26349 4.3625 4.57131 3.70135 3.65317
threshold=1.0000000180025095e-35 -0.55646682405424219 0.91194228674339117 -0.68943243558453282 0.87066212429365897 1.0000000180025095e-35 -0.96443984074063571 0.012356125080519495 0.37516375381497125 0.32746744198025463 2.9623770375726921 0.31587665537064474 0.78119478252678032 1.0000000180025095e-35 -1.5111600621855155 1.7319565727927195 0.45661379230818011 1.0000000180025095e-35 1.5604562953460299 1.4837022762373331 0.33286216415510045 1.0000000180025095e-35 0.22147451842325791 1.6106461568500658 -0.81079590573420623 -0.19091407616367403 -0.65177336330804392 1.0000000180025095e-35 -0.68943243558453282 2.0685150015824987
decision_type=2 2 2 2 2 2 2 2 2 2 2 2 2 2 2 2 2 2 2 2 2 2 2 2 2 2 2 2 2 2
left_child=2 6 3 13 5 -5 15 25 -7 11 17 -10 16 14 -1 -2 -6 -8 -4 20 21 -9 -23 -21 -16 -3 -27 -28 -19 -25
right_child=1 7 18 4 12 8 10 19 9 -11 -12 -13 -14 -15 24 -17 -18 28 -20 23 -22 22 -24 29 -26 26 27 -29 -30 -31
leaf_value=-0.066594536430219536 -0.066823538908387256 0.027739754899544042 -0.07068798272812192 0.036326500662028513 0.074726148886816335 -0.060050569365827526 0.0018588894623470774 0.06365477922267547 0.06606638804797399 -0.067951574047330363 0.070850998593438672 -0.032456038993624113 -0.015318861931315301 -0.072274741672986295 -0.024490516449544187 -0.0015982248926327321 0.030944962970432973 -0.042750602236201342 -0.025437984202252448 0.00058723430742677833 0.073287398461152384 0.064681011247264081 -0.036105417330016466 0.069578942117595535 0.021240603757259679 0.052007230170547494 0.0095419065465938233 0.050636826797838756 -0.010310574134013571 0.04022382320165583
leaf_weight=46.0153588950634 86.989775091409683 110.28544875979424 245.55226674675941 87.996904045343399 68.465587139129639 56.373595833778381 29.72430682182312 97.440927445888519 19.014473855495456 13.294988363981245 6.6490453183650962 5.6006848514080039 5.4958070814609519 60.025339275598526 35.635108768939972 6.7497795224189749 10.308707386255263 21.591663181781769 8.4076652526855451 6.6823390424251548 162.13703447580338 9.9427948594093341 10.989580661058424 19.364975214004517 8.761464446783064 50.38635465502739 16.17647784948349 11.860337167978289 15.279624640941618 25.692808598279953
leaf_count=174 327 397 928 318 249 205 107 352 69 49 24 20 20 226 132 25 37 80 31 24 589 36 40 70 32 181 58 43 56 93
internal_value=0.000337464 0.030242 -0.0303208 -0.00662755 0.0200017 -0.000112565 -0.0382134 0.0521906 -0.0341496 0.00432846 -0.00751447 0.0435279 0.0635139 -0.053818 -0.0415035 -0.062157 0.0690518 -0.0154234 -0.0692051 0.0624137 0.0653773 0.0544953 0.0116886 0.0462502 -0.0153957 0.0341662 0.0431484 0.0270744 -0.0294072 0.0529587
internal_weight=1358.89 687.943 670.948 416.988 266.551 182.281 166.984 520.959 94.2837 37.9101 73.2446 24.6152 84.2701 150.437 90.4119 93.7396 78.7743 66.5956 253.96 332.25 280.51 118.373 20.9324 51.7401 44.3966 188.709 78.4232 28.0368 36.8713 45.0578
internal_count=4992 2502 2490 1531 967 661 619 1883 343 138 267 89 306 564 338 352 286 243 959 1204 1017 428 76 187 164 679 282 101 136 163
is_linear=0
shrinkage=0.05


Tree=35
num_leaves=15
num_cat=0
split_feature=3 7 2 2 7 8 2 8 2 3 2 8 3 3
split_gain=19.767 15.4268 9.21542 7.27054 12.7932 4.96412 4.9471 2.61588 1.96615 1.44771 1.17092 0.401695 0.182798 4.27284
threshold=-0.86283588611794582 -1.0000000180025095e-35 -1.1073709571732382 -1.1073709571732382 -1.0000000180025095e-35 2.9623770375726921 1.0000000180025095e-35 1.0000000180025095e-35 1.0000000180025095e-35 0.26657170864668472 0.99358451857120511 1.0000000180025095e-35 -0.31820114566635299 -0.34472325344356491
decision_type=2 2 2 2 2 2 2 2 2 2 2 2 2 2
left_child=1 8 7 4 9 6 -4 -3 11 -2 -8 -1 13 -5
right_child=3 2 5 12 -6 -7 10 -9 -10 -11 -12 -13 -14 -15
leaf_value=0.019575527196105023 0.099632735734048725 0.0084285876271045484 0.21378787779328659 -0.043144466771451215 -0.041058123800228559 -0.032726548831162335 0.10489426239192552 0.10419025853935429 -0.042974857755993641 0.28981479141797467 -0.021391377472449083 -0.032622683259941963 -0.044379592535151197 0.18660963566911543
leaf_weight=3.0543724955059592 0.29360843123868097 2.7552900216542189 2.0691699464805411 2.910390581004322 1.1112269866280282 0.3239107890985905 1.6073892829008398 0.95172936329618085 2.7366543300449848 0.39638904295861721 0.15338423429056991 0.34089343482628454 13.686726443003861 0.1650403412058975
leaf_count=462 32 374 164 482 124 29 200 108 483 18 28 50 2408 30
internal_value=0.00261587 0.0474687 0.0936472 -0.0310959 0.0626218 0.144585 0.160454 0.034739 -0.0116045 0.224467 0.0922258 0.0132117 -0.0414715 -0.0272269
internal_weight=32.5562 13.9928 7.86087 18.5634 1.80122 4.15385 3.82994 3.70702 6.13192 0.689997 1.76077 3.39527 16.7622 3.07543
internal_count=4992 1898 903 3094 174 421 392 482 995 50 228 512 2920 512
is_linear=0
shrinkage=0.05


Tree=36
num_leaves=17
num_cat=0
split_feature=1 4 1 1 0 1 0 9 8 4 1 1 1 0 0 1
split_gain=14.2646 23.6562 5.61393 8.86956 4.93669 7.57084 3.96413 3.44948 5.65667 2.37878 31.5988 2.32375 0.883006 0.161453 2.07384 1.51091
