tree
version=v4
num_class=9
num_tree_per_iteration=9
label_index=0
max_feature_idx=10
objective=multiclass num_class:9
feature_names=Column_0 Column_1 Column_2 Column_3 Column_4 Column_5 Column_6 Column_7 Column_8 Column_9 Column_10
feature_infos=[-0.96984736514622882:20.871384167092444] [-4.4242554862380423:1.7715563446033218] [-1.6326098261093491:3.6197788632517591] [-0.9062974542341915:4.4020782608011988] [-0.35312356883953394:37.759973037068619] [-0.090434061257557152:11.057780509845617] none [-1.1425689824782159:0.87522067843204898] [-0.31874420184056751:4.6029376572793215] [-0.99286780659083596:1.0071834269998676] none
tree_sizes=2005 1492 3311 1154 2534 2496 3330 3348 1792 1922 1835 3355 1191 2687 2757 3337 3398 1724 2041 1840 3398 1191 2790 2775 3367 3404 2792 1428 1836 3391 1295 2267 3095 3401 3411 2386 2046 1732 3381 3419 3205 2686 3414 3411 2136 1716 1726 3369 994 2991 2367 3396 3416 2358 1626 1726 3363 1308 1735 2794 3373 3401 1416 1952 1509 3391 1413 2551 2272 3378 3412 2041 1632 1725 3393 3415 2462 2162 3390 3407 2904 1728 1508 3371 1526 2887 2482 3390 3399 2357 1943 1623 3387 3438 3424 3105 3410 3406 1942 1931 1619 3372 1105 3214 2578 3401 3398 2026 2154 1308 3395 3439 3205 2899 3412 3420 2028 1834 1391 3410 1528 3411 2039 3429 3415 2132 1516 1517 3384 3443 3236 2373 3406 3421 2046 2252 1955 3404 1736 3421 2041 3405 3388 2155 2360 2049 3377 3436 3450 2359 3398 3418 2984 1834 2143 3394 1735 3430 3436 3418 3402 2264 1740 2051 3410 1731 3444 2152 3420 3442 2371 1627 2059 3420 1929 3415 2884 3414 3417 2154 1635 1952 3416 2053 3201 2478 3417 3430 2271 2062 2153 3409 1941 3425 3402 3401 3399 2370 1955 2487 3311 3441 2584 2678 3409 3411 2165 1753 2135 3390 2174 2381 2783 3424 3387 2580 1516 1417 3413 3430 2485 2987 3396 3437 2678 1409 1515 3413 2582 2999 3235 3413 3423 2135 1747 1526 3401 3004 2892 3441 3421 3419 2484 1623 1527 3407 3002 3328 2361 3432 3428 2593 1638 1633 3415 3441 2801 2173 3438 3435 3109 1849 1844 3414 2982 2784 2144 3446 3419 1517 1508 2042 3412 2463 3217 2372 3415 3425 2898 1842 2271 3412 3463 3392 3431 3423 3441 3210 1285 2380 3411 2804 3431 2563 3405 3406 2491 1393 2268 3409 2701 3428 2573 3430 3419 2805 2040 2056 3421 3013 3432 2454 3410 3430 2192 1752 1954 3410 1211 3449 2581 3418 3424 1752 2797 2178 3397 3009 3137 2477 3446 3423 2052 2058 2171 3429 3127 3413 2483 3455 3428 2488 1949 1429 3407 3114 3343 2470 3439 3426 2691 3009 2282 3427 3019 3447 2694 3443 3437 2072 1851 1837 3454 2792 2261 2882 3444 3425 2832 1433 1942 3423 3096 2492 3112 3441 3431 2378 2178 2045 3421 2680 2597 3205 3408 3460 2419 2179 1631 3425 3463 2487 2768 3429 3454 1858 2179 1091 3429 3451 3010 3431 3427 3433 2503 1757 2065 3443 3452 2902 2849 3432 3429 2179 1965 2299 3456 2800 3437 2906 3468 3430 2157 1863 1760 3418 2699 3229 2997 3449 3423 2392 2288 2196 3424 2907 3461 3197 3441 3437 2165 2612 2390 3441 2701 3229 3406 3429 3422 2056 2693 2380 3418 3346 3326 3321 3430 3443 2483 2594 1212 3416 3406 3422 2783 3441 3433 2829 1430 2584 3440 2880 3122 3192 3430 3446 1742 2301 1972 3396 3422 3413 2384 3458 3439 2174 2075 2183 3449 2678 3465 2803 3463 3437 2910 2281 1302 3452 3467 3448 2823 3388 3437 3421 1752 1652 3421 3286 3408 2993 3401 3422 3440 1862 1529 3454 3455 2693 3439 3422 3399 2927 2050 1218 3475 3113 3238 2638 3421 3434 2942 2376 1654 3440 2471 3448 2879 3439 3429 2911 1736 1763 3464 3440 3304 3096 3445 3460 2614 2378 1727 3484 2902 3456 2602 3420 3469 2153 1321 2095 3466 3475 3451 2477 3466 3439 2176 2165 1872 3453 3209 3445 3293 3483 3447 2496 2064 2181 3465 3225 3443 3451 3414 3449 2735 2523 2138 3454 3408 2546 2231 3471 3419 2673 2050 1744 3445 3325 2686 2281 3472 3446 2485 2331 1748 3454 3093 2817 3397 3473 3439 2470 2266 1871 3442 2980 2571 2757 3455 3408 2706

Tree=0
num_leaves=18
num_cat=0
split_feature=1 1 2 7 2 0 2 1 0 0 7 2 1 1 1 1 1
split_gain=36.0524 57.5584 39.0076 82.7598 73.976 15.4797 9.93394 9.28393 15.5954 5.09474 3.29581 1.68889 4.35419 0.80689 3.74714 0.218582 3.96265
threshold=-0.48522571015112231 -0.91186460413232073 -1.0000000180025095e-35 -1.0000000180025095e-35 -1.1073709571732382 -0.61975523613930072 -1.1073709571732382 -0.59664866412722428 -0.68751500304386737 -0.48423570233016727 1.0000000180025095e-35 -1.1073709571732382 0.15356048983502324 -0.30845775584223861 -0.33131346107496001 -1.545522219005844 -1.4538924928842567
decision_type=2 2 2 2 2 2 2 2 2 2 2 2 2 2 2 2 2
left_child=1 9 3 4 -3 -6 -5 8 -8 15 -4 12 -2 14 -13 -1 -17
right_child=11 2 10 6 5 -7 7 -9 -10 -11 -12 13 -14 -15 -16 16 -18
leaf_value=-5.387198732647188 -5.3787541894833639 -3.8690770972010942 -5.38276765440534 -5.3804883802235217 -4.7579315937608753 -5.3678276169575758 -5.3596031932980424 -5.3654126930282029 -4.6395431041502331 -5.0929158622161133 -5.1591151377901561 -5.3851248965601668 -5.0726932173399808 -5.3894332037120884 -5.1532546980126792 -5.1591151377901561 -5.3868095708749166
leaf_weight=1.7842885563150053 0.37929487274959939 0.24574034009128809 0.62503521284088748 0.45942759234458219 0.18697634572163224 0.16560762049630295 0.106843626126647 0.14423889527097344 0.14958107657730579 0.11752798873931158 0.16560762049630284 0.96693481644615531 0.106843626126647 13.638588875066482 0.16026543918997116 0.16560762049630295 1.5438903975300489
leaf_count=334 71 46 117 86 35 31 20 27 28 22 31 181 20 2553 30 31 289
internal_value=-5.34254 -5.23755 -5.04193 -4.89275 -4.46473 -5.01785 -5.22525 -5.05753 -4.90113 -5.36117 -5.33062 -5.38293 -5.29702 -5.38608 -5.34512 -5.37433 -5.35867
internal_weight=21.1123 5.86037 2.24906 1.45842 0.598324 0.352584 0.860091 0.400664 0.256425 3.61131 0.790643 15.2519 0.486138 14.7658 1.1272 3.49379 1.7095
internal_count=3952 1097 421 273 112 66 161 75 48 676 148 2855 91 2764 211 654 320
is_linear=0
shrinkage=1


Tree=1
num_leaves=13
num_cat=0
split_feature=0 2 0 2 1 3 3 3 8 0 2 1
split_gain=24.2168 66.2984 88.1544 29.6867 47.2004 34.0016 1.40203 5.77069 1.39346 2.68638 1.87529 5.33635
threshold=-0.57458205820292285 -1.1073709571732382 -0.73268818098024524 -1.0000000180025095e-35 -0.65740498823396243 -0.55857082179982187 -0.41512732254175411 -0.45491983072925551 1.0000000180025095e-35 -0.41647593542560057 0.99358451857120511 -0.18228759201418859
decision_type=2 2 2 2 2 2 2 2 2 2 2 2
left_child=1 -1 -3 4 -4 -6 7 8 10 -10 -2 -12
right_child=6 2 3 -5 5 -7 -8 -9 9 -11 11 -13
leaf_value=-5.6755040209559002 -5.6759326057450883 -4.1389047122341971 -5.663610249749965 -5.6695706355013238 -4.607206478597921 -5.6450697190617261 -5.6768204621731941 -5.3278425033128238 -5.4317470453952339 -5.6625684757355534 -5.2955395325246641 -5.6649247757505554
leaf_weight=2.4349430045112972 3.1570018855854878 0.11232027038931836 0.29283499065786589 0.55357847549021322 0.27678923774510611 0.096274517476558796 8.0068307034671289 0.092263079248367741 0.15243465267121792 0.26876636128872622 0.080228764563798904 0.3289379347115754
leaf_count=607 787 28 73 138 69 24 1996 23 38 67 20 82
internal_value=-5.63026 -5.52028 -5.24339 -5.40192 -5.18889 -4.85075 -5.66466 -5.63994 -5.65147 -5.57187 -5.66227 -5.5691
internal_weight=15.8532 3.76674 1.3318 1.21948 0.665899 0.373064 12.0865 4.07963 3.98737 0.421201 3.56617 0.409167
internal_count=3952 939 332 304 166 93 3013 1017 994 105 889 102
is_linear=0
shrinkage=1


Tree=2
num_leaves=31
num_cat=0
split_feature=0 1 0 7 8 1 3 1 0 3 0 7 1 3 1 3 1 1 1 1 0 1 1 1 0 0 0 1 1 3
split_gain=168.916 130.951 63.4922 77.2627 89.0511 64.5324 60.0919 36.3533 18.7975 16.1977 13.8925 13.8368 16.736 10.5196 7.82606 7.03938 15.62 11.2598 6.47348 4.70277 4.60269 4.82008 11.5388 4.59971 4.47333 4.32531 7.08243 4.59813 3.68495 2.83324
threshold=-0.32612957955284499 -0.51717515855538609 -0.43906252439378951 1.0000000180025095e-35 2.9623770375726921 0.10522501418721676 -0.55857082179982187 -1.1146045502428195 -0.55199546923473397 0.54132677862243928 -0.59716864717111184 -1.0000000180025095e-35 -0.089358745534490511 -0.036981542908975956 -0.63829221407129377 -0.5840965091892435 -0.36129385469756092 -0.20190749055097404 -0.3519273573273059 -0.55083503265616063 -0.71010159201205625 -0.65740498823396243 -0.75951002124417621 -0.28437718660176697 -0.64234182510748961 -0.59716864717111184 -0.52940888026654509 -0.31837298486104409 -0.91186460413232073 -0.43045456876875182
decision_type=2 2 2 2 2 2 2 2 2 2 2 2 2 2 2 2 2 2 2 2 2 2 2 2 2 2 2 2 2 2
left_child=1 7 3 15 5 6 8 -1 -5 11 13 29 23 20 -12 17 -17 25 -10 -16 -9 22 24 -13 -22 -3 -27 -28 -26 -4
right_child=-2 2 9 4 -6 -7 -8 10 18 -11 14 12 -14 -15 19 16 -18 -19 -20 -21 21 -23 -24 -25 28 26 27 -29 -30 -31
leaf_value=-3.1153536768232271 -3.1179660026436888 -3.0764378914274748 -3.0342707865045746 -2.5460434935223706 -3.1200753724980101 -2.3658501731721753 -3.036566742419974 -3.0699330892705916 -2.8937043011257586 -3.1217305094985099 -3.1074592477583765 -3.0820182241623502 -2.8145436410155713 -2.8478076165885842 -2.9837779471717192 -2.8808210048861422 -3.0899433936479395 -2.8453845539541001 -2.7136986665524585 -3.0894728578427371 -3.0568565562607377 -3.0534343222995983 -2.8706329931624412 -2.9548374127368771 -2.8937043011257586 -2.8706974101582019 -3.0670208849173206 -2.9428279309455294 -3.0221608657375714 -3.1191298369505334
leaf_weight=26.628522656857967 109.48381434381008 1.0888986960053415 4.4545855745673171 1.6828434392809857 1.5838526487350462 1.1383940912783144 1.6828434392809875 2.7717421352863303 1.0394033007323735 3.6626592501997939 6.6818783618509769 1.286880277097225 1.7323388345539559 1.0394033007323766 2.8212375305593014 1.1878894865512846 3.1182099021971244 1.9303204156458376 1.7818342298269279 1.5838526487350444 2.9697237163782098 2.8212375305593023 1.9303204156458376 1.435366462916136 1.0394033007323744 1.3363756723701929 1.7323388345539545 1.3363756723702009 1.4353664629161351 1.1878894865512846
leaf_count=538 2212 22 90 34 32 23 34 56 21 74 135 26 35 21 57 24 63 39 36 32 60 57 39 29 21 27 35 27 29 24
internal_value=-3.07675 -3.02439 -2.94887 -2.89346 -2.78262 -2.70951 -2.77834 -3.07475 -2.6839 -3.03253 -3.03157 -2.99986 -2.93437 -2.99855 -3.07366 -2.97874 -3.03125 -2.94913 -2.77481 -3.02206 -3.01166 -2.99617 -2.9749 -3.01488 -3.01386 -2.98778 -2.96595 -3.01086 -2.96467 -3.05279
internal_weight=195.606 86.122 34.3993 20.6396 8.90917 7.32532 6.18692 51.7227 4.50408 13.7597 25.0942 10.0971 4.45459 14.0072 11.087 11.7304 4.3061 7.42431 2.82124 4.40509 12.9678 10.1961 7.37481 2.72225 5.44449 5.49399 4.40509 3.06871 2.47477 5.64248
internal_count=3952 1740 695 417 180 148 125 1045 91 278 507 204 90 283 224 237 87 150 57 89 262 206 149 55 110 111 89 62 50 114
is_linear=0
shrinkage=1


Tree=3
num_leaves=10
num_cat=0
split_feature=2 1 7 0 0 1 1 1 1
split_gain=3248.62 6.96205 21.3664 3.65886 2.24993 0.40567 1.56589 0.0485768 0.0699417
threshold=-1.1073709571732382 -0.98387872229067785 1.0000000180025095e-35 -0.57458205820292285 -0.37130275748922276 -0.93032437220068265 -1.0301725734166933 -0.033927031210821156 -0.048346765150309536
decision_type=2 2 2 2 2 2 2 2 2
left_child=1 -1 3 -3 -5 6 -2 8 -7
right_child=5 2 -4 4 -6 7 -8 -9 -10
leaf_value=-1.3913538758245574 -1.6644903419673953 -1.496497639548092 -1.3910813339689503 -1.4132136609167381 -1.4695622497773706 -1.6630558101830553 -1.6262708297394162 -1.6649799376629573 -1.6505606268485655
leaf_weight=99.900003969669342 10.440000414848326 6.4800002574920681 29.340001165866852 4.3200001716613778 5.5800002217292759 157.5000062584877 3.9600001573562613 390.06001549959183 3.7800001502037039
leaf_count=555 58 36 163 24 31 875 22 2167 21
internal_value=-1.60988 -1.39932 -1.41701 -1.46412 -1.44386 -1.6641 -1.65425 -1.66435 -1.66279
internal_weight=711.36 145.62 45.72 16.38 9.9 565.74 14.4 551.34 161.28
internal_count=3952 809 254 91 55 3143 80 3063 896
is_linear=0
shrinkage=1


Tree=4
num_leaves=23
num_cat=0
split_feature=3 4 0 2 3 2 1 1 7 7 0 1 0 9 1 9 3 0 1 3 1 1
split_gain=73.5975 259.687 13.4966 5.20068 19.8851 8.72277 25.0464 28.0308 20.9563 4.22917 7.31945 13.5794 1.48351 4.00918 7.76739 0.672177 5.82304 8.86902 1.25003 14.7684 0.153238 2.83144
threshold=1.5723443621969313 1.0000000180025095e-35 -0.23578322368008939 1.0000000180025095e-35 0.60923277393515374 -1.1073709571732382 -0.63829221407129377 -0.91186460413232073 -1.0000000180025095e-35 1.0000000180025095e-35 -0.50682229129835621 -0.43467246468155024 -0.55199546923473397 1.0000000180025095e-35 -0.62380502646507174 1.0000000180025095e-35 0.74303709874194879 0.19336196671549985 0.68504982537527404 -0.36406480516231104 -1.1146045502428195 -1.0301725734166933
decision_type=2 2 2 2 2 2 2 2 2 2 2 2 2 2 2 2 2 2 2 2 2 2
left_child=3 2 -2 4 5 20 7 -7 -9 10 11 -8 13 14 -5 -14 18 -18 -17 -20 -1 -22
right_child=1 -3 -4 12 -6 6 9 8 -10 -11 -12 -13 15 -15 -16 16 17 -19 19 -21 21 -23
leaf_value=-4.8058244279208866 -4.3924251159744303 -3.0738583102465773 -4.8027680696525552 -4.7947462875942923 -4.3851417120253249 -4.7979617150471823 -4.7941318453407495 -4.6628699966428604 -4.0798628743177208 -4.8052500658956525 -4.8009694619814232 -4.3482011997770735 -4.8063601131597897 -4.8028005440357422 -4.4491041765821562 -4.806182204191634 -4.4082146658010668 -4.7941318453407495 -4.3924251159744312 -4.8046708918274552 -4.6450144287486985 -4.8048772780457831
leaf_weight=4.7961456188932052 0.19070161506533612 0.23837701883167017 1.1251395288854826 0.34326290711760521 0.30512258410453874 0.48628911841660738 0.32419274561107159 0.29558750335127115 0.36233306862413861 3.0035504372790456 0.76280646026134202 0.27651734184473753 10.660220282152299 1.1346746096387506 0.22884193807840225 7.5899242796003801 0.20023669581860382 0.32419274561107159 0.19070161506533656 2.173998411744833 0.25744718033820424 2.4123754305765033
leaf_count=503 20 25 118 36 32 51 34 31 38 315 80 29 1118 119 24 796 21 34 20 228 27 253
internal_value=-4.76427 -4.43295 -4.73378 -4.77903 -4.75432 -4.76422 -4.71694 -4.51394 -4.31276 -4.77177 -4.70087 -4.57668 -4.79349 -4.75003 -4.64647 -4.79714 -4.78736 -4.63317 -4.79633 -4.76343 -4.79952 -4.78668
internal_weight=37.6826 1.55422 1.31584 36.1284 13.2824 12.9772 5.51128 1.14421 0.657921 4.36707 1.36352 0.60071 22.8461 1.70678 0.572105 21.1393 10.4791 0.524429 9.95462 2.3647 7.46597 2.66982
internal_count=3952 163 138 3789 1393 1361 578 120 69 458 143 63 2396 179 60 2217 1099 55 1044 248 783 280
is_linear=0
shrinkage=1


Tree=5
num_leaves=23
num_cat=0
split_feature=4 9 2 3 9 2 2 3 1 1 4 9 1 1 1 2 3 1 1 1 1 3
split_gain=2271.37 722.455 67.9679 25.8489 87.0999 38.5813 67.2936 9.54892 5.73398 4.21792 3.80319 2.50849 4.32552 9.27822 9.58935 0.974737 0.492192 0.285342 0.226841 0.309199 0.219986 0.113436
threshold=0.32746744198025463 1.0000000180025095e-35 1.0000000180025095e-35 0.39618825336297397 1.0000000180025095e-35 1.0000000180025095e-35 0.99358451857120511 1.3678882771435061 0.3765207348765231 0.65802314502013581 1.2349221230733061 1.0000000180025095e-35 -0.28437718660176697 0.59082906856429529 0.22616311657786689 -1.1073709571732382 -0.65177336330804392 -0.59664866412722428 -0.11519645765504026 -0.20190749055097404 -0.52930242614747536 0.24060405660422243
decision_type=2 2 2 2 2 2 2 2 2 2 2 2 2 2 2 2 2 2 2 2 2 2
left_child=3 2 -2 11 5 8 9 10 -5 -7 -4 12 17 14 15 -14 18 -1 19 -17 -19 -15
right_child=1 -3 7 4 -6 6 -8 -9 -10 -11 -12 -13 13 21 -16 16 -18 20 -20 -21 -22 -23
leaf_value=-1.5986515244792405 -1.5476664193636671 -1.598552402853108 -1.4135294257381632 -1.522388281391212 -1.5986184349909778 -1.4160232824551982 -1.5975481096571205 -1.3348605974972749 -1.5977463889935564 -1.3435710736295514 -1.3528994099503824 -1.5986894458220933 -1.5973190366335068 -1.5985687016784951 -1.4980102210115738 -1.5775099635569463 -1.5555385736993865 -1.579683121045198 -1.5801593030038019 -1.5593183122334986 -1.594040259220229 -1.5842761766220772
leaf_weight=93.263647109270096 3.9726908504962912 34.05163586139679 6.4319756627082807 4.540218114852907 59.022835493087769 3.7835150957107526 4.5402181148529044 137.71994948387146 5.4860968887805939 6.8103271722793579 6.053624153137207 277.89918377995491 3.7835150957107571 38.024326711893082 4.9185696244239798 4.9185696244239852 5.8644483983516684 5.4860968887805965 8.3237332105636579 6.4319756627082834 22.511914819478989 3.7835150957107535
leaf_count=493 21 180 34 24 312 20 24 728 29 36 32 1469 20 201 26 26 31 29 44 34 119 20
internal_value=-1.54046 -1.39024 -1.34421 -1.59101 -1.5654 -1.48763 -1.43733 -1.33882 -1.56345 -1.3685 -1.3833 -1.59554 -1.59108 -1.58156 -1.5621 -1.57299 -1.56919 -1.59702 -1.57309 -1.56754 -1.59139 -1.59739
internal_weight=747.623 188.23 154.178 559.393 84.1832 25.1604 15.1341 150.206 10.0263 10.5938 12.4856 475.209 197.31 76.0487 34.2408 29.3222 25.5387 121.262 19.6743 11.3505 27.998 41.8078
internal_count=3952 995 815 2957 445 133 80 794 53 56 66 2512 1043 402 181 155 135 641 104 60 148 221
is_linear=0
shrinkage=1


Tree=6
num_leaves=31
num_cat=0
split_feature=7 9 0 2 0 0 0 0 2 0 0 0 0 9 2 0 0 0 2 0 0 0 0 0 0 0 0 0 0 0
split_gain=106.537 172.091 142.416 201.646 25.3123 36.5927 21.5607 229.731 6.31691 6.219 9.44484 8.46685 4.44105 9.10874 25.3311 8.42073 3.55271 5.51582 3.31537 3.26839 1.34452 1.0141 0.898849 0.497339 0.437057 0.883655 0.279753 2.57175 1.11577 0.190154
threshold=1.0000000180025095e-35 1.0000000180025095e-35 -0.41647593542560057 -1.0000000180025095e-35 -0.55199546923473397 -0.57458205820292285 0.64509374607927805 0.55474739020652242 0.99358451857120511 -0.14543686780733375 -0.37130275748922276 0.23853514465187767 -0.055090511934578139 1.0000000180025095e-35 -1.1073709571732382 -0.30354299058465606 1.0000000180025095e-35 0.12560219981093312 0.99358451857120511 -0.61975523613930072 -0.28095640161646712 -0.34871616852103388 0.96130599163392272 -0.57458205820292285 -0.46164911336197839 -0.59716864717111184 -0.52940888026654509 -0.61975523613930072 -0.59716864717111184 0.35146808949282221
decision_type=2 2 2 2 2 2 2 2 2 2 2 2 2 2 2 2 2 2 2 2 2 2 2 2 2 2 2 2 2 2
left_child=1 26 3 23 5 19 7 8 9 10 -4 16 13 14 -2 24 -11 -18 -15 -5 21 -12 -8 -3 25 -16 27 -1 -29 -13
right_child=12 2 6 4 -6 -7 22 -9 -10 11 20 29 -14 18 15 -17 17 -19 -20 -21 -22 -23 -24 -25 -26 -27 -28 28 -30 -31
leaf_value=-3.2607676458897612 -3.2606702797690827 -3.2477859996561658 -3.1145862073150985 -2.9746759391590007 -2.9283494500095317 -2.5721452297472709 -3.2093561513465416 -2.4832125678339838 -3.2595330027737028 -3.1519003265676089 -3.2564156190270381 -3.1949683392460764 -3.2611175240018873 -3.2577740612680537 -3.1464555943005017 -3.0065869089261725 -2.9625970218285933 -3.1339776947346891 -3.1697009254790269 -2.826847234876146 -3.2597723173448774 -3.1962146127634221 -3.2603450704422179 -3.2093561513465416 -3.1337589004691999 -3.2008816308338872 -3.2609632073715829 -3.1659121392887166 -3.2304955699547091 -3.2178522268848968
leaf_weight=10.797781527042387 8.8463752269744855 4.0329063534736633 1.9947708845138574 1.1708437800407407 5.507302224636077 1.6912187933921803 0.91065627336501975 1.1708437800407399 2.8186979889869681 1.7779479622840928 0.95402085781097445 2.2115938067436223 51.170209646224976 30.441938281059269 1.6912187933921812 1.1274791955947865 0.95402085781097445 1.1274791955947874 1.0407500267028797 1.5611250400543215 3.2957084178924538 2.2549583911895783 5.5073022246360779 0.91065627336501975 1.5177604556083681 1.6044896245002744 19.340604662895203 0.99738544225692782 1.7345833778381337 1.2142083644866941
leaf_count=249 204 93 46 27 127 39 21 27 65 41 22 51 1180 702 39 26 22 26 24 36 76 52 127 21 35 37 446 23 40 28
internal_value=-3.21656 -3.17133 -3.10313 -2.9798 -2.85043 -2.75826 -3.17357 -3.14772 -3.19153 -3.17913 -3.2086 -3.14536 -3.2509 -3.23952 -3.20731 -3.12771 -3.09499 -3.05018 -3.25472 -2.88385 -3.23759 -3.21491 -3.25274 -3.24022 -3.15844 -3.1716 -3.25651 -3.24981 -3.20736 -3.20372
internal_weight=171.377 73.9366 41.0663 14.8741 9.93049 4.42319 26.1922 19.7743 18.6034 15.7847 8.49946 7.28525 97.4402 46.27 14.7873 5.94095 3.85945 2.0815 31.4827 2.73197 6.50469 3.20898 6.41796 4.94356 4.81347 3.29571 32.8704 13.5298 2.73197 3.4258
internal_count=3952 1705 947 343 229 102 604 456 429 364 196 168 2247 1067 341 137 89 48 726 63 150 74 148 114 111 76 758 312 63 79
is_linear=0
shrinkage=1


Tree=7
num_leaves=31
num_cat=0
split_feature=2 3 0 0 0 8 2 0 4 1 3 1 1 1 0 1 3 1 0 1 3 1 2 3 8 3 1 1 0 4
split_gain=812.869 973.595 223.987 121.824 47.7285 32.5564 29.8695 26.9943 93.9666 19.9185 17.4269 15.4143 9.63712 8.35981 8.40622 9.90308 6.8366 5.53722 5.55887 5.50119 5.1047 11.999 3.91543 3.5923 4.58562 3.59156 3.38964 4.54017 2.96913 2.75378
threshold=-1.1073709571732382 1.3084645464532141 0.14818878877912203 -0.39388934645741169 0.057842432906366377 2.9623770375726921 0.99358451857120511 0.69026692401565581 0.32746744198025463 0.52821653909802146 0.66376327753877196 0.65802314502013581 -1.1603749444819103 0.11292368764066345 -0.55199546923473397 -0.36129385469756092 2.0685150015824987 -0.42341725627691434 -0.41647593542560057 -0.67894201587870084 0.39618825336297397 0.97078877597254609 0.99358451857120511 -0.13094562147854413 1.0000000180025095e-35 -0.62976891543107527 -0.48522571015112231 -0.44222824110942527 -0.48423570233016727 1.2349221230733061
decision_type=2 2 2 2 2 2 2 2 2 2 2 2 2 2 2 2 2 2 2 2 2 2 2 2 2 2 2 2 2 2
left_child=-1 3 4 5 16 12 -4 8 10 -10 22 -12 -2 14 15 19 -3 -16 25 -14 -9 -22 23 24 -5 -19 -21 -28 -27 -11
right_child=1 2 6 7 -6 -7 -8 20 9 29 11 -13 13 -15 17 -17 -18 18 -20 26 21 -23 -24 -25 -26 28 27 -29 -30 -31
leaf_value=-0.82492364070745283 -0.66259430698942912 -0.68338240756115343 -0.65653202605715177 -0.67772020121762444 -0.82492117438170975 -0.65248652119958117 -0.76719928373739577 -0.64767443012511894 -0.69221127795747972 -0.77847039855481159 -0.6732432032911011 -0.78844596530374877 -0.73908316231609195 -0.76680485564385903 -0.6919425786405341 -0.7644521572657007 -0.75764452811493888 -0.7332554975953498 -0.67931953366916409 -0.70163864783619445 -0.73245077356543742 -0.65266091803934134 -0.65100762830928505 -0.65879104213034512 -0.64729183587618477 -0.72213168029738983 -0.76493383527241421 -0.70673558410133863 -0.67864786434018953 -0.81885896250520573
leaf_weight=227.05550992488861 6.735886573791503 5.6132388114929181 26.382222414016724 113.38742399215698 209.65446960926056 18.804350018501282 7.858534336090087 122.92992997169495 5.6132388114929226 8.7005201578140259 5.8939007520675641 5.6132388114929199 31.995461225509644 10.3844918012619 28.908179879188538 18.24302613735199 6.7358865737915039 37.047376155853271 7.858534336090087 28.346855998039242 6.4552246332168606 18.24302613735199 37.328038096427917 58.939007520675659 14.59442090988159 10.66515374183655 5.8939007520675659 7.5778723955154437 6.455224633216857 9.2618440389633179
leaf_count=809 24 20 94 404 747 67 28 438 20 31 21 20 114 37 103 65 24 132 28 101 23 65 133 210 52 38 21 27 23 33
internal_value=-0.740564 -0.718849 -0.800931 -0.685238 -0.819294 -0.715339 -0.682007 -0.669056 -0.67883 -0.773875 -0.66931 -0.729623 -0.721279 -0.723355 -0.720869 -0.731565 -0.723999 -0.710079 -0.718604 -0.723392 -0.65193 -0.673357 -0.666229 -0.669305 -0.674196 -0.724401 -0.711461 -0.73238 -0.70546 -0.799596
internal_weight=1109.18 882.12 256.244 625.876 222.004 218.916 34.2408 406.96 259.332 23.5756 235.756 11.5071 200.112 193.376 182.992 92.0571 12.3491 90.9345 62.0263 73.8141 147.628 24.6983 224.249 186.921 127.982 54.1678 41.8186 13.4718 17.1204 17.9624
internal_count=3952 3143 913 2230 791 780 122 1450 924 84 840 41 713 689 652 328 44 324 221 263 526 88 799 666 456 193 149 48 61 64
is_linear=0
shrinkage=1


Tree=8
num_leaves=16
num_cat=0
split_feature=0 1 0 2 2 1 0 1 7 1 0 1 1 1 1
split_gain=25.805 74.1593 101.4 37.7641 29.7717 89.1084 12.0427 27.6787 8.02648 8.29909 2.1838 3.13026 0.478353 2.74354 0.0714699
threshold=-0.64234182510748961 -1.1146045502428195 -0.71010159201205625 -1.1073709571732382 -1.1073709571732382 1.0000000180025095e-35 -0.41647593542560057 -0.58911931177819266 1.0000000180025095e-35 -0.87801064777464344 -0.61975523613930072 -0.58911931177819266 -1.6320587946431824 -1.545522219005844 -0.70297770343426647
decision_type=2 2 2 2 2 2 2 2 2 2 2 2 2 2 2
left_child=1 12 3 -3 5 6 -2 -8 -4 -10 11 -6 -1 -14 -11
right_child=4 2 8 -5 10 -7 7 -9 9 14 -12 -13 13 -15 -16
leaf_value=-5.1981401531277625 -5.1967523399947115 -4.8014964364723358 -5.19170857019928 -3.7507115208220787 -5.1848763740135837 -4.0182200227837477 -4.4455632596160362 -5.1876436438803619 -5.1794535340179335 -4.6807790506805986 -5.1976864792570456 -4.9226911043094779 -5.015868098414562 -5.1958059421318801 -4.9651125821644895
leaf_weight=1.8894657162018118 1.1865586750209329 0.19990934198722243 0.48365163384005672 0.22570409579202533 0.25149884959682822 0.16121721128001798 0.14831983437761664 0.31598573410884156 0.17411458818241954 0.14187114592641592 18.855965031310909 0.12897376902402058 0.2192554073408246 0.94150851387530587 0.16121721128001809
leaf_count=293 184 31 75 35 39 25 23 49 27 22 2924 20 34 146 25
internal_value=-5.1536 -5.04462 -4.74827 -4.14986 -5.17666 -4.98591 -5.11255 -4.90944 -5.05245 -4.91656 -5.19515 -5.08505 -5.18293 -5.15588 -4.77651
internal_weight=25.4852 4.4367 1.38647 0.425613 21.0485 1.81208 1.65086 0.464306 0.960855 0.477203 19.2364 0.380473 3.05023 1.16076 0.303088
internal_count=3952 688 215 66 3264 281 256 72 149 74 2983 59 473 180 47
is_linear=0
shrinkage=1


Tree=9
num_leaves=17
num_cat=0
split_feature=1 4 2 0 0 1 1 2 1 0 1 9 2 1 1 1
split_gain=28.1615 281.776 9.83876 9.0158 16.0837 15.643 8.45298 1.60817 3.54198 1.30497 7.22983 4.42419 1.01561 2.16847 0.810134 3.09616
threshold=-0.48522571015112231 1.0000000180025095e-35 -1.1073709571732382 -0.61975523613930072 -0.68751500304386737 -0.86084676710974595 -0.63829221407129377 -1.1073709571732382 0.16934584606759959 -0.777861358916623 -1.545522219005844 1.0000000180025095e-35 -1.0000000180025095e-35 -0.61410145384549486 -0.30845775584223861 -0.33131346107496001
decision_type=2 2 2 2 2 2 2 2 2 2 2 2 2 2 2 2
left_child=1 2 9 4 -4 -6 -7 8 -2 10 -1 -12 13 -5 15 -9
right_child=7 -3 3 12 5 6 -8 14 -10 -11 11 -13 -14 -15 -16 -17
leaf_value=-0.041320138703269213 -0.033521968748336989 1.7140986872166004 -0.035074572904769064 -0.029667391172759617 -0.026095462866214419 0.61194586416562979 0.14758071229733946 -0.039790520937251772 0.22805349789344309 -0.043136193145443175 0.3085370086154805 -0.018761334718801578 -0.037909342472051272 0.16960494803753623 -0.044283104864860701 0.15953642419696529
leaf_weight=1.3712353608570991 0.37519030831754463 0.20563423307612527 0.44205880304798484 0.26375738717615604 0.20473690796643496 0.33026732038706541 0.20862643886357568 0.92423656303435564 0.13233288563787937 2.6707246634177864 0.23222454451024521 0.13271126803010702 0.65115416888147837 0.18209513323381543 12.959562072530382 0.19351463485509224
leaf_count=266 72 12 75 37 37 40 32 181 19 386 33 24 122 33 2553 30
internal_value=0.00174144 0.084761 0.0219601 0.105218 0.197837 0.33293 0.464212 -0.0374921 0.0445335 -0.0213015 0.0111541 0.19557 0 0.0555732 -0.0407735 0
internal_weight=21.4801 6.89523 6.68959 2.2827 1.18569 0.743631 0.538894 14.5848 0.507523 4.4069 1.73617 0.364936 1.09701 0.445853 14.0773 1.11775
internal_count=3952 1097 1085 376 184 109 72 2855 91 709 323 57 192 70 2764 211
is_linear=0
shrinkage=0.05


Tree=10
num_leaves=16
num_cat=0
split_feature=0 1 0 1 1 1 1 1 1 3 3 1 0 1 1
split_gain=18.3244 24.7581 31.361 15.5293 9.89343 12.1072 10.6407 1.54037 10.7316 1.41743 4.48094 1.10527 5.99821 1.50842 3.96568
threshold=-0.57458205820292285 -1.1285739006611903 -0.75527476994843412 -0.65740498823396243 -0.3519273573273059 -0.44222824110942527 -0.53762846156140898 -0.61410145384549486 -0.58911931177819266 -0.41512732254175411 -0.45491983072925551 -0.22955617918114229 -0.16802345677552263 -0.33857063366930135 -0.31837298486104409
decision_type=2 2 2 2 2 2 2 2 2 2 2 2 2 2 2
left_child=1 -1 -3 -4 5 6 7 -5 -9 10 11 12 13 -2 -15
right_child=9 2 3 4 -6 -7 -8 8 -10 -11 -12 -13 -14 14 -16
leaf_value=-0.042329955938750677 -0.041072505258799095 0.61334968881808793 -0.039803946090107532 0.48159286860493272 -0.030046063271689651 0.64248282817897306 -0.031794120443744849 -0.026690274062994953 0.47337342733699694 -0.043979315327074539 0.24095844469139763 -0.042386352785396784 0.33817737726416519 0.26734804203798979 -0.031230748137728859
leaf_weight=2.0099664286244661 1.289829582441598 0.32938092923723195 0.92076281504705604 0.13948891265317798 0.27168558957055433 0.1678810368757695 0.31379114836454391 0.21164159849286079 0.14248952409252524 7.6164661319926354 0.12412400636822063 2.0890943079721183 0.079917609225959363 0.10941170272417367 0.30373133555985976
leaf_count=499 327 43 210 23 42 27 44 29 22 1996 23 544 20 26 77
internal_value=0.00173775 0.0868977 0.190685 0.112955 0.224866 0.296317 0.188155 0.322638 0.202004 -0.0313311 -0.00636058 -0.0178971 0.00980754 -0.0133824 0.0627692
internal_weight=16.1197 4.50709 2.49712 2.16774 1.24698 0.975292 0.807411 0.49362 0.354131 11.6126 3.99611 3.87198 1.78289 1.70297 0.413143
internal_count=3952 939 440 397 187 145 118 74 51 3013 1017 994 450 430 103
is_linear=0
shrinkage=0.05


Tree=11
num_leaves=31
num_cat=0
split_feature=0 2 9 3 8 3 1 3 8 1 0 3 2 1 0 1 1 1 1 0 0 1 0 1 1 2 0 1 1 1
split_gain=149.993 167.62 32.0299 25.8148 95.8868 32.6415 18.032 26.5863 12.7253 8.6342 6.72088 6.59718 6.2697 9.96944 9.44461 7.60596 5.76475 5.08225 4.73042 4.63327 4.94736 3.90323 3.73302 8.59066 7.23006 7.67803 6.15429 3.67148 10.7369 4.67674
threshold=-0.32612957955284499 -1.1073709571732382 1.0000000180025095e-35 0.2123159916222653 1.0000000180025095e-35 1.0603774470833731 -0.61410145384549486 -0.43045456876875182 2.9623770375726921 -0.11519645765504026 -0.39388934645741169 -0.3052963509084678 1.0000000180025095e-35 -0.4613996359623681 -0.57458205820292285 -0.33857063366930135 -1.0016138311835117 -0.8204008028670996 0.06479694367003215 -0.43906252439378951 -0.46164911336197839 -0.43467246468155024 -0.59716864717111184 -0.57348066783064333 -0.58911931177819266 1.0000000180025095e-35 -0.71010159201205625 -0.18228759201418859 -0.33131346107496001 -0.44699389941602058
decision_type=2 2 2 2 2 2 2 2 2 2 2 2 2 2 2 2 2 2 2 2 2 2 2 2 2 2 2 2 2 2
left_child=1 21 6 8 5 -5 16 9 11 10 12 18 13 -8 -15 -14 -3 -18 19 20 22 -1 24 -24 25 26 -4 28 29 -25
right_child=-2 2 3 4 -6 -7 7 -9 -10 -11 -12 -13 15 14 -16 -17 17 -19 -20 -21 -22 -23 23 27 -26 -27 -28 -29 -30 -31
leaf_value=-0.039315797757955531 -0.041183579418231038 -0.006888338302611487 0.093017212687027992 -0.045317536024634231 0.39856585352925594 0.2594617409556022 0.056204643564978875 -0.0088781792099770947 -0.044902729296936991 0.3532881946735561 0.079856177039918264 -0.00025629985675871923 0.33675906514005349 0.30945434003153605 0.11134505079027131 0.18304224000006972 0.19839408067055841 0.071805281325178619 0.16578808238283185 0.029507660645123581 0.16713055795584267 0.035161619509439988 -0.04396296797036299 0.094979206557202447 0.013468716719698522 0.048912465539395981 0.26519374824334674 0.009745550397989881 0.19443449136030649 -0.015322343148313501
leaf_weight=35.054317329078913 104.55007346719503 1.3306949250400064 1.0234546996653082 3.7384809404611579 2.6362840794026852 1.0919882804155348 1.4053231477737398 1.3964579142630071 2.8335829116404048 1.1982351057231433 1.1339678987860669 3.275809787213805 2.0335303172469144 1.4897359609603857 1.2107472345232997 1.9045333117246626 1.1734727695584291 2.9002342596650155 1.356715753674506 5.8496983423829105 1.5830573998391599 1.779115643352269 1.805494792759428 2.0651462301611989 1.5983245857060051 1.5149247571825983 1.3917912282049654 1.6960482411086371 1.8127358667552469 1.6772395409643652
leaf_count=716 2212 27 21 77 37 20 27 27 58 20 22 62 35 22 20 32 23 55 22 112 27 34 37 39 28 28 26 26 31 29
internal_value=-0.000330565 0.046595 0.102561 0.0760304 0.159015 0.0250217 0.159101 0.193973 0.0546964 0.221425 0.202118 0.0654441 0.218445 0.169318 0.225181 0.266272 0.0815967 0.11084 0.0747392 0.0686527 0.0825267 -0.0356078 0.0726334 0.051836 0.105485 0.141639 0.196615 0.0761694 0.0957356 0.0453355
internal_weight=195.511 90.9611 54.1277 36.9508 7.46675 4.83047 17.1769 11.7725 29.484 10.3761 9.17784 26.6504 8.04387 4.10581 2.70048 3.93806 5.4044 4.07371 23.3746 22.0179 16.1682 36.8334 14.5852 9.05666 5.5285 3.93017 2.41525 7.25117 5.55512 3.74239
internal_count=3952 1740 990 680 134 97 310 205 546 178 158 488 136 69 42 67 105 78 426 404 292 750 265 162 103 75 47 125 99 68
is_linear=0
shrinkage=0.05


Tree=12
num_leaves=10
num_cat=0
split_feature=2 1 1 0 0 0 1 1 3
split_gain=2562.61 3.63404 1.36308 0.7609 0.761285 0.828235 0.411244 1.52708 0.0997219
threshold=-1.1073709571732382 -1.2385345440977356 1.0000000180025095e-35 -0.57458205820292285 -0.61975523613930072 -0.66492841407567849 -0.93032437220068265 -1.0301725734166933 -0.86283588611794582
decision_type=2 2 2 2 2 2 2 2 2
left_child=1 -1 3 4 5 -3 7 -2 -8
right_child=6 2 -4 -5 -6 -7 8 -9 -10
leaf_value=0.17638399508792174 -0.054223236448672732 0.1505701094384734 0.12813995239442905 0.16958812265427001 0.13372169709178641 0.17513875635523166 -0.05215694229104631 -0.016056081865829862 -0.054720869657013865
leaf_weight=92.032311677932739 9.9650900661945325 19.763879045844078 5.0531406104564658 35.161531671881676 7.2277298271656027 10.418674156069757 136.82760347425938 3.9054142683744422 389.22757633030415
leaf_count=436 58 95 25 168 35 50 796 22 2267
internal_value=-0.000539047 0.168937 0.159967 0.162059 0.154698 0.159409 -0.0538076 -0.0437527 -0.0540638
internal_weight=709.583 169.657 77.625 72.5718 37.4103 30.1826 539.926 13.8705 526.055
internal_count=3952 809 373 348 180 145 3143 80 3063
is_linear=0
shrinkage=0.05


Tree=13
num_leaves=24
num_cat=0
split_feature=3 4 9 2 3 2 0 8 3 0 0 0 0 0 9 0 9 3 0 4 0 0 0
split_gain=39.5242 50.5329 11.7386 4.85876 13.1311 7.88148 13.0567 8.34011 5.27883 1.46903 3.75162 2.03383 5.63965 1.42554 3.3636 5.12128 0.696755 4.99603 5.70005 2.40149 14.6078 0.100734 2.59152
threshold=1.5723443621969313 0.32746744198025463 1.0000000180025095e-35 1.0000000180025095e-35 0.60923277393515374 -1.1073709571732382 -0.43906252439378951 1.7319565727927195 -0.45491983072925551 -0.52940888026654509 -0.57458205820292285 -0.61975523613930072 -0.68751500304386737 -0.55199546923473397 1.0000000180025095e-35 -0.61975523613930072 1.0000000180025095e-35 0.74303709874194879 0.19336196671549985 0.32746744198025463 0.87095963576116708 -0.68751500304386737 -0.66492841407567849
decision_type=2 2 2 2 2 2 2 2 2 2 2 2 2 2 2 2 2 2 2 2 2 2 2
left_child=3 2 -2 4 5 21 7 8 9 10 11 12 -7 14 15 -5 -15 19 -19 -18 -21 -1 -23
right_child=1 -3 -4 13 -6 6 -8 -9 -10 -11 -12 -13 -14 16 -16 -17 17 18 -20 20 -22 22 -24
leaf_value=-0.043707144386199992 0.31152904035290768 0.47320612657578875 -0.041849849853402114 -0.032436227728927153 0.26145678335861522 0.25071395199323826 -0.042984016754808244 -0.038744420339687023 -0.031909703498088783 0.27187811112704896 -0.028145342573724114 0.27130423096644052 0.023445256679644519 -0.044347572313828007 -0.040632250528361009 0.22967123237822362 -0.044230886549756022 0.25467097324087756 -0.031823132243542412 0.39488372332554106 -0.040995828020135947 0.10254579533870067 -0.04309973120283115
leaf_weight=4.2299395175650707 0.2296523964032523 0.91170138493180264 1.4024335350841284 0.33180837985128164 0.43864989280700761 0.45646257046610172 2.546248406171796 0.71966170333325852 0.31434414722025383 0.42271671071648631 0.23279363848268975 0.42354149650782336 0.67750773299485456 10.189587170258168 1.0845541125163436 0.31324705947190401 8.1480433205142599 0.28287460748106319 0.31485929246991873 0.17681251931935449 1.1886949604377148 0.28753867931664023 2.7111681010574102
leaf_count=459 19 19 125 33 32 40 281 68 28 40 21 39 61 1118 119 27 899 21 34 17 128 31 293
internal_value=-0.00274568 0.185605 0.0141703 -0.016558 0.00694498 -0.0024044 0.0406495 0.106649 0.148967 0.175902 0.145111 0.172632 0.123765 -0.0310146 0.0112067 0.0986151 -0.0347534 -0.0246682 0.109092 -0.0338602 0.0256327 -0.0372949 -0.0268614
internal_weight=38.0348 2.54379 1.63209 35.4911 13.4606 13.0219 5.79328 3.24703 2.52737 2.21302 1.79031 1.55751 1.13397 22.0305 1.72961 0.645055 20.3009 10.1113 0.597734 9.51355 1.36551 7.22865 2.99871
internal_count=3952 163 144 3789 1393 1361 578 297 229 201 161 140 101 2396 179 60 2217 1099 55 1044 145 783 324
is_linear=0
shrinkage=0.05


Tree=14
num_leaves=25
num_cat=0
split_feature=3 9 2 9 1 0 2 1 0 3 1 1 0 1 3 1 0 0 1 1 1 1 0 3
split_gain=1761.58 462.287 81.5753 38.4047 68.4216 87.2805 43.4364 50.3666 11.3989 10.4716 14.7357 7.02949 4.36651 2.97895 2.19358 0.915947 0.5409 1.75799 0.528166 0.335222 0.807931 0.325889 0.139454 0.0840588
threshold=1.2468630113028303 1.0000000180025095e-35 1.0000000180025095e-35 1.0000000180025095e-35 -0.067185559786591506 0.69026692401565581 1.0000000180025095e-35 0.22616311657786689 0.21594855568368873 0.39618825336297397 1.0016632712437981 0.52821653909802146 -0.23578322368008939 -0.28437718660176697 0.1990037268770137 0.62455996887923859 -0.28095640161646712 -0.39388934645741169 -0.59664866412722428 -0.39314976237969379 -0.44222824110942527 -0.52930242614747536 -0.50682229129835621 0.22730279787357319
decision_type=2 2 2 2 2 2 2 2 2 2 2 2 2 2 2 2 2 2 2 2 2 2 2 2
left_child=3 2 -2 4 13 6 8 12 -6 23 -11 -9 -8 18 -13 -4 17 22 -1 20 21 -20 -15 -7
right_child=1 -3 15 -5 5 9 7 11 -10 10 -12 14 -14 16 -16 -17 -18 -19 19 -21 -22 -23 -24 -25
leaf_value=-0.055724423536616885 -0.044497060651147613 -0.055417459399647519 0.13673204888604457 -0.055583542282648973 0.037338497374452766 -0.055378533755316033 -0.05457260690335658 0.076857158458410027 -0.055079022967981943 0.077396149154662253 -0.046425556948457548 0.16642029689335769 0.020796611417204014 -0.028318618117509554 0.12180643820980418 0.16769270277854276 -0.04567457171893987 0 -0.036214304529389785 -0.055319415225205552 -0.022146535739512873 -0.055180865308644383 -0.045159480619620433 -0.042388298649040104
leaf_weight=90.356906250119209 4.6579971909523001 28.851263612508774 4.8037010729312888 324.89703631401062 5.8202889859676343 31.817923486232758 3.6826335042715073 4.434503152966502 7.6402140259742737 4.0111945569515211 5.8265295177698135 10.137592017650602 3.8612820655107525 3.7245196551084518 5.7662489861249915 159.52054013311863 5.3298218548297873 4.4427180439233789 5.3070908337831524 9.867959111928938 4.5618193149566677 8.2093679010868055 5.0007822215557098 4.143319606781005
leaf_count=496 25 160 23 1801 31 177 20 23 42 20 32 48 21 20 28 729 29 24 29 54 25 45 27 23
internal_value=0.00151249 0.129414 0.160993 -0.0445935 -0.0286292 0.00597256 0.0586287 0.0941988 -0.0149426 -0.0415178 0.00394425 0.135055 -0.0157834 -0.0506828 0.150834 0.166845 -0.0315433 -0.0254834 -0.0536397 -0.0467225 -0.0417523 -0.048079 -0.0384579 -0.0540122
internal_weight=746.673 197.834 168.982 548.84 223.943 87.1417 41.3428 27.8823 13.4605 45.799 9.83772 20.3383 7.54392 136.801 15.9038 164.324 18.4978 13.168 118.303 27.9462 18.0783 13.5165 8.7253 35.9612
internal_count=3952 937 777 3015 1214 465 213 140 73 252 52 99 41 749 76 752 100 71 649 153 99 74 47 200
is_linear=0
shrinkage=0.05


Tree=15
num_leaves=31
num_cat=0
split_feature=7 9 1 8 3 3 1 1 3 1 1 3 3 1 1 1 1 1 9 3 1 1 1 1 3 1 1 1 1 1
split_gain=94.6565 138.337 51.9245 43.7926 24.478 23.6446 17.6431 14.2616 12.5995 10.5405 9.18707 8.6379 7.58725 5.97431 9.17104 7.20206 5.60831 12.4604 23.6239 5.55586 6.52576 5.43609 4.7182 4.78503 3.58525 3.25764 2.52835 6.13539 2.76455 2.07444
threshold=1.0000000180025095e-35 1.0000000180025095e-35 0.070695558707980402 1.0000000180025095e-35 -0.57910830648499256 1.1219974280554976 -0.39314976237969379 -0.089358745534490511 -0.23785763678090754 0.65802314502013581 0.4547497961676184 2.1221171490966038 1.6650811845290294 -1.1146045502428195 -0.65740498823396243 -0.18228759201418859 -0.13113885223754876 -0.48522571015112231 1.0000000180025095e-35 0.0095713059667038077 0.31472497162667484 -0.11519645765504026 0.19517293399282917 0.13216682958208301 -0.036981542908975956 -0.20190749055097404 -0.4613996359623681 -0.3716312512375346 -0.23868926343579314 -0.86084676710974595
decision_type=2 2 2 2 2 2 2 2 2 2 2 2 2 2 2 2 2 2 2 2 2 2 2 2 2 2 2 2 2 2
left_child=1 -1 3 4 13 10 -6 8 -8 -7 19 12 -11 -3 29 26 17 24 25 20 22 -17 23 -4 -2 -19 -16 -28 -29 -15
right_child=16 2 5 -5 6 9 7 -9 -10 11 -12 -13 -14 14 15 21 -18 18 -20 -21 -22 -23 -24 -25 -26 -27 27 28 -30 -31
leaf_value=-0.041338958636377515 -0.041656401461217546 0.02691499263325588 0 -0.030034576859264167 0.091415437504833427 -0.0088804729916095015 0.23946092447194497 0.14701675568600475 0.46073140769571952 0.18384401857282054 -0.045592135589467821 0.2178023428857408 0.011536483808303806 0.15454749606910007 0.12996658502436356 0.26705288743015526 -0.044503123114893156 0.15739289453875013 -0.035965687859500647 -0.043276584131434759 0.16997582031693589 0.13668869254291224 -0.0426927643337165 0.15689378797878317 0.055180216286474508 0.045971790504983158 -0.01204321451388134 0.13151180177782243 0.034866326845957703 0.26404190904756403
leaf_weight=31.614741310477257 22.81944902613759 1.3124442137777865 1.0246405340731164 3.3070646673440924 1.3935926929116247 1.3998804762959469 1.519723270088434 1.2411779761314385 1.6225590631365774 1.0317636579275133 7.0845157913863659 2.2125673145055771 1.6618388332426546 1.1898164637386801 3.3376145735383114 1.2246528863906858 61.051381185650826 2.6481343023478989 5.2918994501233101 1.4658342599868772 1.1039871163666246 3.4973445460200159 1.2862060591578481 0.93245945498347271 0.93389598280191677 1.0308018364012221 1.5294076167047097 2.7531340084970077 1.174092479050145 1.7183666750788784
leaf_count=758 544 30 23 75 25 29 26 27 26 19 169 39 34 22 58 25 1472 59 127 32 24 75 30 20 22 23 30 53 24 32
internal_value=-0.00170837 0.0390969 0.0943881 0.139296 0.16323 0.0313387 0.253263 0.302543 0.359927 0.110295 -0.00734927 0.144551 0.0805964 0.133136 0.141364 0.122758 -0.0355217 -0.018647 0.0312863 0.0388226 0.067251 0.173466 0.0294756 0.0780323 -0.0376362 0.127879 0.0944207 0.071242 0.104049 0.223459
internal_weight=171.415 77.6394 46.0247 26.821 23.5139 19.2037 5.77705 4.38346 3.14228 6.30605 12.8976 4.90617 2.6936 17.7369 16.4244 13.5162 93.7756 32.7242 8.97084 5.81313 4.34729 4.722 3.24331 1.9571 23.7533 3.67894 8.79425 5.45663 3.92723 2.90818
internal_count=3952 1705 947 528 453 419 104 79 52 121 298 92 53 349 319 265 2247 775 209 129 97 100 73 43 566 82 165 107 77 54
is_linear=0
shrinkage=0.05


Tree=16
num_leaves=31
num_cat=0
split_feature=2 4 0 0 0 8 7 2 0 1 0 0 8 1 0 0 0 2 8 0 2 0 0 0 0 1 1 1 1 2
split_gain=703.184 721.797 379.307 117.161 41.4517 29.7724 24.2458 10.3863 10.2582 9.90797 9.74488 23.5286 8.90476 8.77447 6.09683 6.04876 5.82373 5.74451 3.43298 4.03014 6.4659 5.31671 21.1617 2.9852 4.43042 2.82844 2.18935 2.09129 2.15246 2.04707
threshold=-1.1073709571732382 0.32746744198025463 0.71285351298384481 -0.39388934645741169 0.057842432906366377 2.9623770375726921 1.0000000180025095e-35 1.0000000180025095e-35 -0.59716864717111184 -0.59664866412722428 0.62250715711108917 0.55474739020652242 1.0000000180025095e-35 0.10522501418721676 -0.55199546923473397 0.26112173362006658 -0.59716864717111184 0.99358451857120511 1.0000000180025095e-35 -0.21319663471190045 1.0000000180025095e-35 0.12560219981093312 0.035255843938177475 -0.57458205820292285 -0.43906252439378951 -0.33857063366930135 0.251257705127583 -0.8204008028670996 -0.43467246468155024 0.99358451857120511
decision_type=2 2 2 2 2 2 2 2 2 2 2 2 2 2 2 2 2 2 2 2 2 2 2 2 2 2 2 2 2 2
left_child=-1 3 4 5 -3 6 7 27 12 -9 11 17 -8 23 16 -6 -11 18 19 20 -5 22 -21 -10 -25 -18 -22 -2 -29 -12
right_child=1 2 -4 10 15 -7 8 9 13 14 29 -13 -14 -15 -16 -17 25 -19 -20 21 26 -23 -24 24 -26 -27 -28 28 -30 -31
leaf_value=-0.079380830320559315 0.031057134230284889 0.056476012785754925 0.082583078764040849 0.025333119731248483 -0.079271397760740034 0.08173110135913797 -0.044708359656728071 0.04808065162489808 0.043875444407113336 0.026939513894502644 0.071563375159915857 -0.01738372021736484 0.021635012274917903 -0.039369878594559093 0.021384040925034452 -0.0431978504599951 -0.0033060536585495961 0.08289788188734587 0.08166007220497587 0.056328195020164153 0.066685249944051561 0.065045306060463659 -0.022389636160151258 -0.0015384986973795839 0.038373528161821539 -0.047189362844693925 0.086966727115327838 0.071856382578113831 0.039774909140587816 0.086000349320744546
leaf_weight=224.27984783053398 8.4293787777423841 5.8968693017959586 46.656410932540894 8.7172107398509961 210.22534981369972 18.836444616317749 22.170274049043659 24.725724995136261 8.4230924844741804 7.0230934619903573 50.297395169734955 8.9636208415031415 6.4587711989879599 8.1122526526451093 46.647256851196289 12.84085577726364 6.7367645204067239 38.228531271219254 20.238635390996933 46.958848983049393 68.051339566707611 47.203376054763794 10.353171050548552 23.03519523143768 9.8401365876197833 8.4010316431522352 18.836078494787216 16.302249133586884 8.7073310017585772 62.953845351934433
leaf_count=809 30 21 166 31 758 67 79 88 30 25 179 32 23 29 166 46 24 136 72 167 242 168 37 82 35 30 67 58 31 224
internal_value=-0.000352836 0.0197828 -0.0472673 0.050352 -0.0737505 0.0216223 0.0160688 0.0295482 -0.00583557 0.0209344 0.0672287 0.0619498 -0.0296424 0.0079238 0.0111154 -0.0772162 -0.0103864 0.0647123 0.061528 0.0594596 0.0670215 0.0524897 0.0420575 0.0173105 0.010372 -0.0278998 0.0711583 0.0535006 0.0608883 0.079645
internal_weight=1104.55 880.271 275.619 604.651 228.963 223.849 205.013 126.973 78.0397 93.5339 380.802 267.551 28.629 49.4107 68.8081 223.066 22.1609 258.587 220.359 200.12 95.6046 104.515 57.312 41.2984 32.8753 15.1378 86.8874 33.439 25.0096 113.251
internal_count=3952 3143 991 2152 825 797 730 452 278 333 1355 952 102 176 245 804 79 920 784 712 340 372 204 147 117 54 309 119 89 403
is_linear=0
shrinkage=0.05


Tree=17
num_leaves=15
num_cat=0
split_feature=0 1 2 7 0 7 0 1 8 1 1 1 1 1
split_gain=20.0238 32.7052 26.3473 28.8133 35.6952 25.2466 18.4151 11.5562 10.7974 2.56776 1.18044 2.10729 0.409034 2.33931
threshold=-0.61975523613930072 -1.1146045502428195 -1.1073709571732382 -1.0000000180025095e-35 -0.37130275748922276 1.0000000180025095e-35 -0.71010159201205625 -0.98387872229067785 1.0000000180025095e-35 -1.0455237358957954 -0.75951002124417621 -0.96209073832296232 -1.6320587946431824 -1.545522219005844
decision_type=2 2 2 2 2 2 2 2 2 2 2 2 2 2
left_child=1 12 3 4 -2 7 -7 -3 10 -5 11 -8 -1 -14
right_child=2 5 -4 9 -6 6 8 -9 -10 -11 -12 -13 13 -15
leaf_value=-0.042190080741674151 -0.031849822886187172 0.32659562401147185 -0.041651075643548224 0.12712379199706808 0.6289792266886588 0.54233282092341006 -0.021120141872231511 -0.040425784942805854 0.39867073358821026 -0.040404970837947897 -0.030560370725982545 0.20881680074685152 0.11594443665284114 -0.040190788560896411
leaf_weight=1.8416503164917233 0.31810214789584279 0.21839895658195019 17.96191013185307 0.23935785843059432 0.46882644854486 0.6302560493350029 0.15083517879247665 0.99709761980921296 0.28766310447826982 1.0259717414155662 0.28355372603982687 0.14614885998889804 0.25952966324985016 1.0016284319572148
leaf_count=296 49 22 2924 33 31 35 24 114 35 137 36 20 35 161
internal_value=0.00161929 0.0829601 -0.0220442 0.14528 0.37292 0.208178 0.342319 0.033843 0.172773 -0.00318577 0.0341359 0.0986141 -0.0273364 -0.00295733
internal_weight=25.8309 5.81676 20.0142 2.05226 0.786929 2.71395 1.49846 1.2155 0.868201 1.26533 0.580538 0.296984 3.10281 1.26116
internal_count=3952 778 3174 250 80 286 150 136 115 170 80 44 492 196
is_linear=0
shrinkage=0.05


Tree=18
num_leaves=18
num_cat=0
split_feature=1 4 2 2 8 9 1 3 7 1 1 2 1 1 1 1 1
split_gain=22.5038 48.8147 7.94547 5.12713 8.11836 9.93131 6.09318 3.0796 2.14821 2.30414 1.80152 1.53841 3.65634 0.812656 5.07105 0.256677 5.14827
threshold=-0.48522571015112231 1.0000000180025095e-35 -1.1073709571732382 -1.0000000180025095e-35 1.0000000180025095e-35 1.0000000180025095e-35 -0.73286808383593571 -0.17846554075483143 1.0000000180025095e-35 -0.63829221407129377 -0.74662534183531892 -1.1073709571732382 0.251257705127583 -0.30845775584223861 -0.31837298486104409 -1.5065382323217642 -1.545522219005844
decision_type=2 2 2 2 2 2 2 2 2 2 2 2 2 2 2 2 2
left_child=1 2 7 4 5 6 -4 15 -5 -10 -7 12 -2 14 -13 16 -1
right_child=11 -3 3 8 -6 10 -8 -9 9 -11 -12 13 -14 -15 -16 -17 -18
leaf_value=-0.041826927956225515 -0.034051607386511598 0.39100398421760696 0.24229075966413235 -0.038983491960525862 -0.03458182311300885 0.17585264502658018 -0.034551825282637214 0.14357901783951954 -0.018974371560567343 0.234609792129959 0.50847726912389779 -0.040121818451363152 0.23090883725662842 -0.044252826612637852 0.25922960975057879 -0.042927127556346284 0.24487482501996022
leaf_weight=1.6308947247453027 0.39622895419597881 0.97204891405999649 0.29730069683864702 0.78205666737631208 0.41455851215869177 0.17539005307480693 0.41032403893768821 0.2137752529233693 0.13380667706951499 0.12806289689615369 0.22055381489917636 0.99501854227855802 0.13041076809167862 12.287458119448267 0.11362196458503671 2.3604169702157383 0.1217353818938135
leaf_count=329 76 12 36 145 61 25 50 27 20 20 19 196 15 2553 15 336 17
internal_value=0.0008927 0.0683873 0.020015 0.0891002 0.146279 0.214941 0.0867748 -0.0208719 0.000778123 0.114752 0.402979 -0.0371449 0.0415574 -0.0405679 0 -0.0316416 -0.0142863
internal_weight=21.7837 7.86092 6.88888 2.56205 1.51813 1.10357 0.707625 4.32682 1.04393 0.26187 0.395944 13.9227 0.52664 13.3961 1.10864 4.11305 1.75263
internal_count=3952 1097 1085 376 191 130 86 709 185 40 44 2855 91 2764 211 682 346
is_linear=0
shrinkage=0.05


Tree=19
num_leaves=16
num_cat=0
split_feature=0 2 0 8 1 2 1 1 3 3 8 2 2 1 1
split_gain=15.5393 26.0785 19.5155 11.6604 19.4397 3.91653 3.6825 4.90833 1.43012 6.30902 1.34255 2.68522 1.72285 3.90164 1.19721
threshold=-0.57458205820292285 -1.1073709571732382 -0.75527476994843412 0.91167626293940474 -0.59664866412722428 -1.0000000180025095e-35 -0.65740498823396243 -0.53762846156140898 -0.41512732254175411 -0.44177456858412878 1.0000000180025095e-35 -1.0000000180025095e-35 0.99358451857120511 -0.22955617918114229 -0.43467246468155024
decision_type=2 2 2 2 2 2 2 2 2 2 2 2 2 2 2
left_child=1 -1 -3 5 -5 6 -4 -8 9 10 12 -12 -2 -14 -9
right_child=8 2 3 4 -6 -7 7 14 -10 -11 11 -13 13 -15 -16
leaf_value=-0.042663183056914605 -0.043028106110667895 0.47737120680351341 -0.031070310638437716 -0.021366182716071339 0.70762778209819266 -0.037464600037238088 0.27940523196231365 -0.028659102597261635 -0.043938531050538882 0.33474855492825933 -0.029966505825923886 0.19984787255340913 0.25828606667397896 -0.032023462245795997 0.10802972132820664
leaf_weight=2.3829399300739169 2.9684225439559682 0.42754611000418696 0.29633965063840184 0.15213772095739841 0.1489646011032163 0.60823138733394699 0.41158327064476941 0.24121749727055464 7.2263741958886358 0.081068654078990998 0.2730084287468344 0.15343454061076034 0.11415291950106621 0.32611093553714443 0.27516535948961895
leaf_count=607 794 15 61 26 14 137 33 21 1996 12 66 39 19 87 25
internal_value=0.00180261 0.075283 0.184694 0.115313 0.381581 0.0612625 0.111817 0.159259 -0.030769 -0.00559009 -0.0176433 0.059769 -0.0287748 0.0568144 0.0428712
internal_weight=16.0867 4.94413 2.56119 2.13364 0.301102 1.83254 1.22431 0.927966 11.1426 3.9162 3.83513 0.426443 3.40869 0.440264 0.516383
internal_count=3952 939 332 317 40 277 140 79 3013 1017 1005 105 900 106 46
is_linear=0
shrinkage=0.05


Tree=20
num_leaves=31
num_cat=0
split_feature=1 2 7 9 1 3 1 1 1 2 1 1 3 3 3 1 1 3 3 7 1 9 1 1 1 9 1 1 1 3
split_gain=95.8769 92.1991 52.4421 102.859 32.3716 23.3183 16.1117 19.749 6.5878 7.70014 5.92933 13.9772 5.38008 17.794 7.51783 7.0566 5.18458 3.54687 5.50951 2.52898 6.30225 8.71032 2.82218 2.40944 2.71605 3.15878 2.28198 2.4633 2.22623 4.80012
threshold=0.33286216415510045 -1.1073709571732382 1.0000000180025095e-35 1.0000000180025095e-35 -0.20974342645073404 -0.86283588611794582 0.3228731879310035 -0.91186460413232073 -0.14980940376699112 1.0000000180025095e-35 -0.59664866412722428 -0.55083503265616063 0.62453023854863066 0.54132677862243928 -0.78515267595813187 -0.043421935306395133 -0.91186460413232073 0.10040635109229405 0.39618825336297397 1.0000000180025095e-35 -1.2385345440977356 -1.0000000180025095e-35 -0.51717515855538609 0.59082906856429529 0.51840894999758913 1.0000000180025095e-35 0.070695558707980402 0.10522501418721676 -0.39314976237969379 -0.5840965091892435
decision_type=2 2 2 2 2 2 2 2 2 2 2 2 2 2 2 2 2 2 2 2 2 2 2 2 2 2 2 2 2 2
left_child=1 19 8 4 -4 -6 7 -5 9 -3 16 -12 13 14 15 -9 -11 -16 -19 20 -1 22 -22 24 -2 -26 -10 -28 -13 -30
right_child=23 2 3 6 5 -7 -8 12 26 10 11 28 -14 -15 17 -17 -18 18 -20 -21 21 -23 -24 -25 25 -27 27 -29 29 -31
leaf_value=-0.045899891823903555 -0.037369133819504199 -0.0044305677211621446 0.3221019606843919 0.22207129740771375 0.21799619768975204 -0.043037836629968032 0.22938997177109993 0.033145612776468804 -0.022462639200699439 0.078733112981457118 0.22725798947740017 0.081884978710420941 -0.044280075454259868 0.20250502007561999 -0.029174033551203005 0.12769906363470673 -0.030596565641303999 0.094869906291895179 -0.0425137946098368 -0.046299736080282844 -0.045007367683826349 0.10723386452157649 0.049721852437308867 -0.046319190415756724 -0.042312922896483966 0.061918869698950822 0.083426894072457458 0.0018790756580796511 0.058564980513754999 -0.023411923912088187
leaf_weight=8.9188935644924623 6.0055648796260339 8.3012286536395568 5.6234212182462215 1.4347185529768491 2.3922981657087807 1.27275727689266 1.2010022811591614 9.2907338701188635 8.3919686600565893 1.5423095822334287 1.2252109721302993 4.6036485321819773 1.965302139520644 1.5340003706514824 5.8893062509596366 2.5266077965497979 3.3329811878502396 1.7010027915239336 1.183007664978504 22.863585349172354 3.0549837201833721 1.8994028419256199 0.98626162484288249 69.077504616230726 1.1310202181339264 1.7896045036613941 1.1009186021983612 5.1097568832337856 7.055331625044345 2.3039184100925896
leaf_count=193 133 151 79 24 34 26 13 163 167 30 21 81 40 18 117 48 63 27 26 481 63 39 20 1530 25 37 22 108 128 45
internal_value=-0.00022097 0.0284464 0.05916 0.10364 0.246604 0.127315 0.0534914 0.0446849 0.021743 0.0357822 0.0525142 0.0678811 0.0335787 0.0406918 0.0280543 0.0540251 0.00393071 -0.0067521 0.0378995 -0.0357859 -0.0193401 0.0201681 -0.0209526 -0.0431342 -0.0180876 0.0206804 -0.00538577 0.0172846 0.0529568 0.0381023
internal_weight=194.708 116.705 78.9814 36.0142 9.28848 3.66506 26.7257 25.5247 42.9673 28.3646 20.0634 15.1881 24.09 22.1247 20.5907 11.8173 4.87529 8.77332 2.88401 37.7231 14.8595 5.94065 4.04125 78.0037 8.92619 2.92062 14.6026 6.21068 13.9629 9.35925
internal_count=3952 2227 1431 615 139 60 476 463 816 519 368 275 439 399 381 211 93 170 53 796 315 122 83 1725 195 62 297 130 254 173
is_linear=0
shrinkage=0.05


Tree=21
num_leaves=10
num_cat=0
split_feature=2 1 0 1 0 1 1 1 3
split_gain=2103.88 2.28755 2.58947 1.40787 0.543597 0.405771 1.50349 0.259955 0.106795
threshold=-1.1073709571732382 -0.91186460413232073 -0.57458205820292285 1.0000000180025095e-35 -0.61975523613930072 -0.93032437220068265 -1.0301725734166933 -0.75951002124417621 -0.86283588611794582
decision_type=2 2 2 2 2 2 2 2 2
left_child=1 -1 4 -4 7 6 -2 -3 -7
right_child=5 2 3 -5 -6 8 -8 -9 -10
leaf_value=0.14594981549181876 -0.053573177803021212 0.13413079413066972 0.14424292576709427 0.1110313885651134 0.093394209858732535 -0.051311654200962731 -0.01531871794464172 0.10502407446804157 -0.053955534832511733
leaf_weight=137.63625660538673 9.5679718703031522 4.7945383191108695 31.115099802613258 5.4889549016952506 5.1274833381175986 130.62185020744801 3.8536439687013617 4.4622109234333029 370.41214573383331
leaf_count=586 58 21 134 25 23 796 22 20 2267
internal_value=-0.000637392 0.142178 0.131814 0.139489 0.111696 -0.0530141 -0.0428727 0.121008 -0.0532764
internal_weight=703.08 188.625 50.9883 36.6041 14.3842 514.456 13.4216 9.25675 501.034
internal_count=3952 809 223 159 64 3143 80 41 3063
is_linear=0
shrinkage=0.05


Tree=22
num_leaves=25
num_cat=0
split_feature=3 3 7 2 2 3 1 1 8 1 1 1 1 3 3 9 1 1 3 1 1 1 1 1
split_gain=30.4069 18.4981 16.3017 4.59657 11.8907 11.7624 14.0458 12.3886 4.53888 3.16236 6.28347 2.27737 1.12994 0.77067 12.0874 1.45461 2.08016 2.66597 0.382812 2.86039 0.168902 3.29662 0.141741 2.61101
threshold=1.5723443621969313 1.6106461568500658 -1.0000000180025095e-35 1.0000000180025095e-35 -1.1073709571732382 0.60923277393515374 -0.63829221407129377 -0.91186460413232073 1.0000000180025095e-35 -0.23868926343579314 -0.43467246468155024 1.0763835277245055 -0.31837298486104409 -0.48622866240002111 -0.531914653707107 1.0000000180025095e-35 -0.33131346107496001 -0.62380502646507174 1.4837022762373331 0.92225941382339205 0.39153774370798183 0.35824657560931833 -1.1146045502428195 -1.0301725734166933
decision_type=2 2 2 2 2 2 2 2 2 2 2 2 2 2 2 2 2 2 2 2 2 2 2 2
left_child=3 -2 11 4 22 6 7 -6 -9 10 -8 -3 -12 14 15 16 17 -5 20 -20 21 -15 -1 -24
right_child=1 2 -4 13 5 -7 9 8 -10 -11 12 -13 -14 18 -16 -17 -18 -19 19 -21 -22 -23 23 -25
leaf_value=-0.043751549047879791 0.41647321695556805 -0.041714291103046856 0.24212863323542161 -0.033565906852407443 -0.036590975114374126 0.31435179221317705 -0.039998483413994951 0.31452082472585785 0.076705991343728699 -0.04308628793825639 0.068601788181732556 0.10451946635720795 0.2189549009564043 -0.043140724999572992 0.29978316774032876 -0.043856857677564032 -0.040343577895306133 0.13107130635919215 -0.041464142808857629 0.13274100207868753 -0.044298162268069943 0.13804797618185446 0.10569423140452339 -0.042903713795864801
leaf_weight=4.4660233445465565 0.48830546066164915 1.2866082265973093 0.98735859710723128 0.37086571287363768 0.52315226942300785 0.36656194552779187 0.9269200935959816 0.78336749318987109 0.3581192372366786 2.6957926377654062 0.38812840543687344 0.27854667231440555 0.32797061651945048 2.7683825623244078 0.23932439275085826 4.9792708158493042 1.0140662426128981 0.51670486573129881 1.3669135337695468 0.2301151594147085 9.5027770432643575 0.22197587881237257 0.28039314039051566 2.4157367190346122
leaf_count=504 10 117 30 39 51 21 93 49 20 303 34 6 28 307 21 569 117 46 153 25 1095 24 27 263
internal_value=-0.00253925 0.147679 0.0882831 -0.0159522 0.00665383 0.056281 0.0376443 0.158893 0.248359 -0.00958492 0.0435551 -0.0117117 0.150522 -0.030474 -0.016263 -0.0296995 0.00626334 0.0614908 -0.0373956 -0.0115774 -0.0404374 -0.0268196 -0.0372221 -0.0248964
internal_weight=37.7834 3.04082 2.55251 34.7426 13.5322 6.37001 6.00345 1.66464 1.14149 4.33881 1.64302 1.56515 0.716099 21.2104 7.12023 6.88091 1.90164 0.887571 14.0902 1.59703 12.4931 2.99036 7.16215 2.69613
internal_count=3952 163 153 3789 1393 599 578 120 69 458 155 123 62 2396 792 771 202 85 1604 178 1426 331 794 290
is_linear=0
shrinkage=0.05


Tree=23
num_leaves=25
num_cat=0
split_feature=3 9 3 9 1 0 2 1 0 3 1 1 0 1 3 1 0 0 1 1 1 1 0 3
split_gain=1471.9 351.843 49.9811 37.824 65.7188 76.8672 36.0471 39.4262 10.5457 10.3072 13.4267 4.69664 4.15283 3.00763 0.957598 0.560653 0.537663 1.71986 0.349632 0.796755 0.325232 0.213542 0.137135 0.0947809
threshold=1.2468630113028303 1.0000000180025095e-35 1.5723443621969313 1.0000000180025095e-35 -0.067185559786591506 0.69026692401565581 1.0000000180025095e-35 0.22616311657786689 0.21594855568368873 0.39618825336297397 1.0016632712437981 0.52821653909802146 -0.23578322368008939 -0.28437718660176697 0.1990037268770137 -0.59664866412722428 -0.28095640161646712 -0.39388934645741169 -0.39314976237969379 -0.44222824110942527 -0.52930242614747536 0.62455996887923859 -0.50682229129835621 0.22730279787357319
decision_type=2 2 2 2 2 2 2 2 2 2 2 2 2 2 2 2 2 2 2 2 2 2 2 2
left_child=3 2 21 4 13 6 8 12 -6 23 -11 -9 -8 15 -13 -1 17 22 19 20 -17 -2 -15 -7
right_child=1 -3 -4 -5 5 9 7 11 -10 10 -12 14 -14 16 -16 18 -18 -19 -20 -21 -22 -23 -24 -25
leaf_value=-0.05496859506347325 0.11943172050099987 -0.054589323319016059 -0.023817262393068753 -0.054743993669051298 0.035076562007996553 -0.054423076373243395 -0.053626938957605508 0.071424842940508604 -0.054225418160484963 0.073485419595325022 -0.045070557330350987 0.14165960595004862 0.020799062474058244 -0.027188746814644272 0.11031547311728346 -0.034976406644104244 -0.04459886357190853 0.00072376563069615212 -0.054481673890358386 -0.020832046086773116 -0.054219140402474886 0.14151088221093477 -0.044053882961480453 -0.040949462091073058
leaf_weight=86.664948374032974 4.6509380340576163 27.520102709531784 4.679893121123313 309.61547408998013 5.936346158385275 30.118872776627541 3.5084679871797562 4.5922836661338833 7.2956323176622391 4.1109588593244535 5.5452991127967834 11.189590185880663 3.860359579324725 3.6356560885906219 6.0972295403480521 5.1370467245578793 5.1342029720544806 4.3752907067537317 9.4329743534326536 4.447293788194659 7.7924521267414084 176.53271900117397 4.8188121467828751 3.9530627876520148
leaf_count=496 21 160 25 1801 31 177 20 23 42 20 32 48 21 20 28 29 29 24 54 25 45 731 27 23
internal_value=0.00133034 0.112117 0.136823 -0.043507 -0.0275012 0.00639763 0.0542928 0.0852417 -0.0139919 -0.040082 0.00526326 0.118879 -0.0144225 -0.0497478 0.131098 -0.0527953 -0.0302657 -0.0241849 -0.0455876 -0.0404735 -0.0469306 0.140991 -0.0372979 -0.0529954
internal_weight=740.646 213.384 185.864 527.262 217.647 86.2081 42.4799 29.2479 13.232 43.7282 9.65626 21.8791 7.36883 131.439 17.2868 113.475 17.964 12.8298 26.8098 17.3768 12.9295 181.184 8.45447 34.0719
internal_count=3952 937 777 3015 1214 465 213 140 73 252 52 99 41 749 76 649 100 71 153 99 74 752 47 200
is_linear=0
shrinkage=0.05


Tree=24
num_leaves=31
num_cat=0
split_feature=7 9 0 2 0 0 1 0 1 0 0 1 0 1 2 9 1 1 0 2 1 0 0 0 1 1 0 0 1 1
split_gain=86.0863 115.569 64.8284 79.2243 14.8164 54.419 12.2295 14.0179 10.6792 20.9496 9.55726 7.29306 7.72371 5.56858 13.9803 17.25 12.313 5.32645 5.0023 4.89909 3.86804 3.5016 3.43437 3.05311 1.62581 1.23077 6.31411 1.10493 2.74948 1.05795
threshold=1.0000000180025095e-35 1.0000000180025095e-35 -0.41647593542560057 1.0000000180025095e-35 0.96130599163392272 0.55474739020652242 -0.30396921965311463 -0.55199546923473397 0.4547497961676184 1.0000000180025095e-35 0.59992056814290018 -0.65740498823396243 -0.57458205820292285 -0.13113885223754876 -1.1073709571732382 1.0000000180025095e-35 -0.48522571015112231 1.0000000180025095e-35 -0.37130275748922276 1.0000000180025095e-35 -0.28437718660176697 -0.68751500304386737 -0.55199546923473397 -0.14543686780733375 -0.69322849964414923 -0.043421935306395133 -0.48423570233016727 -0.28095640161646712 -0.057198363369592241 -0.16809232834892876
decision_type=2 2 2 2 2 2 2 2 2 2 2 2 2 2 2 2 2 2 2 2 2 2 2 2 2 2 2 2 2 2
left_child=1 -1 3 24 5 8 11 -8 9 18 -7 -5 -13 14 -2 16 -16 -11 20 -18 -4 -17 -14 27 -3 26 -9 28 -20 -23
right_child=13 2 4 6 -6 10 7 25 -10 17 -12 12 22 -15 15 21 19 -19 23 -21 -22 29 -24 -25 -26 -27 -28 -29 -30 -31
leaf_value=-0.041023341212623243 -0.045920984653803058 -0.044936778404588325 0 0.23257573055506589 -0.045119551933462947 0.30502491813349203 0.36508211007300662 0.29095105092369344 -0.045494352917094555 0.23466005341508037 0.1307325146601703 0.038291764018874602 0.21918696865614487 -0.044319264226001368 -0.014226160222130458 0.041357960545316402 0.2203810531046492 0.095425607917515906 -0.044252398703975453 0.089505725575937889 0.12204733090047611 -0.045380307558381641 0.12774930519873848 0.040994925415748479 0.014973955538367632 0.14037830064561757 0.13083595156665193 -0.045011746502735379 0.041201020449487508 0.013110177137666013
leaf_weight=30.19314181804657 18.848438397049904 3.3991717956960201 1.10747292265296 2.9815724156796968 4.9055393598973742 1.9262136071920388 2.1227922588586807 1.5732856430113313 4.9660666212439528 1.1925309598445886 1.6316050849854944 1.6980466060340438 2.0015141367912324 58.020702328532934 1.6552914157509802 1.6612592600285996 1.446961116045711 2.0603865273296833 2.026353351771832 1.7844821400940416 1.4312714748084605 6.0264641717076293 3.3763799294829302 2.2320735529065105 1.5777519345283533 1.2821579724550218 1.3510061986744406 3.5289367586374283 1.6603562720119995 0.79078478738665747
leaf_count=758 465 78 22 42 127 20 23 22 109 22 28 26 22 1472 37 41 28 42 42 35 29 149 53 46 36 21 20 80 37 20
internal_value=-0.00152595 0.0361307 0.0827352 0.148602 0.0333916 0.0497646 0.201545 0.257609 0.0176458 0.0384663 0.228707 0.164916 0.134623 -0.0350349 -0.0181923 0.0207513 0.095172 0.150006 0.00749127 0.151335 0.0691935 -0.0221557 0.163946 -0.00910281 -0.0254869 0.199134 0.221262 -0.0251195 -0.00506199 -0.0381854
internal_weight=170.46 80.2256 50.0325 21.3637 28.6688 23.7633 16.3868 6.32924 20.2054 15.2394 3.55782 10.0575 7.07594 90.2344 32.2137 13.3652 4.88673 3.25292 11.9865 3.23144 2.53874 8.47851 5.37789 9.44772 4.97692 4.20645 2.92429 7.21565 3.68671 6.81725
internal_count=3952 1705 947 343 604 477 229 86 429 320 48 143 101 2247 775 310 100 64 256 63 51 210 75 205 114 63 42 159 79 169
is_linear=0
shrinkage=0.05


Tree=25
num_leaves=31
num_cat=0
split_feature=2 3 9 0 9 0 7 2 0 8 7 9 9 0 3 8 3 0 3 3 3 0 0 0 3 0 3 8 3 0
split_gain=613.265 722.953 192.723 93.214 43.7045 61.6701 36.1767 34.0145 25.9102 25.5055 21.9426 58.9352 23.9717 15.2291 12.1857 8.54691 17.0838 12.3112 6.96251 6.26553 6.12153 4.07324 3.66099 3.5771 3.04074 5.3014 3.03511 2.68948 2.79164 1.44384
threshold=-1.1073709571732382 1.3084645464532141 1.0000000180025095e-35 -0.39388934645741169 1.0000000180025095e-35 0.69026692401565581 1.0000000180025095e-35 0.99358451857120511 0.44181444536557785 2.9623770375726921 1.0000000180025095e-35 1.0000000180025095e-35 1.0000000180025095e-35 0.48698762330195561 -0.67822686365386631 1.0000000180025095e-35 0.2123159916222653 -0.59716864717111184 0.39618825336297397 0.54132677862243928 1.5037920628723027 0.080429021874555293 -0.43906252439378951 0.14818878877912203 -0.86283588611794582 0.080429021874555293 2.2994541503643959 1.0000000180025095e-35 -0.23785763678090754 -0.55199546923473397
decision_type=2 2 2 2 2 2 2 2 2 2 2 2 2 2 2 2 2 2 2 2 2 2 2 2 2 2 2 2 2 2
left_child=-1 3 20 9 5 6 14 23 -8 10 12 -12 -2 -10 -5 17 -17 -13 -7 -20 -3 -16 27 -4 25 -6 -9 28 29 -14
right_child=1 2 7 4 24 18 8 26 13 -11 11 15 22 -15 21 16 -18 -19 19 -21 -22 -23 -24 -25 -26 -27 -28 -29 -30 -31
leaf_value=-0.074889889591994899 0.055025268530613937 -0.074985193595054345 0.033964584196558227 0.077858219717213573 0.069537435274256085 0.080494297605457912 -0.054045995665034478 -0.0052499836969672285 0.081920567882221212 0.076782802356743354 -0.068345840329700813 -0.003983271692239952 -0.001040971231359605 -0.025646667978653406 0.049334569627143672 0.029371257458329386 -0.070933813742819471 0.06565470827318004 0.010109610405667019 0.075578338351250662 -0.020985586720765684 -0.0032513711305343484 0.042634415863753716 0.077682760475186602 0.07688011449444937 0.027631549366126298 -0.056523463113311551 0.036409885315430296 -0.025096437564395849 0.015490019774347592
leaf_weight=219.58694985508919 50.85242173075676 200.43055266141891 6.1455619037151363 15.424325555562975 60.770366251468658 55.229037761688232 26.505748301744461 6.1660101413726789 6.9933362305164319 18.725190043449402 24.931441605091095 9.2555939853191393 25.81980267167091 6.0925206243991852 5.6117801666259757 15.17534923553467 5.8348689079284659 19.661864817142487 7.8432886600494367 6.9939762949943542 5.5703440308570853 10.294264197349547 7.8698477149009696 25.475133717060089 194.37208539247513 8.9594658017158491 5.6004718244075775 6.7438521385192862 7.5603854954242697 26.426873922348026
leaf_count=809 181 738 22 55 217 198 95 22 25 67 89 33 92 22 20 54 21 70 28 25 20 37 28 91 696 32 20 24 27 94
internal_value=-0.00020323 0.0185759 -0.0533689 0.0473378 0.0615453 0.0390074 0.00608999 0.0423318 -0.0256239 0.0210214 0.0157738 -0.00561368 0.0285713 0.031742 0.0462229 0.0256987 0.00129398 0.043311 0.072263 0.0412883 -0.0735426 0.0152411 0.0104367 0.069332 0.0735578 0.0642125 -0.030002 0.00656248 0.00312752 0.00727958
internal_weight=1092.92 873.336 249.388 623.948 405.09 140.988 70.922 43.3872 39.5916 218.857 200.132 74.8591 125.273 13.0859 31.3304 49.9277 21.0102 28.9175 70.0663 14.8373 206.001 15.906 74.4208 31.6207 264.102 69.7298 11.7665 66.5509 59.8071 52.2467
internal_count=3952 3143 913 2230 1450 505 254 155 142 780 713 267 446 47 112 178 75 103 251 53 758 57 265 113 945 249 42 237 213 186
is_linear=0
shrinkage=0.05


Tree=26
num_leaves=25
num_cat=0
split_feature=1 1 7 1 1 2 9 1 1 1 7 7 1 1 1 8 2 1 1 1 8 1 1 1
split_gain=14.2731 7.68912 12.8858 5.83154 20.7893 6.98137 10.3684 7.54264 5.94993 7.40854 4.28782 3.00073 4.7278 2.81317 3.64959 2.43233 1.60807 1.54228 1.48946 0.686749 6.11004 0.670046 0.314207 4.40518
threshold=0.19517293399282917 0.13216682958208301 -1.0000000180025095e-35 -0.69322849964414923 -1.1285739006611903 1.0000000180025095e-35 1.0000000180025095e-35 1.0000000180025095e-35 -1.0301725734166933 -0.79895598234460696 -1.0000000180025095e-35 1.0000000180025095e-35 -0.86084676710974595 -0.59664866412722428 -0.25122179715615245 1.0000000180025095e-35 -1.1073709571732382 -0.96209073832296232 -0.74662534183531892 -0.53762846156140898 1.0000000180025095e-35 -0.43467246468155024 -1.6320587946431824 -1.5855442022701667
decision_type=2 2 2 2 2 2 2 2 2 2 2 2 2 2 2 2 2 2 2 2 2 2 2 2
left_child=1 3 -3 4 22 6 -5 13 -6 11 18 -10 15 -8 19 17 -2 -13 -11 -15 -21 -22 -1 -24
right_child=16 2 -4 5 8 -7 7 -9 9 10 -12 12 -14 14 -16 -17 -18 -19 -20 20 21 -23 23 -25
leaf_value=-0.042137344433410877 0.039804120959158418 0.43099842924196152 -0.029650036609585859 -0.041580830437175524 0.27355626810561445 -0.043612636514425623 -0.031261079447954206 0.42847036414378953 -0.038177264394506527 0.15025477996109138 0.31147322587844223 -0.024420852032308482 -0.034689153971900165 0.085756700223343238 -0.028385063972736598 0.28628965409050955 -0.044246734048331411 0.15214370281149814 -0.023792236444606721 -0.022141486950315568 0.42041165432649896 0.15976321122129208 0.21427688353974911 -0.041202591797564053
leaf_weight=1.807523866184056 0.53130278922617513 0.26457772217690945 0.26367482170462686 1.3984977700747558 0.73343764245510135 4.384850746486336 0.29906945442780841 0.16058115102350723 0.65385208604857359 0.20484536001458764 0.50968599552288529 0.17982272664085064 0.39722988428547945 0.32987640053033807 0.24035717081278563 0.25100395688787103 10.930696423165497 0.20220255013555288 0.17479912331327796 0.15982773760333657 0.164278400596231 0.19293525395914934 0.1420006165280937 1.3015623907558618
leaf_count=301 17 35 41 197 67 745 36 17 79 25 41 22 30 32 40 23 1871 20 23 25 19 25 17 204
internal_value=0.00147065 0.0346216 0.214062 0.0268737 0.060959 -0.00348812 0.0551415 0.142713 0.148392 0.107232 0.220658 0.041259 0.093421 0.0941099 0.130651 0.174126 -0.0399776 0.0700389 0.0708569 0.17764 0.219122 0.322674 -0.0281173 -0.00806567
internal_weight=25.8785 14.4165 0.528253 13.8882 6.55797 7.33027 2.94542 1.54693 3.30688 2.57344 0.88933 1.68411 1.03026 1.38634 1.08727 0.633029 11.462 0.382025 0.379644 0.846918 0.517041 0.357214 3.25109 1.44356
internal_count=3952 2064 76 1988 852 1136 391 194 330 263 89 174 95 177 141 65 1888 42 48 101 69 44 522 221
is_linear=0
shrinkage=0.05


Tree=27
num_leaves=12
num_cat=0
split_feature=2 4 2 3 8 9 3 3 3 7 9
split_gain=14.7693 38.7179 3.25552 7.16183 4.91248 9.13519 1.44155 1.84364 0.965086 2.42628 0.0896541
threshold=1.0000000180025095e-35 1.0000000180025095e-35 -1.1073709571732382 -0.86283588611794582 1.0000000180025095e-35 1.0000000180025095e-35 -0.17846554075483143 0.1188969682204248 -0.86283588611794582 -1.0000000180025095e-35 1.0000000180025095e-35
decision_type=2 2 2 2 2 2 2 2 2 2 2
left_child=1 2 6 4 5 -4 10 -8 9 -2 -1
right_child=8 -3 3 -5 -6 -7 7 -9 -10 -11 -12
leaf_value=-0.022336053559476481 -0.042326301753137674 0.27932082777874556 0.048248479512418341 -0.041560879228648401 -0.035392529773847672 0.30489725000920775 0.15537792328634037 -0.028300415706962002 -0.044111790997421553 0.051419234022937944 -0.042328119903543363
leaf_weight=2.3891302044503382 1.9644592502154412 1.464515690691768 1.0213870499283078 1.4633645401336277 0.45714733563363541 0.52063794340938319 0.19813462160527695 0.23658880870789289 8.9895079014822823 0.98802062729373474 1.8964934847317634
leaf_count=411 393 53 145 297 79 48 21 31 1948 194 332
internal_value=0.0010768 0.0470684 0.00375383 0.0405214 0.101372 0.143326 -0.0228344 0.0576495 -0.0359106 -0.0097887 -0.0321458
internal_weight=21.5894 9.6474 8.18288 3.46254 1.99917 1.54202 4.72035 0.434723 11.942 2.95248 4.28562
internal_count=3952 1417 1364 569 272 193 795 52 2535 587 743
is_linear=0
shrinkage=0.05


Tree=28
num_leaves=16
num_cat=0
split_feature=0 1 0 8 1 1 0 1 1 1 0 0 8 0 1
split_gain=13.3342 14.018 6.40942 8.41353 3.26436 5.531 1.75825 1.9441 1.34176 4.34345 1.26265 5.26278 1.66456 2.64611 2.79407
threshold=-0.57458205820292285 -1.1285739006611903 -0.75527476994843412 0.91167626293940474 -0.65740498823396243 -0.61410145384549486 -0.68751500304386737 -0.36129385469756092 0.15356048983502324 0.13216682958208301 -0.10026368987095595 -0.055090511934578139 1.0000000180025095e-35 -0.43906252439378951 -0.30396921965311463
decision_type=2 2 2 2 2 2 2 2 2 2 2 2 2 2 2
left_child=1 -1 -3 4 -4 -6 -7 -8 9 10 12 -12 -2 -14 -15
right_child=8 2 3 -5 5 6 7 -9 -10 -11 11 -13 13 14 -16
leaf_value=-0.04218227719430049 -0.043029321321928042 0.2478479091327378 -0.038810668088326727 0.28006489684182206 0.2734065706943461 0.15074380745485116 -0.038982448152378807 0.10480648122318414 -0.04387970445787695 0.23388424607251831 0.32527017860545421 -0.033156432925241806 -0.030906596809705492 0.33546913948758328 -0.0080285935842893934
leaf_weight=1.8757207717280833 2.9694006624631588 0.79986113309860263 0.75944544677622694 0.41022990690544237 0.26317282766103733 0.20408641127869476 0.74677801597863414 0.28237456898205249 6.6683369386009872 0.12856922182254482 0.084444943582639098 0.36337798670865451 0.29519371734932065 0.080841243267059326 0.079343623481690773
leaf_count=499 817 43 189 39 22 17 90 40 1930 34 20 98 73 20 21
internal_value=0.00195117 0.0662289 0.125376 0.0838262 0.0417567 0.084195 0.0327894 0.00118116 -0.0301549 -0.00640493 -0.0178993 0.0552903 -0.0288469 0.0537933 0.191996
internal_weight=16.0112 5.34167 3.46595 2.66609 2.25586 1.49641 1.23324 1.02915 10.6695 4.00117 3.8726 0.447823 3.42478 0.455379 0.160185
internal_count=3952 939 440 397 358 169 147 130 3013 1083 1049 118 931 114 41
is_linear=0
shrinkage=0.05


Tree=29
num_leaves=31
num_cat=0
split_feature=0 0 3 7 8 3 3 0 3 3 3 0 3 3 3 3 3 0 0 3 0 3 0 0 7 0 0 3 0 0
split_gain=124.248 61.3061 15.3268 15.3844 15.9329 15.2904 15.0513 8.62354 8.9945 10.4114 12.985 6.28436 6.16412 3.90403 2.8967 2.26476 7.47695 2.35398 2.4095 1.99764 3.63565 1.88909 1.73542 1.69131 2.08573 1.48714 1.04562 0.909787 0.8167 1.99308
threshold=-0.32612957955284499 -0.71010159201205625 2.0685150015824987 1.0000000180025095e-35 2.9623770375726921 0.62453023854863066 0.60303930884909984 -0.66492841407567849 -0.66572527576491314 0.2123159916222653 0.43323291640893485 -0.55199546923473397 -0.45491983072925551 -0.32762631231701994 -0.86283588611794582 -0.65177336330804392 -0.5840965091892435 -0.43906252439378951 -0.61975523613930072 -0.036981542908975956 -0.48423570233016727 -0.21136622369043018 -0.64234182510748961 -0.23578322368008939 -1.0000000180025095e-35 0.080429021874555293 -0.66492841407567849 -0.21676277594487819 -0.50682229129835621 -0.57458205820292285
decision_type=2 2 2 2 2 2 2 2 2 2 2 2 2 2 2 2 2 2 2 2 2 2 2 2 2 2 2 2 2 2
left_child=1 12 3 13 5 6 7 -5 22 11 -11 21 -1 15 25 17 -17 18 26 -15 -21 -10 -9 24 27 -2 -3 -16 29 -20
right_child=14 2 -4 4 -6 -7 -8 8 9 10 -12 -13 -14 19 23 16 -18 -19 28 20 -22 -23 -24 -25 -26 -27 -28 -29 -30 -31
leaf_value=-0.041290946375555825 -0.025687340853890486 0.043940988102286103 0.23701328635203256 0.01059570446318237 -0.044669791311975744 -0.044206032719730066 0.23237260116483505 0.16121653356399718 0.11901104261603723 0.22277060839902735 0.016632552738913859 -0.031206690818846847 0.072406480908234927 -0.044429618783714347 -0.0046141357891841765 0.17122075922502006 0.025799370571631203 0.0055887223152191433 0.072535481748385588 0.0658814977359507 -0.042932155348492346 0.027286304568680687 0.10755637631026271 -0.045592288190715015 -0.044410068720640995 0.018468477641473174 0.00065644482165962018 0.058326017382617938 0.071362729695670854 0.024043240524872524
leaf_weight=20.367842014878992 9.8110201060771924 2.1508011370897293 1.177004650235175 3.4207242950797037 2.3848546184599391 2.0382953323423854 1.8740503787994374 2.0938230380415908 1.1481236927211287 1.5983152762055399 1.4925381541252134 3.3853815905749851 1.2061291597783554 2.053563229739666 1.2644365057349207 1.3219069950282571 2.696845360100272 5.6686933264136306 3.7109939046204117 1.7234599068760874 1.2834689468145359 1.2983911484479902 18.892568822950128 78.990387436002493 2.5473613590002051 2.2579743638634673 4.1496443897485777 0.90407486259937275 5.003207609057422 5.5667846873402604
leaf_count=449 212 40 16 64 49 44 12 31 19 17 26 60 23 40 29 21 49 105 65 33 27 25 275 1841 60 49 75 21 80 95
internal_value=-4.53064e-05 0.0396012 0.0606881 0.0577299 0.0791599 0.0872058 0.0949373 0.0867983 0.095398 0.052384 0.125874 0.0122708 -0.0346662 0.0335444 -0.0405173 0.0403429 0.0757642 0.0346913 0.0425527 -0.00662774 0.0186754 0.0728546 0.113399 -0.0438403 -0.0137995 -0.0171779 0.0160559 0.0212225 0.0539713 0.0439924
internal_weight=193.483 97.7074 76.1334 74.9564 39.6271 37.2422 35.2039 33.3299 29.9091 8.92275 3.09085 5.8319 21.574 35.3294 95.7753 30.2689 4.01875 26.2501 20.5814 5.06049 3.00693 2.44651 20.9864 83.7063 4.71587 12.069 6.30045 2.16851 14.281 9.27778
internal_count=3952 1740 1268 1252 622 573 529 517 453 147 43 104 472 630 2212 530 70 460 355 100 60 44 306 1951 110 261 115 50 240 160
is_linear=0
shrinkage=0.05


Tree=30
num_leaves=11
num_cat=0
split_feature=2 7 1 0 0 1 1 1 1 3
split_gain=1769.23 2.38099 9.87868 2.72032 0.582745 0.507032 0.410876 1.47802 0.230376 0.113134
threshold=-1.1073709571732382 1.0000000180025095e-35 -0.91186460413232073 -0.57458205820292285 -0.37130275748922276 -1.2385345440977356 -0.93032437220068265 -1.0301725734166933 -1.0903030342939188 -0.86283588611794582
decision_type=2 2 2 2 2 2 2 2 2 2
left_child=1 2 5 -4 -5 -1 7 -2 -7 -8
right_child=6 -3 3 4 -6 8 9 -9 -10 -11
leaf_value=0.12884602096511588 -0.052896222157644973 0.12805967500221824 0.056110202369592646 0.11415580863426494 0.085659334360514844 0.10097239677293646 -0.050513353448824322 -0.014536123418014274 0.12445705390546194 -0.053238915652350671
leaf_weight=49.028026074171066 9.130831837654112 122.48622059822083 6.6925042718648937 4.9485293775796899 7.3243431448936436 6.7957795262336731 124.54676519334316 3.7992224842309943 5.9768964201211912 351.66549921035767
leaf_count=193 58 485 29 20 31 27 796 22 24 2267
internal_value=-0.000740765 0.123227 0.115793 0.083386 0.0977688 0.125622 -0.0522654 -0.0419169 0.112599 -0.0525367
internal_weight=692.395 203.252 80.7661 18.9654 12.2729 61.8007 489.142 12.9301 12.7727 476.212
internal_count=3952 809 324 80 51 244 3143 80 51 3063
is_linear=0
shrinkage=0.05


Tree=31
num_leaves=20
num_cat=0
split_feature=4 9 0 2 0 0 2 2 0 8 1 1 0 9 0 1 0 1 1
split_gain=5.68673 16.5682 34.7585 27.0618 6.19339 5.63255 7.59244 12.6584 15.2046 4.65776 3.86244 8.37741 2.07802 1.81893 2.06668 3.66393 1.49884 0.282292 2.29176
threshold=1.0000000180025095e-35 -1.0000000180025095e-35 0.32888150052463333 1.0000000180025095e-35 0.82578645782478932 -0.39388934645741169 -1.1073709571732382 1.0000000180025095e-35 -0.46164911336197839 1.0000000180025095e-35 -0.63829221407129377 -0.91186460413232073 -0.59716864717111184 1.0000000180025095e-35 -0.55199546923473397 -0.62380502646507174 -0.52940888026654509 -1.1146045502428195 -1.0301725734166933
decision_type=2 2 2 2 2 2 2 2 2 2 2 2 2 2 2 2 2 2 2
left_child=5 3 -3 -2 -4 6 17 8 9 10 11 -8 -12 14 15 -9 -11 -1 -19
right_child=1 2 4 -5 -6 -7 7 13 -10 16 12 -13 -14 -15 -16 -17 -18 18 -20
leaf_value=-0.043679703898242779 0.26091797140951845 0.38102442124238345 0.12406898096162809 -0.044164865444417271 -0.042266610554563364 -0.040215599284849621 -0.03327321060926218 -0.032968830050430657 0.43946093542051945 -0.04015646511984014 -0.036079754065316688 0.23628353184679418 0.092099417355080371 -0.043277736739636169 -0.037950676746559511 0.17344012566930803 0.071819042189133528 0.098017899888713123 -0.041985552822632916
leaf_weight=4.2386257918551564 0.76199197489768256 0.88133128546178197 0.82464352343231473 6.833675405010581 1.483576565980911 11.886409397237005 0.35887034703046072 0.34933621715754271 0.25903652608394434 0.92892488138750196 0.48737639654427778 1.0139593230560424 0.67747903801500808 3.0447034668177366 0.64207012858241774 0.40637882333248854 0.37595708854496457 0.29805085435509671 1.6392805306240905
leaf_count=501 37 29 21 798 151 1407 34 36 19 78 45 46 53 348 73 24 35 26 191
internal_value=-0.0021894 0.0282785 0.123028 -0.011726 0.0174696 -0.0146636 0.00586668 0.0364538 0.0993579 0.0704382 0.109327 0.165369 0.0371336 -0.0215265 0.0239844 0.078798 -0.00458958 -0.0360003 -0.0172644
internal_weight=37.3917 10.7852 3.18955 7.59567 2.30822 26.6065 14.72 8.54409 4.1016 3.84257 2.53769 1.37283 1.16486 4.44249 1.39779 0.755715 1.30488 6.17596 1.93733
internal_count=3952 1036 201 835 172 2916 1509 791 310 291 178 80 98 481 133 60 113 718 217
is_linear=0
shrinkage=0.05


Tree=32
num_leaves=28
num_cat=0
split_feature=4 0 1 3 1 3 1 2 0 7 3 0 3 0 0 7 1 1 1 0 0 1 1 1 3 3 1
split_gain=1337.7 282.979 39.4593 24.6902 13.8875 24.6472 25.9539 4.26032 6.60776 4.11392 10.0793 3.19462 2.18803 1.31412 2.01047 3.88243 7.62279 1.98507 1.08962 2.16117 1.25242 0.692563 0.257343 0.47293 0.175178 0.172824 0.0351454
threshold=0.32746744198025463 0.71285351298384481 0.4547497961676184 0.37989641898417087 0.42977996699438548 1.5723443621969313 0.97078877597254609 1.0000000180025095e-35 -0.48423570233016727 1.0000000180025095e-35 0.85653602770946302 0.26112173362006658 -0.25505460043560874 -0.43906252439378951 -0.032503922966389237 1.0000000180025095e-35 0.20557667217253145 -0.23868926343579314 -0.11519645765504026 -0.21319663471190045 -0.32612957955284499 0.62455996887923859 -0.43467246468155024 -0.53762846156140898 0.43323291640893485 0.30696046398594584 1.0474058768173606
decision_type=2 2 2 2 2 2 2 2 2 2 2 2 2 2 2 2 2 2 2 2 2 2 2 2 2 2 2
left_child=3 2 -2 13 7 6 9 8 -5 -6 -11 -4 -13 -1 15 22 17 -17 20 -20 -19 -7 23 -15 -9 -16 -8
right_child=1 -3 11 4 5 21 26 24 -10 10 -12 12 -14 14 25 16 -18 18 19 -21 -22 -23 -24 -25 -26 -27 -28
leaf_value=-0.053384789304634819 -0.031317314514137704 -0.053660277362008436 0.12300241162160802 0.037661455097438117 0.028126986279835828 -0.026688626602341354 -0.038066472251873186 -0.036717390405759928 -0.054462525849280546 0.031134500560171155 0.12292100163583392 0.11323513239879379 0.062470610100201496 -0.052677418977545742 -0.053298841066470849 -0.053839676923961272 0.02300824558680958 0.0040857828186339979 -0.05344499084295349 -0.0099154651183781979 -0.032633035311926586 -0.053485108586033531 -0.052832517215044061 -0.025194011952486484 -0.053929596527318914 -0.037084318256259796 -0.052938521900283302
leaf_weight=224.7274377644062 4.266090288758277 26.915102481842041 195.73380561172962 3.7027816474437714 6.8350723534822508 3.6390420645475414 3.335659220814704 3.1172551065683392 3.9714554399251929 6.0939225703477859 6.0952287316322327 5.5385983884334564 4.3478906750678998 4.0748000741004944 89.810138687491417 14.106312125921248 5.6658239364624015 4.2185027301311493 8.5166905224323237 4.5471529513597533 4.8166876733303052 13.618218928575514 45.689259946346283 3.601028859615325 25.342085659503937 3.242236763238906 4.5919009000062943
leaf_count=1346 24 167 761 21 35 21 20 19 22 31 26 23 20 25 554 85 32 25 52 27 29 84 279 22 154 20 28
internal_value=0.00115061 0.098827 0.118401 -0.0457321 -0.0203023 -0.0014414 0.0283576 -0.0432755 -0.00973344 0.0600455 0.0775516 0.121527 0.0915881 -0.0506698 -0.0474028 -0.0420969 -0.0304849 -0.0389453 -0.0292249 -0.0385798 -0.0152858 -0.0480724 -0.0511239 -0.040354 -0.0521997 -0.0527809 -0.047272
internal_weight=730.16 236.801 209.886 493.359 80.3426 44.209 26.9518 36.1336 7.67424 19.0242 12.1892 205.62 9.88649 413.016 188.289 95.2363 41.8712 36.2053 22.099 13.0638 9.03519 17.2573 53.3651 7.67583 28.4593 93.0524 7.92756
internal_count=3952 995 828 2957 461 245 140 216 43 92 57 804 43 2496 1150 576 250 218 133 79 54 105 326 47 173 574 48
is_linear=0
shrinkage=0.05


Tree=33
num_leaves=31
num_cat=0
split_feature=9 2 0 8 0 0 1 0 1 0 1 1 1 0 0 1 1 0 2 2 0 1 1 1 0 1 1 1 1 0
split_gain=60.0081 56.5427 100.817 20.9699 11.9336 69.8967 6.91879 15.8633 6.31046 5.99428 10.5212 5.85994 7.67464 14.7224 5.80732 5.76118 5.31811 4.79889 2.95167 3.43025 4.09198 2.40184 2.35714 1.9534 2.82417 1.37071 1.21382 2.1758 1.11665 2.18086
threshold=1.0000000180025095e-35 1.0000000180025095e-35 -0.41647593542560057 1.0000000180025095e-35 0.62250715711108917 0.55474739020652242 0.15356048983502324 -0.077677100902767041 -1.0000000180025095e-35 -0.055090511934578139 -0.48522571015112231 -0.79895598234460696 -0.39314976237969379 -0.55199546923473397 -0.37130275748922276 -0.3716312512375346 -0.42341725627691434 -0.57458205820292285 1.0000000180025095e-35 -1.1073709571732382 -0.39388934645741169 -0.55083503265616063 -0.11519645765504026 -0.29472329594802421 -0.48423570233016727 -0.10899568451434023 -0.20190749055097404 -0.29472329594802421 -0.057198363369592241 -0.28095640161646712
decision_type=2 2 2 2 2 2 2 2 2 2 2 2 2 2 2 2 2 2 2 2 2 2 2 2 2 2 2 2 2 2
left_child=9 -2 3 11 5 6 7 14 -9 10 -1 -3 17 -14 22 16 -12 -13 19 -17 -21 -19 -4 -15 -25 -26 27 -20 -16 -30
right_child=1 2 4 -5 -6 -7 -8 8 -10 -11 15 12 13 23 28 18 -18 21 26 20 -22 -23 -24 24 25 -27 -28 -29 29 -31
leaf_value=-0.038826534479815114 -0.039722078464178648 0.2305690688979401 0.009041672722990864 -0.019848682979595508 -0.040907010205956308 0.23915980375863174 -0.02875522124572627 0.16535461755710201 0.034618851389162007 -0.045930533667348027 0.018569533427886208 0.041729179347476136 0.24205483496796654 0.073227528690244487 -0.045330498617374121 -0.042116958929955123 0.16346381309940849 0.17142481526502948 -0.042084602265900571 0.0049103460030623762 0.11644795232416637 0.092363274436894127 0.098635305798784753 0.17751100026687611 0.14064858849512324 0.064626638959846133 -0.044684883278736841 0.062575842016025396 0.027590838662370717 -0.044044536714229754
leaf_weight=21.235374763607979 24.055659037083387 2.1010843105614248 1.7458677887916567 1.9974917210638512 10.623415000736712 3.2272972650825968 14.524958807975052 2.0665703564882283 1.7971953526139302 43.939927123486996 1.4840361364185812 2.7406349740922451 4.0460861101746621 2.0160762891173425 4.9793465472757807 1.1448079235851762 1.1378739811480034 1.994866084307432 1.0248432420194147 1.8899812847375868 1.4835314936935886 2.792942635715014 1.3265002593398101 2.6039714403450547 1.2763355299830499 1.7372448183595837 3.0643314234912404 0.8648999035358419 1.976742699742317 2.1466504856944075
leaf_count=547 611 27 37 43 286 28 356 36 40 1169 33 40 37 30 118 29 22 24 22 41 34 37 29 34 19 31 75 19 46 52
internal_value=-0.00130168 0.026011 0.0494095 0.133509 0.00512098 0.0197044 -0.00373943 0.0187787 0.106402 -0.0337705 -0.0176198 0.148015 0.138279 0.164192 -0.00914548 0.019416 0.0842696 0.0969296 0.00085416 0.0301601 0.0556746 0.127253 0.0494846 0.121291 0.137301 0.0994101 -0.0254087 0.00490595 -0.0293698 -0.00918459
internal_weight=169.047 91.7769 67.7213 23.3067 44.4145 33.7911 30.5638 16.0389 3.86377 77.2696 33.3297 21.3092 19.2082 11.6797 12.1751 12.0943 2.62191 7.52844 9.4724 4.51832 3.37351 4.78781 3.07237 7.63363 5.61755 3.01358 4.95407 1.88974 9.10274 4.12339
internal_count=3952 1961 1350 322 1028 742 714 358 76 1991 822 279 252 151 282 275 55 101 220 104 75 61 66 114 84 50 116 41 216 98
is_linear=0
shrinkage=0.05


Tree=34
num_leaves=31
num_cat=0
split_feature=9 1 3 1 1 7 1 1 4 1 3 4 8 3 8 4 1 7 3 1 8 3 8 3 1 3 3 3 3 7
split_gain=402.233 339.52 202.546 165.058 72.8908 80.6241 35.4151 28.1842 27.1945 21.8095 15.5209 12.0203 9.07872 8.40501 7.76461 7.72725 6.58637 14.1208 6.28358 5.21431 6.21342 23.0019 4.7666 5.16939 5.57513 4.2669 3.74797 3.66271 4.76525 2.77174
threshold=1.0000000180025095e-35 -0.63829221407129377 1.2110049715568654 -0.8204008028670996 0.87114999361597822 1.0000000180025095e-35 -0.089358745534490511 0.35824657560931833 0.32746744198025463 -1.0016138311835117 0.39618825336297397 0.32746744198025463 0.91167626293940474 0.46509966048221651 1.7319565727927195 1.0000000180025095e-35 -1.5065382323217642 1.0000000180025095e-35 2.2514842676918492 0.33286216415510045 1.0000000180025095e-35 0.10040635109229405 2.9623770375726921 -0.62976891543107527 -0.55083503265616063 1.5604562953460299 -0.78515267595813187 1.1219974280554976 1.6106461568500658 1.0000000180025095e-35
decision_type=2 2 2 2 2 2 2 2 2 2 2 2 2 2 2 2 2 2 2 2 2 2 2 2 2 2 2 2 2 2
left_child=2 9 3 16 5 15 22 -7 10 14 -9 13 29 -6 -2 -5 -1 -18 19 20 26 -22 23 24 -3 -4 -8 -21 -29 -11
right_child=1 6 25 4 11 7 18 8 -10 12 -12 -13 -14 -15 -16 -17 17 -19 -20 27 21 -23 -24 -25 -26 -27 -28 28 -30 -31
leaf_value=-0.069034331679170502 -0.067736983357722089 0.0059553896822117447 -0.071073536555121955 0.039660130644680297 0.07641536447824962 -0.060646834178816882 0.045528777702592185 0.067828879314847587 -0.06508255403453353 -0.010580443095632927 -0.031366843932548759 -0.0050340477784443609 0.041552636077769427 0.023827164755475638 -0.0062291111996114687 -0.012220761743382109 -0.017226222830145854 -0.070489573298396543 0.027641690665381857 0.073142895709493658 0.074098280112407613 -0.029713108757860974 0.070549039871072222 0.012018031373755213 0.039308819878951309 -0.031310234770462707 0.067075090221130146 0.019262681239142668 0.066379529470133855 -0.03821967207773859
leaf_weight=57.376315504312515 65.659657210111618 14.926680386066435 198.62633585929871 71.919839471578598 51.413763523101807 48.040678381919861 30.629302024841309 12.948190599679952 9.7648622989654523 16.063872456550598 5.5861630439758292 6.035464107990264 5.5334888398647299 9.1526324450969678 5.6750460267066947 7.8703656196594229 25.108903795480728 25.010026663541794 13.564106822013853 121.29549598693848 12.685902863740923 9.1044837832450849 7.1779777705669394 35.541699022054672 85.089705526828766 7.3350743055343619 68.858849853277206 8.0598629713058489 17.455710917711258 21.89175146818161
leaf_count=217 247 54 752 259 187 175 110 47 36 58 20 22 20 33 21 29 93 94 49 441 46 33 26 128 306 27 249 29 63 81
internal_value=-0.000104343 0.0303851 -0.0307704 -0.00648973 0.0180595 -0.000610957 0.0510244 -0.0373473 0.00215483 -0.0458653 0.0377933 0.0618326 -0.0178481 0.0685358 -0.0628865 0.0345069 -0.0573642 -0.043899 0.0613168 0.0630058 0.0551648 0.0306405 0.030683 0.0285284 0.0343615 -0.0696775 0.060493 0.0694452 0.0516608 -0.0266171
internal_weight=1075.4 539.214 536.189 330.227 222.732 156.13 424.39 76.3399 28.2992 114.824 18.5344 66.6019 43.4891 60.5664 71.3347 79.7902 107.495 50.1189 281.654 268.09 121.279 21.7904 142.736 135.558 100.016 205.961 99.4882 146.811 25.5156 37.9556
internal_count=3952 1961 1991 1212 808 566 1534 278 103 427 67 242 159 220 268 288 404 187 1020 971 438 79 514 488 360 779 359 533 92 139
is_linear=0
shrinkage=0.05


Tree=35
num_leaves=21
num_cat=0
split_feature=3 3 8 2 7 2 9 2 3 2 9 3 3 2 7 2 8 8 2 9
split_gain=15.1514 14.1416 6.32804 3.01144 2.86589 3.95199 9.19034 3.36298 2.70963 2.34986 9.52668 1.0898 4.65955 1.63149 1.99764 0.893789 0.334811 3.20489 0.12054 0.0265217
threshold=3.2994757495335323 -0.86283588611794582 1.0000000180025095e-35 -1.0000000180025095e-35 1.0000000180025095e-35 -1.1073709571732382 1.0000000180025095e-35 -1.0000000180025095e-35 2.550009118984474 1.0000000180025095e-35 1.0000000180025095e-35 -0.31820114566635299 -0.33759263398977574 -1.1073709571732382 -1.0000000180025095e-35 1.0000000180025095e-35 0.91167626293940474 1.7319565727927195 -1.1073709571732382 1.0000000180025095e-35
decision_type=2 2 2 2 2 2 2 2 2 2 2 2 2 2 2 2 2 2 2 2
left_child=1 2 4 16 9 19 7 -7 11 10 18 12 13 14 -3 -8 -4 -18 -1 -6
right_child=-2 8 3 -5 5 6 15 -9 -10 -11 -12 -13 -14 -15 -16 -17 17 -19 -20 -21
leaf_value=-0.0096092845982565095 0.42110696058220659 0.16225040351747572 0.16380255492648355 -0.029330479282846589 -0.00054190716198433187 0.073925543052998463 0.050462318935331041 0.29145264053612085 0.10706233061563129 -0.042524221983689256 0.20266887111276832 -0.044334655541050975 0.2417604189189064 -0.042734090608215196 -0.028972541410415605 -0.037430752636916219 -0.030519693983811963 0.17305796681682706 -0.038488427320474174 0.0093117855629534282
leaf_weight=1.5015962873585527 0.16359892627224226 0.18974009063094854 1.1452761203981938 0.25751577317714769 1.187222942709923 0.36856309277936816 0.46766235725954175 0.54259253945201602 0.27631019940599877 2.1523925173096359 0.55436749197542656 11.435301652178163 0.12362494552508252 2.2542562680318952 0.24979459587484676 0.60398539248853922 0.28128740517422546 0.40737744327634573 0.69425986520946215 0.86973346769809712
leaf_count=212 10 15 125 42 165 49 34 58 28 379 63 1937 21 368 35 108 37 42 98 126
internal_value=0.00169474 -0.00170865 0.0407603 0.118289 0.0217928 0.0527396 0.102223 0.214487 -0.0341617 -0.00347769 0.0264019 -0.037439 -0.00829407 -0.0248773 0.0566091 0 0.140573 0.0900842 -0.0205067 0.00256004
internal_weight=25.7265 25.5629 11.0338 2.09146 8.94238 4.03976 1.9828 0.911156 14.529 4.90262 2.75022 14.2527 2.81742 2.69379 0.439535 1.07165 1.83394 0.688665 2.19586 2.05696
internal_count=3952 3942 1538 246 1292 540 249 107 2404 752 373 2376 439 418 50 142 204 79 310 291
is_linear=0
shrinkage=0.05


Tree=36
num_leaves=18
num_cat=0
split_feature=1 4 1 0 0 1 1 1 0 3 3 0 0 1 1 0 0
split_gain=18.2358 22.2456 5.89277 8.07666 2.4451 2.55843 2.75338 1.91476 1.60126 0.654052 6.15349 0.800211 3.45228 0.653713 2.72118 0.251969 2.66585
threshold=-0.48522571015112231 1.0000000180025095e-35 -0.91186460413232073 -0.61975523613930072 -0.64234182510748961 -0.61410145384549486 -0.74662534183531892 -0.77939520663371498 -0.71010159201205625 -0.49507168675957031 -0.53791985546486332 -0.48423570233016727 -0.50682229129835621 -0.61410145384549486 -0.57348066783064333 -0.777861358916623 -0.80044794788481199
decision_type=2 2 2 2 2 2 2 2 2 2 2 2 2 2 2 2 2
left_child=1 2 15 4 5 6 8 -6 -4 10 11 12 -2 -5 -15 16 -1
right_child=9 -3 3 13 7 -7 -8 -9 -10 -11 -12 -13 -14 14 -16 -17 -18
leaf_value=-0.041264863849628221 -0.038475584995174859 0.22504666456327277 0.12088172962850677 -0.040449543274732533 0.33744557661108388 -0.031099250805871538 0.19789194138841493 0.10175069678338716 -0.03235434539697777 -0.044095338160597831 0.30297917275659536 -0.043016944203913429 0.18824446042868401 0.1611247070610114 -0.03678956478400585 -0.042042015076694521 0.12316070789284578
leaf_weight=1.3505522771738467 0.71720567438751459 1.564469628036022 0.24930050922557689 1.0147575307637451 0.21071915188804269 0.2944157444871961 0.56520915310829878 0.28900525579229031 0.32073081750422716 8.9154283546376956 0.093054568860678866 2.8747423659078777 0.16353466780856329 0.19140775874257088 0.54435166530311319 1.7627815050072966 0.24629898648709048
leaf_count=281 148 12 16 138 18 36 32 26 29 2032 19 623 33 25 90 351 43
internal_value=0.00130002 0.0574844 0.0185681 0.0621072 0.131451 0.0896959 0.123123 0.227337 0.0349744 -0.0364545 -0.0177741 -0.0302551 0.00878659 -0.0144615 0.0184927 -0.0285996 -0.0114165
internal_weight=21.368 8.604 7.03953 3.6799 1.92938 1.42966 1.13524 0.499724 0.570031 12.764 3.84854 3.75548 0.88074 1.75052 0.735759 3.35963 1.59685
internal_count=3952 1097 1085 410 157 113 77 44 45 2855 823 804 181 253 115 675 324
is_linear=0
shrinkage=0.05


Tree=37
num_leaves=15
num_cat=0
split_feature=1 2 3 0 7 1 9 1 1 2 0 0 0 0
split_gain=11.8454 14.8426 8.56456 8.84338 10.166 7.05171 2.43397 10.9342 2.61542 2.16897 5.29353 6.6023 0.560262 5.11202
threshold=-0.22955617918114229 -1.1073709571732382 -0.76582067556865108 -0.75527476994843412 -1.0000000180025095e-35 -0.65740498823396243 -1.0000000180025095e-35 -0.43467246468155024 -0.43467246468155024 1.0000000180025095e-35 -0.61975523613930072 -0.57458205820292285 -0.32612957955284499 -0.34871616852103388
decision_type=2 2 2 2 2 2 2 2 2 2 2 2 2 2
left_child=1 -1 3 -3 9 -6 8 -8 -7 10 -5 -12 13 -2
right_child=12 2 -4 4 5 6 7 -9 -10 -11 11 -13 -14 -15
leaf_value=-0.042920169166665939 -0.041055047197189859 0.29231176219164845 -0.039696326620062783 -0.03609159074631129 -0.029774354261813681 0.22662913170510257 0.12376878846509892 0.5044565822962378 -0.024571417990235843 -0.039751731829178072 0.37144870992232099 -0.022281901790822303 -0.043911955728001092 0.25129504326950913
leaf_weight=2.7596327064093202 1.2740262371953575 0.6860238648951057 0.83083606697619039 0.48091693036258221 0.26605674833990622 0.13317874586209655 0.53952963557094324 0.3133422548417002 0.18419255106709886 0.92200866597704589 0.18937069410458207 0.16199527261778734 7.0451362770982078 0.11805647145956655
leaf_count=756 348 12 144 51 52 20 40 42 31 234 13 45 2132 32
internal_value=0.00218745 0.0480355 0.101772 0.132848 0.0938082 0.19014 0.241358 0.286592 0.0905329 0.0104693 0.0680379 0.203531 -0.0381382 -0.00667521
internal_weight=15.9043 7.46708 4.70745 3.87662 3.19059 1.4363 1.17024 0.852872 0.317371 1.75429 0.832283 0.351366 8.43722 1.39208
internal_count=3952 1440 684 540 528 185 133 82 51 343 109 58 2512 380
is_linear=0
shrinkage=0.05


Tree=38
num_leaves=31
num_cat=0
split_feature=0 1 1 0 8 7 1 0 1 1 8 1 8 0 1 1 0 0 1 1 1 1 1 1 1 1 0 0 0 1
split_gain=112.625 68.6274 15.2505 17.4662 16.7455 15.1453 7.11778 6.05936 7.79054 6.90782 4.64348 4.33094 4.06231 3.54086 7.11478 3.2694 3.06972 2.81464 2.66996 2.6399 2.50856 3.77385 4.05827 2.49734 5.17807 5.99228 1.68457 2.05798 1.48981 1.41521
threshold=-0.32612957955284499 -1.1146045502428195 -0.48522571015112231 -0.43906252439378951 2.9623770375726921 1.0000000180025095e-35 -0.043421935306395133 -0.59716864717111184 -0.63829221407129377 -0.58911931177819266 1.0000000180025095e-35 0.14104838055546912 0.91167626293940474 -0.57458205820292285 -0.3716312512375346 -0.44222824110942527 -0.52940888026654509 -0.71010159201205625 0.59082906856429529 -0.23868926343579314 -0.28437718660176697 -0.20190749055097404 -0.089358745534490511 -0.033927031210821156 -0.20190749055097404 -0.29472329594802421 -0.43906252439378951 -0.52940888026654509 -0.55199546923473397 -0.3519273573273059
decision_type=2 2 2 2 2 2 2 2 2 2 2 2 2 2 2 2 2 2 2 2 2 2 2 2 2 2 2 2 2 2
left_child=1 -1 7 4 5 15 13 9 -9 12 11 20 17 -7 -15 -4 -17 -3 -2 -16 29 -22 -23 24 25 -18 27 28 -10 -5
right_child=18 2 3 10 -6 6 -8 8 26 -11 -12 -13 -14 14 19 16 23 -19 -20 -21 21 22 -24 -25 -26 -27 -28 -29 -30 -31
leaf_value=-0.037743940105043235 -0.027393722983133469 0.02333984793447488 0.13909483608929393 0.026135272132209831 -0.044040842001709962 0.15690249663967556 0.19604814006815574 -0.031103487487415166 0.055172767821746606 -0.044237320981668438 0.11787806627171907 -0.028364480863684861 -0.012919792882068662 0.0059269025216698631 0.17079011758987628 0.029969806196787879 0.11479219350404302 0.081109318963211108 -0.046090705216220759 0.08689953734854329 0.12918793988564578 -0.020533635804666113 0.063659096421467262 0.020238366961483012 0.16699731009048649 -0.012815328915465994 -0.0059840675199745157 0.10360313872009533 -0.0072734253965573946 -0.042804005122603024
leaf_weight=23.689706943929195 29.296877339482307 2.7952999025583276 1.5560784600675113 2.0001685507595544 1.8497584909200657 4.0328836925327769 4.7505786567926416 6.6905018016695976 2.8641017042100421 1.6334138102829481 1.4569800533354271 2.9475082382559767 1.5661837682127941 1.7614111937582482 1.9912758395075782 5.1289008893072596 2.1086088493466373 11.59647349268198 61.74653734639287 2.5195566490292562 1.3632849343121032 2.0133631937205765 4.4514311477541968 1.4198898561298881 1.8111575357615946 1.5312184207141397 1.2868013307452182 1.605246867984534 1.3069992512464521 1.1169482134282569
leaf_count=538 683 53 23 36 40 36 35 135 43 28 22 61 30 22 21 85 34 179 1529 28 21 35 77 21 25 23 23 26 20 20
